solver_type L2R_L2LOSS_SVC_DUAL
nr_class 6
label 1 2 3 4 5 6
nr_feature 1000
bias -1
w
-1.192999714283951e-05 -5.16702273460928e-06 7.378023258883088e-06 -8.964892249294593e-06 -3.931759931914759e-06 2.301018796725745e-07 
-2.14255437649504e-05 -2.706986533459108e-06 1.77070644514407e-05 -1.302935584924193e-05 -6.360329367498414e-06 -1.406634534587987e-05 
-2.787736040209927e-05 -1.49147724002398e-05 2.854151500037499e-05 -1.645363542623202e-05 -1.586329693127885e-05 -1.228693103263182e-05 
-1.800338759657696e-05 1.406768893267862e-05 -3.578504767839777e-06 -8.014359849269799e-06 -6.364972295749694e-06 1.551389490386474e-05 
-4.017086979442939e-06 -1.899389207410261e-05 8.055023553238813e-06 -3.034967192390345e-05 5.238565574385907e-06 1.871497954196558e-05 
-8.458724029936114e-06 -2.101070020310372e-05 2.24682619347722e-05 -3.756722381355736e-05 1.064632442125701e-05 -9.207821913027281e-06 
-1.745852335900921e-05 -9.801392757384419e-06 5.917804182105395e-06 -1.232966543004204e-05 -6.282942479664005e-06 1.412297860573768e-05 
-2.483610337260541e-05 -2.408695679961395e-05 1.182531786600422e-06 -2.354387918494049e-05 -1.753624968758409e-05 3.46376403344366e-05 
-9.116151161757391e-07 5.571797283665178e-07 4.636121380566615e-07 -2.903466844219503e-07 -8.474326691429321e-07 1.65490034315412e-06 
-7.415265012365922e-06 -3.715203477421775e-06 7.220502905231912e-06 -6.818650992723249e-06 -5.06781794271708e-06 -3.741887531688349e-06 
-1.210080528391649e-05 6.906516531608664e-06 -4.726914807866464e-06 -1.462417182787882e-06 -7.368862733484431e-06 8.643326020698455e-06 
-1.396764124763011e-05 -6.093271163924296e-06 1.226748953372162e-05 -3.331888041025194e-05 -9.234541805654082e-06 -1.060663407989834e-05 
-2.239540367305588e-05 -2.346809003031113e-06 8.741197314256934e-06 -4.936143009944633e-07 -1.836614000379124e-05 9.003842895635035e-06 
-2.225875668176616e-05 3.087715149720633e-05 -4.442167253171722e-06 -9.521028428360852e-06 -1.253219009760544e-05 1.348799378371446e-05 
-1.234442084196179e-05 1.277052898776342e-05 -3.922517556468927e-06 -3.762338603527291e-06 -6.730856178890554e-06 1.832709672715825e-05 
-7.007268717563822e-06 5.776782770117532e-06 -4.053361938692244e-07 -1.186721220745711e-06 -2.733385262070503e-06 5.091678203045428e-06 
-2.91467332540671e-05 -2.345471049323049e-05 2.939701512094042e-05 -4.473689398735561e-05 -1.250458795742627e-05 -2.499993363427428e-06 
-4.005663587632343e-05 -3.242300632990407e-05 -1.675064239639801e-05 -1.88575977372496e-05 -3.087087180833273e-05 8.490832296794005e-05 
-1.150471150350373e-05 1.692822420746181e-05 -1.098241457157882e-05 8.475829156151109e-06 -8.055066917842527e-06 -2.614584639456437e-06 
8.791460999208758e-06 -4.954663737157019e-06 -8.400849184970932e-06 5.140211272907689e-06 -7.519518108534352e-06 -5.912869760666546e-06 
3.857082175404631e-07 1.676767667962787e-05 -3.430411553930691e-06 2.744621173984009e-06 -5.577575682720139e-06 4.223716303407907e-06 
-6.334485954053412e-06 -6.047222804985403e-06 1.129961764294324e-05 -9.604712313024247e-06 -7.09831218862813e-06 1.63656691721387e-05 
-3.818054197114584e-05 -1.80070438284443e-05 1.219210657061949e-05 1.420659982836969e-05 -2.192152333102751e-05 -1.51722300331843e-05 
-3.169710586284947e-05 -1.833390070782517e-05 -2.340194665835658e-05 1.407966557323714e-06 -2.091061264653554e-05 6.464107768908656e-05 
-2.851471188363958e-05 -5.463263187735039e-06 -1.130159166983768e-05 -4.421678952860017e-06 -1.239238881004975e-05 4.106416106300577e-05 
-1.00108278291964e-05 2.166582852357594e-06 -5.178877627148261e-06 6.096395124162565e-06 -3.681420251067226e-06 1.080633217752234e-05 
-8.135435200868675e-06 3.763008176223193e-06 5.66131557256493e-07 -4.356326651512835e-06 -1.463262103622976e-05 2.670097394152413e-05 
-4.759826229188836e-05 -4.295225594743797e-05 -2.717700017711285e-05 -6.95445739394535e-06 -3.8242473087499e-05 9.768403251207742e-05 
3.257233946848736e-05 1.710113247274539e-05 -1.153904919437516e-05 1.024310537545581e-05 -8.257812031358627e-06 -1.41083006912897e-05 
3.736294964473709e-05 4.89180551747751e-06 -6.709136488524856e-06 6.002841808210506e-06 -7.704309441923887e-06 9.082770646094245e-06 
-3.14309776847222e-05 -3.206547906708406e-05 -1.464727131485516e-05 -4.486983461690091e-06 2.71234120463149e-05 3.145006807083216e-05 
-4.370356608667719e-05 -2.508075554856471e-05 -1.24691183080129e-05 -1.027826484169753e-05 -2.95867901565743e-05 9.092478075561825e-05 
-4.174047302319978e-05 -1.719436559899349e-05 -2.968770573606574e-06 2.855333448601449e-05 -4.784918354957401e-05 1.793750342912947e-05 
-3.736098887906991e-05 -3.467505587118777e-05 -2.433521715527075e-05 -1.292529400791314e-05 2.147228182905175e-05 6.146306746879573e-05 
-2.001900433715695e-06 -1.817430466220155e-06 -7.345330393630192e-06 5.449632913457328e-06 8.303768156136728e-07 1.240095581676391e-05 
1.294766259691546e-05 -6.034200074476334e-06 -9.393496598939877e-06 1.363358766420552e-05 -7.343955101987164e-06 8.844489599749957e-07 
-3.269122680974747e-05 2.685663077646208e-06 -1.887247149726446e-05 -7.35104154853608e-06 -3.188968220883228e-05 7.720840983784758e-05 
3.501739085004149e-06 -6.129357091708361e-05 -1.156299483936465e-05 -1.233611166392113e-05 2.30937270969674e-05 1.180705233148524e-05 
-4.981046281540967e-06 -4.916677207131762e-06 -1.337862024573081e-05 -8.342383575859739e-06 1.512980134943372e-05 1.819120703598819e-05 
-9.533928398955485e-06 -2.091193007582432e-05 -1.548309225262368e-05 -4.776880501089222e-06 3.881133847260928e-05 -1.252929859992435e-06 
-4.338986152422489e-05 -9.14091965811524e-06 -1.019772977944156e-05 -1.973538873984431e-05 2.804833599779891e-05 -7.55320555281031e-06 
-2.42281277802005e-05 -2.176967425223412e-05 -1.652301100996645e-05 -2.596484633488091e-05 1.21104663660862e-05 1.818790948230895e-05 
-2.748774110106924e-06 -1.855796213899559e-05 -1.164529862582127e-05 -1.18559089197993e-05 -7.566929043856035e-06 1.727357821784991e-05 
-5.492474595737511e-05 9.628281824133949e-06 -1.183257096583482e-05 -2.908952179432323e-05 -9.599820443317275e-06 4.732108989651583e-05 
-3.141891558992502e-06 -1.260139460219942e-05 -6.454724414550849e-06 -7.178927620135742e-06 2.539780115612111e-05 -1.86923738910525e-05 
-7.778236180149811e-06 1.1352605969625e-05 -5.153210726880435e-06 -2.324645328347975e-06 -1.552277969171614e-06 1.59695591688781e-05 
-1.370670831927517e-05 8.535845392265825e-06 -1.171514445374841e-05 -1.610811400042448e-05 -1.495575821356365e-05 3.454966752742825e-05 
1.042371620239931e-05 -5.495634591906951e-05 -3.605455232692957e-05 -2.768320855738937e-05 0.0001030855627602501 -8.624782916884616e-05 
-3.34337801787462e-05 1.974599390108307e-06 -1.538475574158504e-05 -1.590496363071054e-05 4.06632341606174e-06 2.237632407166825e-05 
-3.691010473897568e-05 -1.226243175112717e-05 -4.380718297485387e-06 -1.077092998692139e-05 3.486154241209919e-05 2.103450171623215e-06 
-6.716800036209771e-06 -1.908854502270887e-06 -7.236840952818377e-06 3.655467522765301e-07 1.440995988137587e-05 -9.647878744388769e-06 
-5.635279281018502e-05 7.278916440166285e-06 -8.673914469679305e-06 -3.73164924747259e-05 2.153292989531353e-05 2.972650031128778e-05 
-1.578537315804867e-05 -3.028433482382592e-06 -2.866670448411824e-05 1.635384118109607e-05 -2.733498057766999e-05 5.251553456760008e-05 
-4.945132389243877e-05 -1.588322796620779e-05 -1.822590062832401e-05 -3.046994291124936e-05 5.518144069563098e-06 6.136904067944294e-05 
-8.844016112060322e-06 4.509926777322308e-08 -7.252084404084402e-06 -5.16060666420871e-06 2.478828390695525e-05 -1.450971969653191e-05 
-6.577521170823097e-05 -1.735971378334877e-05 -2.171247968044483e-05 -1.147434024262028e-05 5.149216798650844e-05 -6.592753863160661e-06 
-4.33985740717488e-05 -1.886925512449114e-07 -1.917227348990062e-05 -1.776659284888197e-05 2.34456454446903e-05 2.702786572124897e-05 
8.45229766113812e-06 -5.346220439560287e-05 -2.583993550287528e-05 -2.249784072360793e-05 8.081932881608131e-05 -5.675601763561414e-05 
-3.485543327120785e-05 7.307928834777862e-06 -1.713896011093729e-05 -1.169777928483608e-05 -2.375895970559781e-05 6.359784149345073e-05 
-1.332432597552075e-06 1.864256741667125e-05 -9.574993934387338e-06 7.784577457369638e-06 -7.508767778875716e-06 -2.541638809931513e-06 
-1.768569427072921e-05 -3.163292985002559e-06 -5.551480168389791e-06 -6.615497641586597e-07 -3.919152987607338e-06 3.900490657625466e-05 
-5.010247844989579e-05 -2.640853170083174e-05 -2.642536329116567e-05 -1.172087026063056e-05 -7.799017862688326e-06 0.0001225999179429189 
-5.021273702746849e-05 -1.977628375226397e-05 -2.953185743264273e-05 5.097646903350646e-05 -3.248917647847703e-05 2.712715202530879e-08 
-3.042052925991652e-05 -2.317180010113252e-05 -1.041677703211514e-05 -1.017767445767192e-05 -1.515812268691017e-05 5.415360746962085e-05 
-1.602598721102693e-05 -2.114081338650432e-05 -5.658527329108688e-06 -1.828491081187726e-06 -3.467204966883343e-06 3.821334461451421e-05 
6.245133051268163e-06 -2.132503558771798e-05 -9.96052229186036e-06 -8.525182361310227e-06 2.095982001078617e-05 -2.796321384743314e-06 
3.672025203861281e-05 -1.139703576485252e-06 -1.032018595955631e-05 6.89313296069033e-06 -9.170648463771304e-06 6.987587319196496e-06 
-2.93981258277571e-05 -3.361972729797004e-05 -2.876456890850957e-05 1.272501879209825e-06 1.425699179034782e-05 1.340390455748811e-05 
-4.055081465604877e-05 3.130543006876369e-06 -1.636730715839942e-05 -2.039322767624836e-06 -1.854188870037866e-05 5.08726873504754e-05 
1.572310125486453e-06 -2.738284996144062e-06 -6.627054024460869e-06 1.010026015218615e-05 -5.433538548592446e-06 1.68795810753323e-06 
-1.193633843290098e-05 -7.248297141175079e-06 -4.892801681557957e-06 -5.292886211657766e-07 -9.635672810028392e-06 1.861218995997108e-05 
-1.451146152133079e-05 -2.166839281882731e-05 -1.711848921926261e-05 3.49417295510046e-06 -1.626036483905281e-05 4.348262582147133e-05 
-2.30731516527718e-05 -2.009893918773593e-05 1.97582016237696e-05 -4.030452608884097e-06 -3.942735809885345e-05 -6.980269991097013e-06 
-7.421315825938415e-06 -1.015469361029865e-05 1.267825385191539e-05 -1.893236691722903e-05 -4.072963122794934e-06 1.210133037991124e-05 
-1.763645020158465e-05 1.324569308198122e-06 -9.598303815097097e-06 3.421604448492351e-06 -4.768114505953949e-07 3.464238416235125e-05 
4.517538309280286e-06 1.235562580776788e-06 -1.16645559058004e-05 1.297851470108572e-05 -2.66842993874426e-06 6.228032473370142e-06 
1.840425242331329e-06 1.043330920016909e-05 -1.418555762598573e-05 6.038822052310506e-06 -4.393979592350287e-06 -6.592762660617584e-06 
-5.503193023736886e-05 -2.448635233794903e-05 -2.262348112279205e-05 -1.743189255341566e-05 -3.441427113676435e-05 9.07339629429901e-05 
-2.395530982602114e-05 1.164169528192659e-05 -5.65300722924128e-06 -7.552022647057286e-06 -9.130272525402631e-06 1.930168108688071e-05 
-7.021574542034971e-06 5.623572526592298e-08 -5.510247608185715e-06 9.935208535675658e-06 -1.350242330068961e-06 -3.282876671674309e-06 
6.83331173183243e-06 -2.186908441598679e-06 -6.46143042391021e-06 -2.923773490808187e-06 1.590652690683476e-05 -4.037641354843613e-06 
-1.822192320710633e-05 1.320617378354198e-05 -4.01450238105255e-06 -1.019730281424834e-05 -1.090895075047783e-05 2.239153129137038e-05 
-1.735192185617339e-05 -8.17916367515027e-06 -9.908260302284881e-08 8.791312513240923e-06 -1.378381114520882e-05 1.313420235455284e-05 
-1.380938682102351e-05 -7.813300930551118e-06 3.489264117770973e-05 -3.5335531829684e-05 -1.018505082267138e-05 -1.268198169747668e-05 
-9.395676710911639e-06 8.578192070708096e-06 -3.837807095581855e-07 -5.182785944553884e-06 -2.887037894316898e-06 1.068496804804353e-05 
-7.419143574073152e-06 6.180713779719036e-06 -2.961482919105013e-06 3.111751206365758e-07 -2.391232315371074e-06 7.711589976808377e-06 
-1.015548960653543e-05 -2.374148492435302e-06 -1.056289169077246e-05 8.16700737855127e-06 -3.791376425434871e-06 1.621817040152941e-05 
-5.1094880853765e-05 -2.85094918172724e-05 -1.984835193013469e-05 -2.689229796960424e-05 -3.914524498116584e-05 0.0001075927482998862 
-1.919893274897192e-05 -1.676573059586572e-05 3.340799528939226e-05 -4.396075544702274e-05 -8.775501604143736e-06 1.181995630182933e-05 
-3.640030437330696e-06 7.256551028778887e-07 -4.847320174713338e-06 -4.951430491294439e-06 1.817232988256994e-06 1.477604734694587e-05 
4.571009621924015e-06 -1.213657703064642e-05 1.015432095650467e-06 -1.077085940039327e-05 -1.093285230108172e-05 2.261186138011704e-05 
-7.380620782825694e-06 1.548744529027985e-06 3.294392763322014e-06 -5.950720754038256e-06 -7.092642800177206e-06 1.043120219732453e-05 
-9.416043974367275e-06 -1.560256307233763e-05 2.451118093037729e-06 9.909970024240285e-06 -4.14064818174254e-05 2.274249961256324e-05 
-6.685188116048702e-06 -2.688319072986892e-06 1.894883956584907e-06 -1.605044650708801e-06 -1.866673906185338e-06 3.413454581527779e-06 
-4.848309647884198e-06 -2.00518635020842e-07 1.022586336935994e-06 -1.414358785288183e-06 -1.265529158412649e-06 3.48911941827686e-06 
-2.411502700482716e-06 -7.16033919948964e-07 1.868378582099299e-08 -3.208753994336676e-07 -1.309330251834467e-06 2.652466865385455e-06 
-1.192204252125661e-06 1.018882049342217e-06 1.101191890463853e-07 -8.27286064865045e-07 -4.691979571499215e-07 2.854065179412461e-06 
-1.162519669806583e-05 -2.176202732156106e-05 -9.798232616861762e-06 -1.498609839361051e-05 -1.908126616192844e-05 4.569660725675546e-05 
-6.840192509466314e-06 -1.152235512408857e-05 7.09577123052905e-06 -6.845579464736376e-06 -6.941760706034155e-06 2.952888878689306e-06 
-2.719439588416751e-05 -5.86853326172533e-06 1.89224975128309e-05 -2.952950749029346e-05 1.473732371539548e-06 1.302074657285413e-06 
-2.067797103192001e-05 1.5823051698482e-05 -2.868247889219526e-06 -5.463669284684786e-06 -3.547070967718708e-06 3.135404102873318e-06 
-4.312884985302577e-05 4.419065001194075e-05 -1.22056917432272e-06 -2.265736118378157e-05 -1.431432965231252e-05 -2.644405608527208e-05 
-3.184671452369123e-06 5.653845195488284e-07 -5.615666399723935e-07 -8.319367183447543e-08 -1.44351558307642e-06 3.949759277458545e-06 
-2.375126628469362e-05 2.709180882401531e-05 -2.07196782656031e-06 -1.498443016489673e-05 -1.139306048319973e-05 1.199297782241105e-05 
-7.099326357212399e-06 2.181013886117479e-05 2.050689657679054e-05 -4.654013219071326e-05 -1.886862673670991e-05 -2.994764966639741e-06 
-1.455614083399319e-05 1.473686128885592e-05 -1.009317933259058e-05 3.726850959963904e-06 1.296941216837072e-05 -1.870934037398398e-06 
-3.33516817224518e-06 -1.733343607528667e-06 1.770472207955054e-05 -6.380772065405468e-06 -4.14507211298777e-06 -3.809970512885e-07 
-3.074525963008935e-05 -1.818492093677267e-05 -2.944188285059314e-06 -1.506251645919523e-05 2.698624721746137e-05 -2.394511038616738e-06 
-1.360266316810451e-05 3.579277859536881e-06 7.379176395512236e-07 -5.482064793466537e-06 1.3000561384821e-06 3.23456082379192e-06 
-9.519273385985967e-06 8.746498434206624e-06 2.067563607222173e-06 -6.33503593536088e-06 -7.561159916060451e-06 6.854260835957624e-06 
-3.446025702169874e-05 2.424650948980451e-05 -8.042155318530263e-06 -1.800364083622174e-05 -2.201430744629753e-05 -1.004398312209423e-05 
-1.673066718387679e-05 -1.630129649918841e-05 2.999199634907108e-05 -1.062319791972039e-05 -1.677933187544187e-05 -1.415835865269684e-05 
-9.508857542637106e-06 -1.280453046450951e-06 -3.907857757559814e-06 -2.785100966238683e-06 -1.187062317116491e-05 1.065748676097095e-05 
4.1494515270766e-06 1.100024719814638e-05 -5.94379988692352e-06 -4.858585860791863e-06 -1.674509942778625e-05 3.635912988769061e-06 
-2.00767039135372e-05 1.68039291056455e-06 -2.41464935513242e-05 -1.288837350066494e-05 -1.801791193068129e-05 3.884261780789723e-05 
-4.769161325778774e-07 1.74842514151415e-05 -5.067190827699766e-06 -1.43538715588093e-05 -1.134507794249843e-05 -7.951651411123609e-06 
-2.284286090191313e-05 -1.649894503791252e-05 1.661688374500176e-05 -2.146411648695878e-05 9.062246718336866e-06 -8.72987882568191e-06 
-1.433440651655483e-05 -1.585432614418708e-05 -8.052954348545974e-06 -7.133632267781031e-06 -5.460565211356687e-06 3.021268779153193e-05 
-2.759118488273313e-05 3.978932015717878e-05 -1.867113895730835e-05 -1.667266447135347e-06 -1.596998997872002e-05 4.579761740165867e-06 
3.536373290072568e-05 9.310368042982149e-06 -1.394905007147976e-05 7.430644086966303e-06 -1.505155170431635e-05 -2.885381488791181e-05 
1.831415736158089e-05 1.806493215144242e-05 -1.369232019249065e-05 1.003082173515847e-07 -3.144885963771288e-05 -9.058436998526741e-06 
-1.37142714394941e-05 -1.299717500481933e-05 1.003183126717014e-05 -2.50074241355922e-05 -1.178518312448616e-05 -1.694185589276967e-06 
6.275589410169402e-06 -1.309357241582766e-05 -1.48135507288492e-05 2.749735758773768e-05 -1.210202942789343e-05 -3.898233169539395e-06 
8.77654143159883e-06 -5.929289086723553e-07 -1.292518957637243e-05 5.602163307560435e-06 -1.459687509032956e-05 -7.81378841985195e-06 
-2.138039157506964e-05 -1.401431648607764e-05 -3.224784619382723e-05 1.144165393612303e-05 -5.517857368107283e-05 1.931228504895561e-05 
-6.308381835382359e-06 -1.289042701827797e-05 -1.266025000993249e-05 3.251982378356131e-06 -2.184871382908352e-05 2.425642863325444e-05 
-2.111576680905838e-05 -2.306424861036675e-05 2.740751659447489e-05 -1.973469053114218e-05 -1.708481255894827e-05 -2.101758111342591e-05 
-2.318113665347275e-05 -1.799675394230644e-05 -2.048806545878589e-05 2.134413091398264e-05 -1.271012795210698e-05 2.78111239172871e-05 
-8.96790744612372e-06 1.716561970985317e-05 -1.413444841861285e-05 7.024514571598488e-07 2.370663379120044e-06 9.972121566844126e-06 
8.977580469388757e-05 3.419605756250239e-05 -1.342879065769814e-05 -1.11971295704879e-05 -2.99952952738521e-05 -2.460944235639444e-05 
-2.479001167489188e-05 -4.245979104255583e-05 -2.621341712778482e-05 3.160424287820822e-05 2.651650927975589e-05 -1.284480366059216e-05 
-9.768816924083793e-06 -3.489216758541829e-05 1.263938779829175e-06 1.441418461872523e-05 1.017177029182159e-05 -1.816474040551699e-05 
-2.971486750653558e-05 -1.870397440116956e-05 -2.440019620040113e-05 4.572156655387417e-05 -9.300369629088529e-07 3.802953172873613e-06 
5.566394180901529e-05 2.996596841027038e-05 -1.232398270099122e-05 -2.347299678086158e-05 -3.859999387473844e-05 -3.146979816294353e-05 
6.973879257782713e-05 -1.106383402764174e-05 -7.308370430369858e-06 -4.169581837279647e-06 -3.422538650182931e-05 -4.962526005309225e-06 
2.11880864725442e-05 -1.001932891071132e-05 -7.917518343640886e-06 -3.337435677469505e-06 -1.247141274503454e-05 1.866035236527351e-05 
-1.340514856753311e-05 -1.395651212406755e-05 -4.441508462897398e-05 5.216833755173299e-05 -8.718971085837668e-06 1.887169846449686e-05 
-7.940145562521785e-06 -3.062160786149175e-05 -2.954936848504452e-05 3.053989194363651e-05 -4.247237553095491e-06 1.962437330643568e-05 
-8.547369503760401e-05 -5.373622902931802e-05 -4.109395113961381e-05 -4.603729671138061e-05 1.849473832675671e-05 6.768553311691934e-05 
3.695745554697792e-05 -2.517446241326152e-05 -1.730421747898787e-05 -1.090488675191522e-05 3.956501299055906e-06 -1.339534156211865e-05 
1.414698937816229e-05 7.64544336495707e-07 -1.771599181219531e-05 -1.577306816860142e-05 2.946253633621055e-05 -1.940586709917844e-05 
-3.645691320397298e-05 -1.101134712812389e-05 -9.272228445030793e-06 -1.203174528689026e-05 8.69706144095234e-06 5.49620430744733e-06 
-3.664153088247044e-05 -1.713031672798215e-05 -1.492626926105959e-05 -1.103168782781193e-05 3.85351779114606e-05 -1.21538172523607e-05 
9.651746411068625e-06 4.129262663096591e-05 -1.158587492997387e-05 -2.089408458679384e-05 -1.388745461693843e-05 -1.639694509681944e-05 
2.353398747641647e-05 1.398706999607265e-05 -1.026769254622907e-05 -1.427487385168982e-05 -6.703488158944541e-06 -4.357904997545651e-06 
2.178094919295082e-05 -3.71271384785247e-06 -6.391304657922263e-06 -1.665165109160923e-05 -6.008526102862726e-06 -1.700964734629606e-05 
-2.636905046561542e-05 -2.857486386879256e-05 -1.422903986459873e-05 -2.018998589818663e-05 1.835005871250059e-05 1.088524483595486e-05 
-7.988038593569763e-05 -5.868353483788021e-05 -3.166760768294375e-05 -1.979719485804643e-05 0.0001001753790426703 4.805709624021368e-06 
-5.165990089509794e-05 -1.287709167551422e-05 -2.52706371790455e-05 -3.344922486485712e-05 2.339654039266727e-05 2.505068020409345e-05 
3.218996277311582e-05 -1.897578901925374e-05 -1.408658836963784e-05 -1.267480130814246e-05 -2.147513142682524e-06 -1.748210289001436e-05 
8.72129527580653e-05 1.536278510965891e-05 -6.650685976928688e-06 -9.322303857767496e-06 -3.629077675408548e-05 -3.225572500212695e-05 
1.0443590106015e-05 2.937610672309339e-05 -1.141661258570139e-05 -2.394729891618952e-05 -1.401564644346432e-05 -2.68977342430314e-05 
-1.681712858463684e-05 -1.29118621258741e-05 -1.581020758814599e-05 1.241831130731841e-05 1.780135875199242e-05 -1.416630284752245e-05 
-1.352222263907005e-05 -1.329873460978746e-05 -9.951148770460962e-06 -8.770339308958323e-06 9.924854075066606e-06 7.560615027084935e-06 
-1.422135969146792e-05 -6.837209094247373e-06 -1.969760156875106e-05 1.174562518338776e-06 2.89739203316558e-05 -2.504866694799798e-05 
3.301322418410697e-05 -3.188612756670684e-05 -1.913893212520226e-05 -1.333516037988917e-05 1.327465817762963e-05 -2.469674477278168e-05 
-8.256118922015433e-05 -2.066710902867735e-05 -3.031225949488537e-05 -3.012830595459258e-05 1.543967500975324e-05 7.137381156236855e-05 
-4.231482428813933e-05 -5.029220593460452e-05 -2.446873011121258e-05 1.556014606517151e-06 5.684526866546691e-05 -6.956292310279602e-06 
-3.386323069878487e-05 -2.58795147143107e-05 -2.188716325692954e-05 -1.080491416438389e-05 2.79785235641693e-05 1.557087847756871e-05 
3.667283434739145e-06 7.786285395689477e-06 -6.761162432232203e-06 -1.300213590487098e-05 -5.061064727426931e-06 7.278085590813554e-06 
2.766902646185666e-05 -5.886003237390638e-06 -1.435366958995878e-05 1.55334859132267e-05 -1.584977250716621e-05 -1.951681724246314e-05 
9.921153074995891e-06 3.045796575488005e-05 -1.30705586592378e-05 -1.368673467466901e-05 -2.930975071863788e-05 -6.009145974636257e-06 
1.31038335967531e-05 -2.554803155401645e-05 -2.857684927652868e-05 5.046068574917006e-05 -2.525655780526122e-05 -2.344882045261321e-05 
1.743384444769451e-05 -2.060655212620054e-05 2.553923337890166e-07 -9.189712346746978e-07 -8.736053406305027e-06 -1.593094585173083e-05 
5.783543642313558e-06 -3.629953590374905e-05 -1.558878370381703e-05 2.281700725122001e-05 -1.498901616815755e-06 -8.780353777697259e-06 
4.49076961396612e-05 -2.97868491041732e-05 -1.808376685215598e-05 -1.107653192303663e-05 -6.280272685120984e-06 -9.182821131240324e-06 
-5.578026475024416e-05 -2.46625097454594e-05 -4.380782964484773e-05 -2.83572487501026e-05 6.916467763095781e-06 5.460552632390602e-05 
-3.475109071021314e-05 -4.657079066793101e-05 -3.229770237439539e-05 4.618464548077786e-05 -2.693494597125927e-06 3.346578820035985e-06 
-2.441473275012422e-05 3.000206242290592e-06 -1.954232995168998e-05 9.485476080896507e-06 -1.888326652537931e-05 4.82213250453148e-05 
2.653306905725784e-05 7.652040530228944e-08 -5.893594292258044e-06 -2.468613548712515e-06 -1.69912810435863e-05 7.22579657820932e-07 
-2.424837876639338e-05 -1.626243104863353e-05 -2.847756636109008e-05 1.317922096432252e-09 -5.872887544870737e-05 4.604277964888789e-05 
9.659480686601885e-06 -1.197526040635917e-05 -1.709888198576048e-05 1.471457278878432e-05 -2.156650329966639e-05 7.922508263021612e-06 
-7.802214618215448e-07 -9.738823335474594e-06 -7.598725768831906e-06 1.508291095190984e-05 -1.464941763986964e-05 6.09154567491228e-06 
-3.852519093747169e-05 -1.613055323417699e-05 2.543276542755753e-05 -2.071559033295941e-05 -1.19595288639072e-05 1.452858516907673e-05 
5.266781377137012e-06 7.430725019269135e-06 -1.238818747997763e-05 -3.929203757441883e-06 -1.411240508423484e-05 -2.772343771137177e-06 
6.983510913539939e-05 1.438035997835211e-05 -1.307048504117904e-05 -6.059887206886288e-07 -2.514472817804218e-05 -3.675318335759115e-05 
6.870074462696674e-06 1.898701490963938e-05 -1.387124240067544e-05 1.454052120586349e-06 -3.271364935742374e-06 7.727533360538268e-07 
-1.468699262675382e-05 -4.11487618148015e-06 -1.983320444332231e-05 1.90531893783916e-05 -1.907150783098047e-05 4.350840964435686e-05 
-1.391146989547876e-05 -1.517099735057227e-05 2.599523382280906e-05 -2.15309921878951e-05 -2.299346492493792e-05 -8.099049488417995e-06 
2.875110109795859e-06 -4.761768060255351e-06 -8.287847962930821e-06 1.144436225571823e-05 -1.511354971759113e-05 5.326748237065521e-06 
-1.205807182348612e-05 -1.013487102346069e-05 -2.058853264219966e-05 -1.508103567268264e-05 -3.206786312849472e-05 4.18969402356338e-05 
-1.246901812287833e-05 1.185533651522819e-05 -5.138953734962409e-06 -3.07829875960799e-06 -6.597714806457074e-06 1.302103655258292e-05 
-1.623848135624812e-05 7.469671695227455e-07 -7.707927131882208e-06 -1.347818192060003e-06 -1.032054656247503e-05 2.154057747234949e-05 
-1.914069473521892e-05 3.43821988330411e-06 -5.10651390416062e-06 -6.65409102293199e-06 -1.441758149767481e-05 8.592155366104413e-06 
-1.695976248085542e-05 4.028601829884464e-05 -1.785860055282172e-06 -1.388259628500406e-05 -2.021986681142e-05 7.312619736165801e-07 
-9.558803113391952e-06 3.766720919507766e-05 -7.472589333080273e-06 -1.879489879372005e-06 -1.435662463835128e-05 -2.574079288805853e-06 
-1.946971519089466e-05 3.376563953664009e-05 -7.746369147558372e-06 -4.55121723215167e-06 -1.396318057590749e-05 9.413067914657977e-06 
-2.881386902198555e-05 -7.690551984693714e-06 -1.495563364675803e-06 -8.247338857392008e-06 5.581160466179798e-06 2.152547350870566e-05 
-8.762693722552988e-06 -8.303990511749891e-06 2.901998590609026e-05 -2.509189585985671e-05 -8.830945030600739e-06 -2.437742883611794e-05 
-8.460541251437006e-06 1.504859229322892e-05 -8.21209438252534e-06 -8.880769233396683e-06 -2.759085022056944e-06 6.940541068877132e-06 
-2.926150008503737e-05 1.501201945932511e-05 5.822137816953876e-06 -3.527204971854231e-05 1.729933257347605e-05 -5.905121845257828e-06 
-1.258529816546606e-05 2.568099953694021e-05 -1.736785447752851e-06 -1.185462660633308e-05 -1.160030666092699e-05 4.649361800553552e-06 
-7.347161667551222e-06 7.773885037838814e-06 -2.248086029330069e-06 -3.43912012049045e-06 -2.810473476931116e-06 2.858485713149319e-06 
-2.752756271144985e-05 2.283523763763449e-05 -3.618452908584632e-07 -2.017105868067111e-05 -1.157654516737291e-05 -3.148912961831819e-07 
-4.702882304540008e-06 3.115398722512667e-06 6.887075938219414e-07 -4.062686995113477e-06 -1.166308902056373e-06 1.95142451048793e-06 
-3.679614433644895e-06 5.327316444157983e-06 1.883302173345304e-06 -5.332620881332827e-06 -3.002745746342221e-06 1.142616940035719e-06 
-1.105587829938194e-05 6.673084737639865e-07 2.022220262424984e-06 -6.262705402536197e-06 8.251473500580544e-06 -3.642940936991044e-06 
-1.037143553022407e-05 -5.887269136384514e-06 2.741757330755601e-07 -4.1754890470596e-06 1.083026104785616e-05 -2.312483737724251e-06 
-2.414549945505608e-06 9.346385975870153e-07 1.700196586840698e-06 -1.978577193569388e-06 -1.431012655161285e-06 1.02263500006311e-06 
2.130255993255989e-05 4.202027345212681e-06 -2.305669550491405e-06 -1.703661382962407e-06 -1.828864938981222e-05 1.464811825178674e-05 
-5.42296072019638e-05 5.453534712476233e-06 -8.3573276563415e-06 -1.674129813070654e-05 3.04833122274008e-05 -9.540257365441398e-06 
-3.745691071743508e-05 1.296039918375377e-05 -1.683520426852909e-06 -2.629224139336077e-05 7.472014447265309e-06 3.892853357171314e-07 
-6.035891860969134e-06 -3.536049609070442e-06 -1.697041737668011e-06 -2.524464727055151e-06 4.636701170828523e-06 5.481930068901314e-06 
-1.666899423704892e-05 1.233649178958558e-05 -7.559629459348508e-06 -1.083945392390731e-05 4.548219302841909e-06 6.937995553312363e-06 
-1.170392985417387e-05 1.449671753772925e-05 1.441172729620644e-05 -4.043255774364141e-05 -2.379702417864448e-05 1.575271941675636e-05 
-2.089447609524859e-05 2.54909520596498e-05 5.034954333088589e-06 -2.629801679143953e-05 6.607760583316806e-06 -1.069644329053843e-05 
-7.486987354858442e-05 5.581456002338095e-05 -1.52733614738306e-05 -2.657984693804934e-05 4.223573548221145e-06 -2.8293870186549e-05 
-2.958548078050614e-05 1.135500860086979e-05 -1.186654131489923e-05 -3.853925770525528e-06 2.586944262780545e-05 3.781613092851382e-06 
-1.632261902942118e-05 1.798936767077879e-05 -2.175165190465409e-05 3.183172294833407e-06 -1.288844562674521e-06 -5.356691538657873e-06 
8.808666246626558e-06 1.517293972085848e-05 -2.574589636824089e-07 -1.696467213745361e-05 -1.867924949733297e-05 -2.887152531828593e-05 
-2.376575719329253e-05 3.727013996323341e-05 -7.427164779282947e-06 -1.620362838261854e-05 -1.611241490428623e-05 -1.517042695227108e-05 
-4.86089852396479e-05 -3.511646407033636e-06 -1.060352508790873e-05 -2.588756212677964e-05 -4.635460281889173e-06 1.787687516273782e-05 
-3.238475999046428e-05 -1.965387767490343e-05 -1.741310348932733e-05 -1.499288307779439e-07 2.137775533450279e-05 1.485405412197694e-05 
-1.445684554397994e-05 1.980748596711295e-05 -1.946400491129237e-05 1.043059542986561e-06 4.989329789531623e-06 4.135384195353191e-06 
-4.58537301914601e-05 1.752890356027099e-05 -1.636666581984462e-05 -1.94432561519218e-06 1.340066845587467e-05 -8.642839525664517e-06 
3.958342830835409e-05 -2.533915974465627e-05 -2.732115409012162e-05 -3.362611166106803e-05 2.852654250660309e-05 -7.148652730945847e-05 
-6.668980617726456e-05 -2.927000720175046e-05 -1.650862124131167e-06 -2.015147833199119e-05 3.608537041342009e-05 -1.294860002218913e-05 
-2.046704688528493e-05 4.641084595486806e-06 -1.394838343929462e-05 1.993989628634156e-06 -4.907371908012421e-06 4.152168211747811e-05 
-8.464689044891033e-07 1.898424516662842e-05 -2.394519469944695e-05 2.183715286218305e-05 -8.215755132840865e-06 -1.814859679195396e-05 
1.549862520682919e-05 4.945137690698612e-05 -9.576078529232853e-06 3.565028799807559e-06 -5.291731854896235e-07 -2.847159495049275e-05 
3.097450666989742e-06 2.912435071510313e-05 -2.41480745262558e-05 -2.118370536141505e-05 3.236651332315712e-05 -6.777294494705007e-05 
2.254695690837495e-06 -4.374072176631416e-05 2.707577147193175e-05 -2.360915298047812e-05 -1.854790412498271e-05 -4.413240103168286e-05 
-2.094551045772137e-05 -1.330003585344221e-05 -2.434378316463911e-05 1.056585609837557e-05 -1.160065232726639e-06 4.029701629740564e-05 
1.616213217190109e-05 6.197928886570056e-05 -1.719504790642943e-05 -1.189565374619859e-05 -2.413043034830836e-05 -3.307883576400816e-05 
-1.217291740311416e-05 3.56962221918789e-05 -1.864773939071288e-05 -3.359372788636508e-05 -6.653044504446453e-06 -5.885656016041145e-05 
2.902126743090617e-05 -2.145350193927815e-05 -9.888437654749431e-06 -9.639933343129946e-06 -9.803177057610429e-06 -3.98016589868432e-05 
-3.156255275166727e-05 -5.376539682275632e-05 2.51356481636438e-05 -2.775442988768051e-05 -1.946625465697065e-05 6.801578088759714e-06 
-1.770172811885415e-05 -4.850275865440512e-05 -2.140755223873338e-05 3.92920413851593e-06 1.539231475153692e-05 1.05944331251105e-05 
-1.346493134033454e-05 2.843670670932043e-06 -1.636914209850649e-05 -2.649371161803054e-05 2.676363601692469e-05 -8.651277607400535e-06 
-7.386609910866528e-06 5.811194138057648e-07 -2.822212671643042e-05 -3.686593172160089e-05 3.999986313505247e-05 -6.146139606528572e-05 
2.671248265299265e-05 -6.168977962627983e-05 -8.833738588487211e-06 -1.056908350212738e-05 3.936870977846347e-06 -1.773795600477189e-05 
-3.479451576330337e-05 -3.337253803934546e-05 2.68310207952792e-05 -4.284088351644161e-05 -7.140107603033609e-06 1.001835247688874e-05 
4.359039053237913e-05 -2.695682112862376e-05 -3.969828817400288e-05 4.486622197928597e-05 -1.746509523241546e-05 -4.212270857299639e-05 
-1.766398718436146e-05 1.140534077741012e-05 -2.374407209005426e-05 -2.84289061624958e-05 4.077606820762469e-07 -1.28851548623037e-05 
-3.508217842711816e-06 -2.358141219011471e-05 -3.029923428327383e-05 -2.660058850561583e-05 5.704219709425026e-05 -4.445348791832433e-05 
-1.708219476773785e-05 -3.17950819717855e-06 -8.245798701011941e-06 3.702115059479666e-06 2.862032632327312e-05 -5.877309758433498e-06 
-4.844080342544384e-07 -4.987965453001568e-05 5.466423683279609e-05 -3.803217748274728e-05 -3.807820666142519e-06 -2.537168417369707e-05 
3.612191959527114e-05 -1.812370401364847e-05 -2.666798461922443e-05 2.948984020243166e-05 -2.015713990060174e-05 7.468721674742232e-06 
-7.126250085760585e-06 -2.082326334535032e-05 -3.680970886046925e-05 -2.11844573729212e-05 2.283226056479578e-05 -4.103386046644372e-05 
-6.125233787347848e-06 -2.455301769960249e-05 -3.215906668583125e-05 -5.862072423653514e-06 3.515206359198903e-05 -3.491924114911087e-06 
7.41790559599246e-07 -4.236093964072794e-06 -1.470105812335563e-05 2.767030065088085e-06 -2.023744174412231e-05 1.647954883499125e-05 
-4.535014934630102e-06 -2.597677781085429e-05 -1.6943701534386e-05 1.955812756117685e-05 -1.966871411067854e-05 -7.633095233363355e-06 
-2.092595531868767e-05 -2.977822392415051e-05 -3.004950964233115e-05 -3.659897592197722e-06 8.561580903836882e-05 -6.070733193861619e-05 
-4.772987744991339e-06 1.9730863238341e-05 -1.333195634067442e-05 -9.42536066786001e-06 3.171142336817796e-05 -3.152733578665561e-05 
-4.567290830293424e-05 1.882627493887883e-05 -2.124772133398606e-05 -2.131146193344786e-05 5.433532384297425e-05 -3.758772994402962e-05 
-2.087801752537766e-05 2.66677282009444e-05 -1.070503102586582e-05 -1.524807548210754e-05 1.304220165304185e-05 4.117684441323264e-06 
1.828825793856435e-05 -2.064928702638223e-05 -4.124672110449985e-05 5.21891252853751e-05 -1.595958068990855e-05 1.053564252148635e-05 
2.801366022977592e-05 -1.832808322095097e-05 -3.485570762755154e-05 2.836222615481546e-05 -2.554250948914949e-05 1.291841620418812e-05 
-9.742530793122023e-06 3.217609953602617e-06 -3.336790645140394e-05 1.523710570940249e-05 1.498446841412851e-05 1.790509630838214e-05 
-6.915347902752568e-07 -7.451734149219777e-06 -1.178679740374264e-05 -1.316930246149457e-05 -1.948264707043007e-05 3.695694879301634e-05 
-3.571613049757871e-05 2.364536871192544e-05 -2.881433920210546e-05 -1.926206574141171e-05 5.179172059309589e-05 -4.600300297871639e-05 
-1.672329689587769e-05 4.391758216410802e-06 -1.624661897884927e-05 -9.827229286125481e-06 4.153311573427697e-05 -3.938844971854955e-05 
2.262554599315106e-05 -3.622466447911265e-05 -3.181304314512274e-05 3.735413918549628e-06 3.595136791882774e-05 -7.379355564817808e-05 
-1.741798443944803e-06 -2.320206774800699e-05 -1.198920494689912e-05 1.206703698029992e-05 -1.591027485425425e-05 -1.402637333084566e-05 
4.451890240258153e-05 -1.203312116982431e-05 -1.389647694687347e-05 -3.25015399647166e-06 -4.15183486252476e-05 -2.554735350754195e-06 
5.47997758070682e-05 -9.45634535749427e-06 -1.370051277725209e-05 -1.409853917860338e-05 -3.495383707046264e-05 9.197777068741419e-06 
-1.252743598782712e-05 -1.231509975440155e-05 -3.631261751220204e-05 9.649240446934358e-07 8.187445310433386e-06 1.784952587665689e-05 
6.401112357163182e-05 -2.730120649789339e-05 -2.893745519550787e-05 2.103043861084707e-05 -2.693731109175476e-05 4.876593439199336e-06 
-2.098362792169489e-05 -1.480505121982018e-05 -3.545822464943847e-05 4.974974813465191e-05 -1.002130930561055e-05 6.269767569565735e-06 
-3.762324120915694e-05 1.472176392022386e-05 -1.336835848745819e-05 -1.635112039813956e-05 2.932487267283679e-05 -2.058048921298079e-05 
-2.408978615480129e-06 -2.383516797792833e-05 -3.322529469106109e-05 -3.558884357800618e-05 5.63529203652068e-05 -8.391427727583349e-05 
8.516560284627822e-06 4.48501019889023e-05 -2.0519508671547e-05 -9.608299165562284e-06 1.109111938702149e-05 -3.815438079517596e-05 
-4.340661764513164e-06 -1.944855791495566e-05 -3.610942134579001e-05 1.409191807393481e-05 -2.01704672020933e-05 -6.243426253770152e-06 
-2.486100684738878e-05 -3.480955848436086e-05 3.807187468396258e-05 -2.57074605187057e-05 6.122769881115196e-06 -9.370809460148255e-06 
-1.313913029604807e-05 -5.655796134056242e-05 -2.927434810558406e-05 -1.048687311257264e-05 2.498000439648268e-05 -6.93653937305866e-06 
-1.77145893859579e-05 -3.308708565449624e-05 -3.464456911028943e-05 -1.718404081551961e-05 1.922125228585634e-05 -5.429819686838447e-06 
-4.38980741286855e-05 -1.49701707720588e-05 -2.969821602841588e-05 -3.437590935559479e-05 5.569414569903316e-05 -3.434915560977205e-05 
2.098155470625647e-06 -2.436556791358017e-05 -3.335572712682478e-05 4.420374136541928e-05 -9.64318206126262e-06 -6.71942471154382e-06 
5.364003147311495e-06 -5.961730624139854e-05 4.758006583504778e-05 -4.133657292519548e-05 -9.268983860815456e-06 -3.112331119011551e-05 
3.248087042576121e-05 -3.451296545238853e-06 -1.24577358241212e-05 -4.618804427797984e-06 -1.570557967120248e-06 -2.535063713576463e-05 
4.770064643250161e-05 4.056956204777889e-05 -1.57036755469797e-05 -2.677110786320982e-05 -3.919400834165341e-05 -5.791780740387754e-05 
-3.0179708965414e-05 7.020056373626878e-05 -8.635086227672397e-06 -2.449924538368796e-05 -1.341916727677571e-05 -8.902822843179068e-08 
-1.863098921950017e-05 -1.58349681343512e-05 -2.184006314269416e-05 2.426510468706089e-05 -1.417664321404526e-05 3.742778415607278e-05 
-6.365926167456137e-07 -2.938517287747787e-05 5.230636163134986e-06 -1.085309580508672e-05 -2.132972020734431e-05 1.631360613397413e-05 
4.393993925292254e-05 2.575570602225285e-05 -1.689492491714841e-05 -2.384367401160042e-05 -1.705757994612185e-05 -3.520187830327027e-05 
-1.289812838990976e-05 -3.442329058508997e-06 -2.877586770321615e-05 -2.992486641381345e-05 5.943060051073315e-05 -5.404050850034691e-05 
1.787402634243818e-06 4.940633471883314e-06 -2.366269864043756e-05 -1.404222340088867e-05 -8.580805661410693e-06 1.576140636438395e-05 
-1.640125784979022e-05 -3.119793261671258e-05 -2.021730817180651e-05 1.487599916761799e-05 -9.525046960442609e-06 3.576954143815952e-05 
-2.655782782807424e-05 -3.830508763469514e-05 2.879355630118677e-05 -1.231162409835242e-05 -4.707258083477443e-06 -5.281067158446253e-07 
3.813614810556353e-05 -1.119234108136411e-05 2.707579494115071e-07 -1.338269079105542e-05 -2.593406855806408e-05 -4.31974938058383e-05 
-3.618545533404445e-05 5.032478380336931e-06 -1.435871197480955e-05 -2.67145205014666e-06 -1.942811200422867e-08 1.190478230068066e-05 
-1.885713399348108e-05 1.113796244542125e-05 -1.091256407618461e-05 2.010705457878101e-06 -8.464341119162808e-06 8.083348338003282e-06 
-2.249982346001223e-05 -1.868222296933135e-05 -7.124084573023967e-06 3.959159191690399e-07 6.438261419401681e-06 1.257737465104321e-05 
-4.074142701469033e-05 1.913649336485183e-05 -2.224631496162646e-06 -3.85130375914291e-05 -1.710913601533774e-05 1.71768282251815e-05 
-2.453032316358331e-05 3.641306512134516e-05 -5.077365140957754e-06 -1.239567241494983e-05 -1.866032371832303e-05 -4.852038552608978e-06 
-1.636185084899005e-05 6.808453185071857e-05 -1.846870853266005e-05 1.286231842774239e-05 -9.612334384316188e-06 -1.840812499825401e-05 
-1.700693121463152e-05 2.347166965253485e-05 -1.757474362870759e-05 5.104078444976344e-06 -5.642351852785297e-06 -2.443546099013093e-05 
-2.080587651947175e-05 -1.244480784928003e-05 -1.600018277717779e-05 1.128224205667468e-06 -1.416944657420565e-05 4.400799911705836e-05 
-4.03250485034148e-05 -2.48058692983186e-05 -8.002122307930887e-06 -1.765614531474459e-05 4.791537110994031e-05 -2.614759523343909e-05 
-2.172885239122501e-05 -1.650409576719427e-05 -1.432209656019001e-05 -3.166934454104719e-05 2.621785062949542e-05 -5.546124173749002e-05 
1.410395889868772e-05 2.144138136180912e-05 5.770125570558643e-08 -2.522753475654695e-05 -1.836307937594752e-05 -4.312539148763074e-06 
-8.876501819861643e-06 2.372677012728005e-05 -1.977248710955235e-06 -1.133843214520269e-05 -9.077157053675203e-06 6.354906083190654e-06 
-1.112416801044338e-05 -3.949171986973928e-06 -2.020121478286254e-06 -4.418023875664363e-06 -9.748806139958492e-08 1.347213883334514e-05 
-2.188746264264582e-05 2.254056292967026e-05 -2.738158854419604e-06 -2.066514890229454e-05 -3.334059786856421e-06 -5.459232395691734e-06 
-3.712345033939233e-05 -1.551933240310263e-05 -2.460989736526189e-06 -1.376602731195027e-05 4.061251742330893e-05 -1.463270592688322e-05 
-1.093474532530017e-05 2.932728054043026e-05 -1.735963587007391e-07 -1.060518685609116e-05 -6.757285555395771e-06 -1.772006390005378e-05 
-1.545022907021534e-05 1.711736876163213e-05 -2.04442358394751e-07 -1.046991932830731e-05 8.11736125221009e-06 -4.96074730830251e-06 
-1.653575280326399e-05 1.250521918402524e-05 -8.328709220689447e-06 -6.815475738675688e-07 6.517697853463139e-06 -8.712614131507112e-06 
-2.411259937148775e-05 3.233219398703143e-05 -1.142703891137103e-05 -1.322489885122335e-05 -2.543707435295906e-06 -1.999765210756427e-05 
-2.851448273902636e-05 2.684456389633e-06 -5.863579767376826e-06 -1.90631422477832e-05 2.540246105745638e-05 7.332542558494613e-06 
3.384180123860433e-07 4.310080788280832e-05 -2.909184105515505e-06 -6.448549852143381e-06 -1.370114300849233e-05 -1.771411858501553e-05 
-5.230685585162106e-06 -7.914501568855782e-06 -1.344220431925533e-05 3.779111965426382e-06 1.357057725348311e-05 -1.547745225828348e-05 
-4.132678493104216e-05 -2.705417961684182e-05 -2.063035041589426e-05 1.755072647824069e-06 4.075996964322252e-05 1.140739732889686e-05 
-1.403682447544018e-05 2.567769813938335e-05 -2.053794221681318e-05 1.364898352127437e-05 -6.571754730841418e-06 -3.906963172015385e-06 
-4.202895040252235e-06 6.651733650408644e-06 1.935881492774364e-05 -3.19501038787321e-05 8.73798454945655e-07 -5.339619169543959e-06 
-2.475153956728147e-05 3.464699646650225e-05 -1.235579561424037e-05 -1.392373931988583e-05 -4.396979199627247e-06 3.082876518586455e-05 
-2.312282700334514e-05 1.954663470023269e-05 -1.439212258361922e-05 -3.481524341812882e-06 -1.619574738203499e-06 8.990729650325953e-06 
6.511384085879875e-06 8.699274407177369e-06 -2.562831263920525e-06 -1.487080173836283e-06 -7.719988221167983e-06 7.644783033535847e-06 
1.098516373228196e-06 5.536108538744682e-06 -1.827178890469405e-05 1.70512189262097e-05 -1.127936153698286e-05 -2.668364934002018e-05 
2.074735738628277e-05 4.85267041634891e-05 -2.573956296286614e-06 -1.166953105955512e-05 -8.879954754546066e-06 -2.923510629302612e-05 
-3.189623942303665e-05 1.376245485549637e-06 -8.765271293578234e-06 -8.116226677878504e-06 3.022766601265291e-05 -1.541781439541964e-05 
-5.083803536400964e-05 -1.222031862864405e-05 -1.566257730017167e-05 9.5806572526991e-06 4.550466786350268e-05 -2.299339801117312e-05 
-6.105449246649001e-05 -3.757697149986345e-05 -2.659032686642967e-05 3.58631472450788e-06 4.566116472327619e-05 1.736226909757537e-05 
5.517338484338914e-06 -1.324027513513748e-05 -1.872141735149094e-05 1.462907905929218e-05 -1.813968911595691e-05 -2.112629024431289e-06 
9.997477675133417e-06 1.072175703428968e-06 -1.420617343073891e-05 -7.554027916672321e-06 -1.65155763401417e-05 -2.747287798670033e-05 
-5.400435303847041e-06 4.099099635560314e-05 -1.715604749822652e-05 -1.144306432800381e-05 -2.630624424183614e-06 -2.756521869347337e-05 
-1.23259538570281e-05 3.515674632632362e-05 -1.754184991535475e-05 -1.353547503447407e-06 -1.64493201904229e-05 -8.334030023031878e-06 
-2.387658436582907e-05 4.063194856441089e-06 -4.84421226511608e-06 -1.668013615609587e-05 3.280480811839096e-05 1.506147878992989e-06 
2.57143203203597e-06 1.953573216476075e-05 -6.088900396309606e-06 -1.520229822695753e-05 -6.017018975665343e-06 4.196345115494831e-06 
-2.65114738197316e-06 -8.4484048377361e-06 -1.081972404307111e-05 -1.698879797032881e-05 1.359631281706594e-05 -5.946585452638644e-06 
-4.122768330462307e-05 4.280246424619952e-05 -2.469079588577523e-05 -2.422247017811167e-05 5.340346190852375e-06 -3.405804449154719e-05 
2.895076321835537e-05 -2.783431002814877e-05 -7.904273464380676e-06 3.343110879183663e-06 3.732679526558648e-06 -2.533877361512247e-05 
-1.317208729185342e-05 -3.01350685912111e-05 -2.099967683520533e-05 8.870411878319675e-06 1.207816250626274e-05 4.737619423328784e-06 
1.05987145683909e-05 -1.940077499026006e-05 -1.986750512020958e-05 -1.250205980150946e-05 -1.581701979264957e-05 2.260862939078175e-05 
-3.171756655097215e-05 -2.341725894229179e-05 -3.189396644091649e-05 -4.173648365761467e-05 -1.274623665576677e-06 6.105978990342461e-06 
2.67428434541874e-05 3.98827682782283e-05 -1.36441197098254e-05 -1.112687283453272e-05 -2.283738813340269e-05 -1.510504810011215e-05 
2.914609237510587e-06 -1.400406810214245e-05 -1.849913219559588e-05 1.250404309613337e-05 1.283101597340327e-05 -1.552335648171534e-05 
5.690375213950697e-06 1.875094384644968e-07 -6.697849564862541e-06 4.308616369727854e-07 2.101823713132793e-07 -1.177403457818942e-05 
4.308740751641348e-05 -3.285592090784587e-06 -1.132790126731306e-05 -1.304397988676103e-05 -3.914415920070758e-05 7.900756581812688e-06 
-4.202911602299303e-05 3.034818884217184e-05 -3.227943242337329e-05 -2.040576566373082e-05 -3.767317107227438e-06 -1.493242059978033e-05 
-6.358634840176658e-07 -4.049977387911922e-05 -9.469966126054137e-06 -3.245921675460422e-05 -5.115814296401245e-05 6.986716313884704e-05 
2.853474149289917e-05 -4.031856570521306e-05 2.669484857612844e-05 -4.037869914447058e-05 -2.623037832482175e-05 -3.130765442290797e-05 
5.061211579335432e-05 -2.002178514686796e-05 -2.107624777665547e-05 1.224570661360389e-05 -2.000501018784467e-05 8.502553322947351e-06 
1.606796618648355e-06 -1.816997073375645e-05 -2.171320472525283e-05 9.560510966657484e-06 5.284603032286674e-06 2.443859789971226e-06 
7.288381356520468e-06 -1.742071725279421e-05 -1.945075507718271e-05 -8.273121972465484e-06 2.904213828348492e-05 -4.111114804066876e-05 
-5.72985157597286e-06 -6.658859997816275e-06 1.411289182052428e-06 -2.619884197480963e-05 -8.467714821127705e-06 -6.995981571731209e-06 
1.127434922363683e-05 -4.621378934781176e-05 4.916818709122729e-05 -5.290411362857382e-05 -6.080506082012335e-05 -2.909583561037641e-05 
-1.534666258713613e-05 2.097687536533454e-05 -1.287964495970026e-05 -1.507839608728065e-05 1.075459132956478e-05 -2.359218623509173e-05 
-4.3010362539999e-06 5.336604993300897e-06 -2.926091382025059e-05 2.815577377876975e-05 -2.531927987883555e-05 -7.198826928988675e-06 
-2.553702472439056e-06 -1.068072416553842e-05 -2.664292936231355e-05 -1.02389188009281e-05 3.548137643574247e-06 4.548396360131384e-05 
1.045068736258333e-05 -1.989941321726335e-05 -1.306387426712682e-05 -1.663630166904572e-05 -2.069015736060443e-05 3.441618608395329e-05 
-1.217031009632433e-05 -5.808981146343459e-05 8.031097126214985e-06 8.630117666906121e-06 -4.918937568349519e-05 2.707775105766513e-05 
-4.111760633289648e-05 2.265379248481129e-05 -3.545533372592933e-05 4.270784951356219e-05 -1.699964792188345e-05 -2.710781466143421e-05 
-6.054380916016091e-05 -5.196707749695843e-07 -3.888537137961871e-05 4.327531475642369e-05 -3.97914622933104e-05 -3.856813909742803e-05 
-2.568866150497303e-05 -5.202714702553315e-06 -2.142112201949191e-05 -1.6468132326061e-05 -1.893695160585831e-05 5.269465344337408e-05 
1.096577362762219e-05 3.36136145341502e-08 -1.421751793556693e-05 -2.548559852195645e-06 -2.158592884539179e-05 1.864220438750065e-05 
-1.292552360832945e-05 -7.107347394444025e-06 5.672561095215077e-05 -4.527073833097733e-05 -1.775251889241408e-05 -5.271990080164369e-05 
1.565472686213398e-05 3.303196998154468e-05 -1.652844382532731e-05 2.089261335167831e-05 -2.752855804985205e-05 -2.887869688466933e-05 
-8.709217972167977e-06 3.602212152650997e-05 -3.908842456855952e-05 3.508833111111164e-05 -1.822365097845924e-05 -2.520733461134455e-05 
-1.547607579833822e-05 -4.282166748281308e-06 -1.699022046773355e-05 -6.612426401769525e-06 -4.843145229719629e-06 3.138410781097619e-05 
-4.032825528133456e-05 1.665827592561856e-06 -2.987168677338844e-05 -1.426430474292306e-05 -1.849048466956135e-05 4.515783025593894e-05 
-5.599761480740129e-05 4.95606885704925e-06 -3.437073448844903e-05 5.626680659306966e-05 -2.137707181759813e-05 -5.12150265734868e-05 
1.731634722987655e-05 -2.140668084926828e-05 -1.971955728897637e-05 3.291684188051738e-05 -2.53919395837266e-05 2.133772449587641e-06 
-5.600689249337875e-06 -6.196628524832498e-05 2.12653935907209e-05 -7.547707039382456e-07 -5.147596232604011e-05 3.765763932038171e-05 
0.0001421889466623347 -3.097823445152251e-05 -1.336871507052167e-05 -1.305459170241381e-05 -6.360560462706552e-05 -4.743299776672812e-05 
1.316959083900536e-05 -1.8615085345413e-07 -1.562596816493319e-05 -3.313461887410903e-06 -1.747199718073561e-05 -1.026646776057947e-05 
2.454858175547373e-05 3.603516468156499e-05 -4.680915676489376e-05 4.16631230766291e-05 -2.68274231667972e-05 -3.307434223737963e-05 
3.141495937538737e-05 2.571771058256499e-05 -1.586767297539531e-05 1.613353861514895e-05 -1.99259878273251e-05 -2.276651255515043e-05 
-1.664374587245283e-05 -1.720004436069487e-05 4.913208415945044e-05 -5.913552756648982e-05 -2.848396399320864e-05 -3.644613347253361e-05 
-1.850698504446096e-05 8.033503307872753e-06 -1.017352264486259e-05 -1.020199298933097e-05 -1.579058688756695e-05 1.735653659729112e-05 
-8.898531202787879e-06 -2.485937467592985e-05 -2.004320886737122e-05 -1.645180508713831e-05 2.715359513950525e-05 -3.395160819917094e-05 
2.96420771553051e-05 -1.703638314003426e-05 -1.318438623897315e-05 2.384945383100956e-06 3.696885942531225e-06 -3.619385391565821e-05 
3.974111330179012e-05 -2.213925751446148e-05 -2.107697394088243e-05 1.574018780312253e-05 -2.49859726055206e-06 -4.020016884632951e-05 
-1.579515911655082e-05 -5.02262842764472e-05 2.428978995956836e-05 -2.624750253572525e-05 1.758126000911366e-06 -1.669030442166112e-05 
-5.511033847150598e-05 -3.404453742141429e-05 -2.44373061491089e-05 -3.848004731006256e-05 -5.210734610536856e-06 0.0001216970284581991 
-4.994184465141123e-05 3.317891866129965e-06 -3.227732347676821e-05 -1.262563320745418e-05 3.064645652025231e-05 1.886357533661081e-05 
-9.14294704644786e-06 4.719440903843544e-06 -2.280349375157681e-05 -2.565675903625331e-06 -2.928752544304421e-05 3.516809693432262e-05 
-1.055203066808177e-05 2.19807180624452e-05 -1.265065906244692e-05 -9.05626282748283e-06 1.951903092360521e-05 -3.312517792059926e-05 
1.997958142657326e-05 -3.712000761193424e-05 3.852362224051765e-05 -3.777762667817999e-05 -4.666918803801516e-05 -1.293678910520823e-05 
4.079838618339471e-05 -6.019921255296065e-06 -6.682004123955654e-06 -2.420566951443685e-05 -1.890014776905128e-06 -4.110864616662293e-05 
-7.534543947723253e-06 3.644203606957898e-06 -2.945440879450327e-05 -3.886393238890095e-05 7.139665349989168e-06 -2.656793886106186e-05 
1.200077304532147e-05 -1.208154504746148e-05 -1.330275848661373e-05 -1.167831823635168e-05 -2.466104522845231e-05 1.803623143318971e-05 
-2.838429062916254e-05 -1.166008613402078e-05 -1.493408808018352e-05 4.811888535516529e-06 2.626510938357312e-05 -2.866688261292245e-05 
-3.918625721683861e-05 -2.792882529385531e-05 -1.129684587137432e-05 1.804795203246365e-08 4.353230701951797e-05 -2.128465579536112e-05 
-3.798977244339396e-05 6.149860770970153e-05 -1.945724204124522e-05 -2.655686608303082e-05 -1.922859688358007e-06 -5.916518990738406e-05 
-2.363721633548278e-05 1.524650393409313e-06 -2.459081653457664e-05 -2.160123063593235e-05 1.318275896556277e-06 6.99221450722292e-06 
1.161148816573907e-05 9.169223843553349e-06 -4.307152675541753e-06 -1.089228923731549e-05 -2.664852603219079e-05 2.319393572505487e-05 
-2.32114086689385e-05 -1.303509401430832e-05 -7.890227627521106e-06 -2.542433061889651e-06 2.073916758014057e-05 -5.174637012046221e-06 
7.411848395109416e-07 -1.611874819099357e-05 -1.851712581495284e-05 1.629043670289636e-05 2.53655833872728e-05 -2.613693765382282e-05 
1.841530835999118e-05 1.193739952325163e-05 -1.820732521764041e-05 -1.186268671840966e-05 -9.228879417594385e-06 -8.369504200972591e-06 
3.497178374809187e-06 -8.475427170926501e-06 -1.09891531358387e-05 2.984318931425641e-07 -7.662749253153214e-06 5.564870906311073e-06 
-1.982443545151616e-05 1.413146964755928e-05 -1.970475523800672e-05 1.25254707022401e-06 -2.242759518953922e-05 1.761386731612186e-05 
-3.194608091597476e-05 -3.123878856209461e-05 -1.653200273347416e-05 1.534684111170917e-05 3.571432637889103e-05 -4.213323952459049e-05 
-2.853116048573233e-05 -3.729384714793656e-06 -2.664527936035404e-05 3.031330146982171e-05 2.65005936873918e-05 -2.784649392503089e-05 
-7.265478060766139e-06 4.938752887143299e-06 -1.213539121164911e-05 1.111235797009838e-06 7.29658540795207e-06 4.299702302466863e-07 
1.305344246866284e-05 1.285129290350402e-05 -1.6397478319586e-05 -1.241237922604263e-05 2.219674489666511e-05 -2.582749517274343e-05 
6.274382105403972e-06 2.537612382124309e-05 -9.600045852965692e-06 -2.89744679691988e-06 -1.32533945026896e-05 -1.653328549336523e-05 
-2.167282126825687e-05 -1.646854224818277e-06 -1.013859937936529e-05 -1.664912776962694e-06 -2.579291053079063e-06 1.171946793625962e-05 
-3.914777843464847e-05 5.857048628015436e-05 -2.715173277621735e-05 2.006409307401253e-06 -1.539226436536916e-05 -9.314519334772878e-06 
-2.389476454863329e-05 3.491859261244786e-05 -1.51154090316341e-05 -8.234549280276327e-06 -1.594895107395449e-05 -1.201085043029316e-05 
-6.015332260254527e-07 1.987245233801566e-05 -1.535012244750116e-05 -1.386325603295504e-05 2.743348352633775e-05 -3.389885151895493e-06 
-1.528388239284573e-05 1.786618969508559e-05 -6.743323926069518e-06 5.107820327977497e-06 -8.172258595114972e-06 -2.939282975875281e-06 
-1.307364019330711e-05 -1.385541536997451e-05 -7.465776294148681e-06 7.734699654559516e-06 1.268540259225689e-05 -1.894397731949119e-05 
-1.647540080109339e-05 1.1051570517942e-05 -7.114464569374898e-06 3.327359191829232e-06 7.608504278665673e-06 -2.310998282603823e-05 
-1.103816123538075e-05 5.170344336799819e-05 -2.530736016363384e-06 -5.054450677525911e-06 -6.56313454105073e-06 -1.2655166594498e-05 
-1.387784124096438e-05 3.295325556226761e-05 -8.205537609879876e-07 -7.046064941579659e-06 -4.333891084308272e-06 -1.898811096364529e-05 
-1.130686116714009e-05 7.499211480700094e-06 -1.381393094075805e-05 4.34728309706232e-06 -4.686917456324028e-06 -1.345951504912502e-05 
-1.64756025344068e-05 1.590497874174926e-06 -2.736525360492798e-06 -5.821012499196128e-06 -1.061850931808435e-05 2.991249614481177e-05 
-1.377401268509392e-05 2.297708858604676e-05 -1.321008451796036e-06 -8.016033930112334e-06 -1.259107270530534e-05 -7.734046874760544e-06 
2.244372381222394e-06 3.246417407093501e-05 -7.025169477719982e-06 -1.06814268500714e-05 -1.501827920711732e-05 3.893626940789023e-06 
7.176855550634788e-05 1.608265307386161e-05 -3.99032267199875e-06 -9.636839952089037e-06 -1.742637348345428e-05 -3.052823479804658e-05 
-3.335755140456825e-06 4.860312553270886e-06 -2.174079671306085e-05 3.313045851551983e-05 -4.819963356605116e-06 -1.435606835187073e-05 
-1.942125054139451e-05 -1.811838266116684e-06 -9.974484829722948e-06 1.138472792087458e-05 -5.797883600174025e-06 2.538405534404668e-05 
-5.223265176977886e-06 1.581793659785769e-05 -2.890995020790866e-06 1.220431125915983e-05 -1.358764106503452e-06 -4.596341060190536e-06 
2.8952908904871e-07 2.626386826332358e-05 -4.60420446745194e-06 -9.763831905528009e-07 -5.218872317759994e-06 -1.722777519036962e-05 
-6.538118516778e-07 4.686639257974306e-05 -3.365919088661522e-06 -1.780681116220388e-05 -2.122268708539908e-05 -8.34517633178484e-06 
-1.349729078346427e-05 1.4680632074822e-06 -1.447475467687709e-05 2.302945109288347e-05 -1.018660083276562e-06 -4.691631734793413e-06 
-2.034448525017984e-05 -6.435957825876207e-07 -8.712686350317796e-06 4.193520893916153e-06 1.106705630385026e-05 -1.314126550145105e-05 
-1.661304829918317e-05 1.133667785100997e-05 -4.860534981145311e-06 -6.972291924509396e-06 5.646832855362341e-06 3.299571620099134e-06 
-9.262843044135011e-06 4.774495840939922e-05 -4.474129899778494e-06 -1.803062025734362e-05 1.38530496921584e-05 -2.817057200848147e-05 
5.540278187815195e-05 2.333355562921345e-05 -2.857411281868722e-06 -5.683825042481241e-06 -2.6327790607615e-05 -2.972962260143642e-05 
2.004043973662231e-05 2.300085042350498e-05 -3.059201649612248e-05 3.605870237084468e-05 -2.32371404636751e-05 -1.625972812241706e-05 
-8.782116290717666e-06 8.072358113481608e-07 -9.508323252114398e-06 1.391348845439563e-05 -7.033303110447181e-06 8.407609308275287e-06 
2.280808402874804e-06 -4.337662713875477e-08 -5.754545537452372e-06 5.384130795437312e-06 -1.980036515338989e-05 2.588319303166104e-05 
9.598024856900187e-06 6.569385083859032e-06 -2.45174970765729e-05 -3.339691143757284e-05 -3.597024085547239e-05 -2.949460476639383e-06 
3.390631289617598e-06 4.173243715022693e-05 -1.692889756210084e-05 -2.809324254521182e-05 -2.292470040354079e-05 -3.551665457419373e-05 
-2.077144680375745e-05 2.474825675490763e-06 -3.534489671296954e-05 2.084218663278093e-05 -1.428776493104486e-05 6.826712409345432e-06 
-2.801359111911263e-05 -5.987472428104332e-06 -1.731884392118107e-05 2.157342737421654e-05 1.255719134631964e-05 -1.200331379334361e-05 
1.06855834893372e-05 -3.056955504445378e-06 -1.986314981353081e-06 2.074978447794914e-06 -1.243416620056338e-05 8.15424181760824e-06 
2.935261093367512e-05 -9.423333588023136e-07 -1.164848150943169e-05 -1.176389204523806e-05 -5.270923129927143e-05 5.342295772637984e-05 
-3.611318058858406e-05 4.176158240600946e-05 -1.74759572601732e-05 -2.114646075686889e-05 -5.707926706813118e-06 2.426925164439003e-06 
-5.787205347474758e-06 2.562030588080663e-05 -1.589427957466193e-05 1.502317941361554e-05 -1.401238769359325e-05 -2.302070717767265e-05 
-3.469042121790023e-07 2.759826755883712e-05 -1.329288467589122e-05 1.017366907412193e-05 -1.943525506105034e-05 -2.846219633992145e-05 
4.557474403759697e-06 1.485770837080441e-05 -1.163625264389915e-05 1.416391611466742e-06 -4.106756925258928e-05 9.05447418458459e-06 
5.844453626490328e-05 -1.244573908823446e-05 -1.183749403184072e-05 -8.521610469120991e-06 -3.214643835621155e-05 4.500380265280273e-06 
6.536445865045035e-05 4.533497273641242e-05 -1.525516018759649e-05 -1.116603286732854e-05 -5.566560733061831e-05 -2.471741281588873e-06 
1.482010272160536e-05 3.109359105116725e-05 -1.644982047889519e-05 3.374328744646746e-06 -3.86315643081116e-05 -2.200142761745629e-05 
-2.571184271030231e-05 3.539596729677422e-05 -2.011484903478205e-05 -1.124592649914948e-05 -2.521756221484228e-05 8.086362400584374e-07 
-2.039330878216333e-05 -2.291424851677834e-06 -1.640460449073919e-05 -1.009782373545462e-05 -2.048526728394921e-05 4.152962416730167e-05 
2.143421789060215e-05 -2.576232801360619e-05 -2.542340503096592e-05 -2.928403989730559e-05 -2.627669941826095e-06 1.988474037422655e-05 
-1.322336049140904e-05 -7.070058963721934e-06 -1.724614392287683e-05 -2.231637439677372e-05 1.505223451569341e-05 -2.22214031581924e-05 
-1.598710638603196e-05 -2.266717378584129e-05 -3.984452156993888e-06 -2.847369633909818e-05 4.646853686445998e-07 -1.958804219552001e-05 
-2.631410596230637e-05 3.360105293940726e-05 -2.455324771410948e-05 6.765618798098187e-06 -1.841761518800784e-05 -2.848291524248868e-05 
-6.403626093273647e-05 3.783488198340853e-05 -2.339196606163327e-05 3.090796265482764e-05 -4.037071645677533e-05 -3.5339854415438e-05 
-2.769311864949413e-05 -1.49498129257399e-05 -1.685500548317195e-05 6.445472797821278e-06 -2.731157704548223e-05 3.788707238019942e-05 
4.338810079825643e-05 -5.207509535406073e-05 -2.620437687539807e-05 -2.421127447059355e-05 -2.321363859216691e-05 5.550192284306553e-05 
-2.201370718296211e-05 -3.174176169384463e-05 -1.392875416901886e-05 -2.379133246626187e-05 3.435829270908067e-05 -3.280638620642097e-05 
-2.918285122812563e-05 -1.570180152007137e-06 -1.806882093080473e-05 -7.952781230038303e-06 1.992575934978409e-05 -1.844787331552615e-05 
-1.587160837512946e-05 4.132100004668717e-05 -4.045943357759284e-05 2.187823991253325e-05 -1.586671393280923e-05 -2.337094453453244e-05 
5.088275796063687e-05 -9.804599736570693e-06 -3.301311210353929e-05 7.492168965935506e-06 1.937268625279883e-05 -7.133519908683253e-05 
6.560633671331003e-05 -2.891931175341246e-05 -1.239112662809451e-05 -2.197367801780735e-05 -5.824146445740513e-06 -4.951067104134831e-05 
-8.375656274968641e-05 -2.621492030471679e-05 1.628025565418272e-05 -5.694070345501935e-05 9.482523121545034e-07 -5.47010500877561e-06 
7.739334350095036e-06 -1.567222798203499e-05 -1.888392545602088e-05 2.14517950857668e-05 -6.350199857152648e-06 5.812119180562015e-06 
-9.476889813023206e-06 -4.958631008160624e-06 1.007858959844472e-05 -1.424743567858461e-06 -3.105897462596798e-05 6.92516609438579e-07 
1.394854671945246e-05 1.506143966387675e-05 -1.1744810875151e-05 -1.986497756052669e-05 -1.770349598523966e-05 -2.773740283331054e-05 
2.079623606091074e-06 1.516817558775767e-05 -2.139106962392573e-05 -3.11327507474402e-05 2.412846567431242e-05 -6.807005090041862e-05 
-8.163066584199221e-05 -5.63363346438792e-05 2.180655680661143e-05 -6.624180452849685e-05 2.504646965750705e-05 -3.047210453681355e-05 
-6.792985555586665e-05 2.256766444496663e-05 -2.694751087246044e-05 -9.484557460696876e-06 1.591573416215237e-05 -6.443667538973163e-06 
-3.820239749176649e-05 7.536943738312711e-06 3.849622744469954e-05 -5.060119778266941e-05 -8.482824774969864e-06 -8.354460036842737e-05 
-6.382213080144661e-06 2.564973287635536e-05 -2.448972646581826e-05 -8.17284791681344e-06 -9.839264359071252e-06 -1.329479863439563e-05 
1.018817275107176e-05 1.278500804171198e-05 -1.53419606491181e-05 -3.34875356937161e-05 -4.495227225852687e-05 1.128905758228996e-05 
-4.336870171845976e-05 -2.688007864470918e-05 -5.797945206140429e-06 1.678489105921644e-05 -2.84781816488585e-05 1.030548372525991e-05 
-2.375324130695114e-05 -1.923883671228914e-05 -1.777668403609288e-05 1.687286221267922e-05 -1.020361463423414e-05 3.206466500870246e-05 
-6.309898131951265e-05 -2.559824967879353e-05 7.837941411421549e-07 -2.854730272083596e-05 1.377685973446837e-05 -9.313724012046942e-06 
0.0001053145513097639 -3.801725518173815e-05 -1.117545887867335e-06 -3.495468108595036e-05 -2.372629482366155e-05 -8.413541923382241e-05 
-2.199546219338746e-05 1.938624261632369e-05 -1.940427131811203e-05 -9.188890403040289e-06 8.03060288184935e-06 -9.335634030581483e-06 
-5.135196002728595e-05 2.876107785716206e-05 5.079870779429463e-05 -4.149776559528973e-05 -2.52119941393056e-05 -7.388134817675782e-05 
9.899881219846687e-07 -1.051072972706084e-05 -1.812467650254517e-05 4.940226144395465e-06 2.002137745666969e-05 -2.109129156771249e-05 
-0.0001139465095398824 -3.313574257056171e-05 2.524030750681574e-05 -5.620690280997516e-05 3.813439840660606e-05 -4.692562277325596e-05 
3.899201921558852e-05 -1.568084441631708e-05 -2.824571794459725e-05 -2.548079873572623e-05 2.7098254052852e-05 -9.402448114332857e-05 
3.410485070205531e-05 -1.377296068661715e-05 -1.952235066225055e-05 -5.507310706026772e-06 -3.869492965882461e-05 2.078718273381334e-05 
-4.265267446559741e-05 5.963891981833985e-05 -2.676705951607884e-05 2.778285942938073e-05 -4.302163312447301e-05 -3.464326053657784e-05 
-4.254145755121762e-05 3.933641832697126e-05 -2.207455455585305e-05 -1.522686419013777e-06 -2.788467260236586e-05 -1.268709752900039e-05 
1.195769623604744e-06 -2.231253822951666e-05 -2.025732999435792e-05 -2.821909541514741e-05 7.127080624466293e-06 -1.17930796832103e-05 
-4.166741860315572e-05 -2.712864506507666e-06 -1.719897584257656e-05 -1.304166200683947e-05 2.412366313350644e-05 2.716798292271856e-05 
3.018597669353717e-05 -1.923684478822601e-05 -2.767004164799919e-05 -1.39555293524261e-05 2.322871491970086e-05 -5.644751195472333e-05 
-3.991569270561967e-05 2.359714535422589e-05 -4.484691739796095e-05 2.424764823769137e-05 -8.551408894183402e-06 -3.20301164713927e-06 
2.061614890928686e-06 1.272664154568387e-05 -1.749666950832073e-05 -1.267932944202972e-05 4.252209314377906e-06 -3.349647632681963e-05 
2.441347393168619e-05 -2.575658148228952e-05 -1.770394832319278e-05 -1.906048281891747e-06 1.374242186969874e-06 -2.554520204439677e-05 
-1.050515283434951e-05 -2.635410425985539e-05 -1.816511287096636e-05 -1.45902606799098e-05 -1.234232225969422e-05 2.889747894095335e-05 
3.057193267748267e-05 9.555758584083001e-06 -1.705079956922607e-05 -3.928775542385026e-06 -3.683556428960111e-05 3.050573207062026e-06 
-1.351390656182493e-05 6.110549150499018e-06 -1.185599249378525e-05 9.509108111073567e-07 -3.191430362935859e-05 4.377908300076638e-05 
2.196032262989077e-06 7.551912104951245e-07 -1.592011169543986e-05 2.72606032998296e-05 -1.297502632008661e-05 -4.552251455516648e-06 
6.421868213825568e-06 2.437548426149977e-05 -2.356271043233329e-05 3.418850312149671e-05 -1.926657286580354e-05 -2.820139125811992e-05 
-4.040451280360253e-05 5.236377089233422e-05 -2.08587942060062e-05 -1.603827347633295e-05 -7.630771539986954e-06 -1.353764376755132e-05 
-1.073208507906132e-05 1.934223817578617e-07 -3.093962112478786e-05 -2.378609562228933e-05 -2.06664395783844e-05 4.850908171949604e-05 
2.678576885070122e-05 -2.793894405359292e-06 -7.56903488213104e-06 -4.922556666694869e-06 -1.526103091798503e-05 -1.527750579155235e-05 
-1.788545557551501e-05 4.458851094122917e-06 -1.315590177324838e-05 -7.603775252502808e-06 -3.844133951684187e-06 -1.535832943466393e-05 
-2.878336536057857e-05 3.720252678184157e-05 -2.272523755600137e-05 1.290786823947834e-05 -3.242308134607963e-05 2.454054618862764e-05 
1.800728637477535e-05 5.161478905860033e-05 -1.407940940311491e-05 -1.370401472111606e-05 -3.582929551481954e-05 8.468362728067122e-06 
1.587460447107919e-06 -2.239399479861092e-06 -1.558722959167734e-05 -1.24123846843815e-05 -5.155791476748296e-06 8.964537240483172e-06 
-2.400844511394554e-06 3.243825923655996e-06 -4.676474188550637e-06 4.641665418289543e-06 -8.159582222903452e-06 4.612593931112369e-06 
-4.661419362535253e-06 3.415475178908867e-06 -6.007660722327081e-06 4.978038443916473e-06 4.694907061960133e-06 -1.502851526743974e-05 
-1.402367342722291e-05 4.301826792854964e-05 -1.284856679090339e-05 1.607911920865545e-05 -1.961248407757713e-05 -1.950007556428821e-05 
7.306206565372206e-05 -3.143916140971448e-06 -9.988132184244436e-06 -4.348011851545699e-06 -2.931913082572648e-05 -1.261254333314176e-06 
2.110010393543878e-05 1.512797435836623e-05 -9.149397366170155e-06 -9.73705561119628e-06 -3.610434980564425e-05 4.468024884878748e-05 
4.328694247574839e-06 1.252415909929839e-05 -2.227126547548103e-06 -4.561813346268374e-06 -9.232522852172996e-06 8.864065968853137e-06 
-2.724437679166148e-05 -1.749246358906403e-05 -1.514240503267284e-05 1.205571390479851e-05 7.775905094616604e-06 2.206520238646804e-06 
-3.449100972910565e-05 -3.842856065243297e-06 -2.546662972007995e-05 1.724007675267549e-05 -1.152183945543197e-06 2.092138286333829e-06 
-4.053866426108527e-06 3.514721393996451e-05 -1.965806929883403e-05 -3.344348475908318e-05 -1.562495007815559e-05 -5.242122981827505e-05 
1.053289077549956e-05 2.768287832059883e-05 -1.449241582549166e-05 -3.489035075196955e-06 -4.254341584234146e-06 9.121793628883854e-06 
-1.869294970151283e-06 2.201244613654926e-05 -7.338123584172452e-06 2.380587388098466e-06 -7.154180278585766e-06 5.919476169217774e-06 
-6.457320934595489e-06 9.496552866096073e-06 -2.785853733928673e-06 -9.47129757754098e-07 -3.996871979198595e-06 9.880621940432638e-06 
5.715775700776533e-06 6.516181850627253e-06 -1.824197424650858e-06 -2.769481753470917e-06 -1.518386457828569e-06 -8.478229108211499e-06 
-4.808069963163389e-06 2.282783079064297e-05 -1.755766865067409e-06 -1.072420574008944e-05 -3.342397390877911e-06 -1.133330506156121e-05 
-3.684772736863885e-05 4.362012383842787e-05 -9.513329783616351e-06 -1.559326412693814e-05 2.387109867951136e-05 -3.631009050795445e-05 
-7.256744275193298e-06 5.933297757930337e-06 -1.792597528943566e-05 1.851931644636856e-05 4.862803481577174e-06 4.966887699044375e-07 
-8.843074192580315e-06 7.163829210596293e-06 -2.244984914084357e-06 4.233401603325776e-06 -5.145201792546827e-06 2.086054036536211e-07 
-6.700985277207074e-06 3.942746079569377e-06 -8.709361782494664e-06 1.564037587822928e-05 -5.356144440168746e-06 -1.163040903443668e-06 
-2.262764226684104e-05 3.970677260870466e-05 -2.005846998768381e-06 -1.222017205341126e-05 -8.983506908000694e-06 -5.326137793267043e-06 
-7.927375145923216e-06 2.406598731920758e-05 1.610648891956515e-06 -1.51003977460624e-05 -3.303081320450225e-06 -1.408518183425777e-05 
-1.431044363439026e-05 -1.705754729791676e-05 3.552401025177161e-06 -8.421518804080003e-06 1.629635204668386e-05 -7.607451227237982e-06 
-2.521867178251871e-05 -2.463239341469939e-05 1.868145570231322e-06 -4.131737409270432e-06 3.431905735206634e-06 2.140924314631226e-05 
-2.001835894445112e-05 1.490695513846585e-06 -2.396342980368301e-06 -9.19385836001305e-06 -2.919236789381396e-06 1.134632530326001e-05 
1.749094293411425e-06 2.735175603354659e-06 1.320352143699825e-06 -7.592303490897645e-06 -1.3850417869212e-05 -1.805128376930185e-05 
-4.685496609043291e-06 2.921768115269725e-05 -8.811546228556697e-06 -1.550634582285018e-05 2.179570397919134e-06 -4.201699037954667e-06 
-2.020436877677463e-05 2.425220918451448e-05 -3.30476278428698e-06 -5.727478039626994e-06 -1.045125384459688e-05 6.434622636812715e-06 
-8.65193376703318e-06 -5.95149266643244e-06 6.488401498048768e-07 6.684781399408542e-06 -7.242675440708038e-06 -2.573238674829092e-06 
-6.177386106912558e-06 6.664696539338882e-06 7.976419682764902e-07 -4.444851549260004e-06 -5.28569823788961e-06 6.91530706853465e-06 
-1.542237836396935e-05 7.994048162146204e-05 -4.131314144144136e-07 -1.093282264693259e-05 -1.619197163134165e-05 -5.548832217714481e-06 
8.146107573530296e-05 -7.467366202701522e-06 -7.346092154078722e-06 -2.821247971474836e-05 -6.491458459256664e-06 -3.867555385599741e-05 
-2.194085601239805e-05 5.015461737561528e-05 -1.448914693198235e-05 4.139515086744268e-06 -2.40922216827414e-05 1.11132409334086e-05 
-2.314278845400408e-05 -3.492367372502461e-05 -8.022816860299309e-06 1.468003216097729e-05 -7.829534572305212e-06 1.610511612516131e-05 
8.011982536130783e-06 4.503075577994487e-05 -3.644686776764286e-06 -2.304929206744082e-06 -2.742360789148466e-05 -3.16009131873836e-06 
2.347011230769323e-05 -5.479805106480013e-06 -1.969114204053968e-05 -3.399458058474287e-05 -4.815351249625036e-05 9.467667757046568e-06 
4.027171902255553e-05 1.779376163673865e-05 -1.12555181918925e-05 -3.580176927806042e-05 -6.611508108376611e-05 4.579785636007338e-07 
-7.785153769610901e-06 2.899200142602414e-05 2.750566576833682e-06 8.176719093549991e-06 -3.174198073311562e-05 -1.264125198815118e-05 
-2.780349479621505e-05 6.617730834655332e-06 -7.573214969487621e-06 1.458520931442644e-05 -4.378863684310173e-07 -1.81769435368703e-05 
-1.085118888923122e-05 1.031503982448702e-05 -2.533886017706273e-06 -9.443047902859716e-06 9.884290717618702e-07 -1.916395090561897e-06 
9.677334712768142e-05 -1.47687898318366e-05 -1.266415434951844e-05 -2.541766342519587e-05 -3.942407474906544e-05 1.800922602156818e-06 
1.063198012604226e-05 5.549286992284428e-05 -1.749335637405992e-05 -3.592283732529285e-05 -1.026789484291182e-05 -2.854942762316026e-05 
8.156271946188334e-06 5.744367853849716e-06 -4.151768643322594e-05 4.227766650558124e-05 -1.457646690239871e-05 8.266365277926735e-06 
-2.6244757492665e-05 -1.372897692994261e-05 -1.819034124726402e-05 2.348973696712704e-05 -2.193791032371731e-05 1.238501332361899e-05 
6.939253514175959e-06 7.676980216122272e-06 -2.495819218145082e-05 3.710968314353493e-05 -3.930345043820347e-05 -2.151751430862839e-05 
8.187512995860865e-05 -4.436983934024314e-06 -1.294513136802283e-05 -2.837421088823673e-05 -4.739623652118054e-05 -2.654520231613293e-05 
5.21805655591615e-06 2.805628137323801e-05 -1.531499635228257e-05 -2.733876889493636e-05 3.574403491791442e-07 -4.126201299385638e-05 
-1.96799279007225e-05 1.789908834090899e-05 -2.677670600818004e-05 3.727356434134448e-05 -1.178524744504025e-07 -2.032240019011327e-05 
-1.211663164298152e-05 8.834632212938936e-06 -2.213427341103248e-05 2.740829259212711e-05 -2.3602705344161e-05 -3.22003103663362e-05 
-2.472569569734765e-05 1.891556847424802e-05 -3.730564978609901e-05 4.725878132927615e-05 -1.332739805430341e-05 -1.610207611205781e-05 
-3.081583844248081e-05 2.298526963832397e-05 -3.748144782247627e-05 -3.998332672143376e-05 -2.360891933594175e-05 7.604379901687027e-06 
-0.0001007532135377665 -4.260126348837423e-05 -2.826730341127005e-05 -3.76929123195918e-05 4.717305433051676e-05 4.122215603218583e-05 
-4.968332853993943e-06 1.443703862542896e-05 -2.901481149781489e-05 1.340970450592502e-05 3.557711891615205e-05 -4.534578374901331e-05 
-3.393732600963673e-05 -4.722952208169839e-05 -2.62319259236039e-05 1.332278746103553e-05 2.620740352507452e-05 -1.986837156295657e-05 
-2.523538597612539e-05 -2.599187500845397e-05 -2.463996421252741e-05 5.647614244727204e-05 -2.852046777422936e-06 -1.431481502386389e-05 
4.661044520087308e-05 -3.663849314386813e-05 -2.204779658743235e-05 -1.293073333098726e-05 -7.306824906277621e-06 2.116276771344333e-05 
-9.365248188390594e-06 -3.143116778542205e-05 -3.134149879470303e-05 -2.810021902192557e-05 -3.024353456835911e-05 8.868906952348608e-05 
-5.604426014326939e-05 2.879544126815286e-05 -3.995833493667658e-05 3.566330527243606e-05 1.88693116866014e-05 -3.719631748235344e-05 
-2.746980309849995e-05 -9.413667602386473e-06 -1.485626410971079e-05 2.195620219839847e-05 -1.543976014585649e-05 -4.715423021697415e-05 
-2.911010449617435e-05 2.276677752538042e-06 1.342235555349147e-05 5.178514404701267e-06 -1.790291477597219e-05 -4.07916104821538e-05 
4.988549441723258e-05 -3.910652517765267e-05 -2.134057648951419e-05 -1.097412377676674e-05 3.214491707848074e-05 -5.173410667880104e-05 
4.606624544051178e-05 -5.448369896158518e-05 -3.435169349972638e-05 -2.743625230238835e-05 4.655511274555279e-05 -4.652634868782027e-05 
-8.407333208910026e-05 4.644894984846469e-06 -7.609669444226431e-06 -3.306165732701769e-05 5.896773792479919e-05 -4.660152102343704e-05 
1.990414972472931e-05 1.296044170912384e-06 -1.825687132373745e-05 2.785301291526815e-05 -2.418008485783193e-05 -4.428225371136104e-05 
-3.469083813541757e-05 -5.409312207812084e-05 1.42202542873078e-05 -2.807772651059134e-05 4.86823046503406e-06 -5.561121097514675e-05 
0.0001001021758190252 -2.500757675155328e-05 -4.11196189615798e-06 -2.156440015734239e-05 -4.064714391287679e-05 -7.756716583076635e-05 
-3.264716733008357e-05 -2.413337867001809e-05 -2.091601674151906e-05 -1.600192846506371e-05 8.538872834210894e-05 -8.013324395409366e-05 
-7.028495811018863e-05 7.983211177238391e-05 -2.897647102151004e-05 -1.73001202519445e-05 -3.316719019514973e-06 -1.76768289288915e-05 
-4.372150513512546e-05 1.7286198158362e-05 -1.42206578935893e-05 3.519618696306233e-06 -3.212051934700102e-05 7.426370147004859e-06 
-3.730065265802349e-05 -3.430197745478611e-05 2.32138275541444e-05 -2.70063442002187e-05 -3.183873052362155e-05 -7.380050612648807e-06 
-3.753747307597943e-06 -4.64381900528772e-05 -2.294042811403792e-05 -2.555163898059769e-05 1.877222807720861e-05 1.100698507165489e-05 
3.233408880949052e-05 -3.109992298265483e-05 -7.963228802823523e-06 -1.508684177039979e-05 3.375837564026296e-06 -3.685124742757236e-05 
-4.575051757103046e-06 -2.725927684435681e-05 4.545989616724975e-05 -4.108630867860493e-05 -4.506169502265761e-05 -5.999325040911067e-05 
-1.808885963444055e-05 -2.171340930165763e-05 -2.608266738470745e-05 1.812746431471569e-05 -8.199188720967455e-07 -1.040695568738063e-05 
-6.830970261137422e-05 3.49717817794802e-05 -1.339702079384283e-05 -2.489279339342656e-05 4.339234695630297e-05 -5.411295393691201e-05 
-4.87029691076797e-05 -4.122831262089252e-05 -2.727858083515155e-05 -3.179928351280768e-05 0.0001132254809280949 -5.138515893840947e-05 
-2.552118311295077e-05 -3.050716013474237e-05 -2.638105088852264e-05 -2.066441928041027e-05 3.467678031103274e-06 1.780023425907918e-05 
-4.324084943174819e-05 -4.260221547466525e-05 4.220889277207033e-05 -4.690960729101781e-05 -3.682827686627877e-05 -1.410388566968091e-05 
-4.414804965951935e-05 -6.642973378139059e-06 -9.782136783157253e-06 9.018928236375505e-06 -2.452391104054582e-05 1.942373265728989e-05 
-7.179464718472806e-05 6.501971734210749e-05 -3.22383560792531e-05 4.296537449140984e-06 -1.002773979541771e-05 -3.338150623725217e-05 
9.172599486026876e-05 -4.354274435070297e-05 -3.146686626512573e-05 -2.615491884863844e-05 7.403111466763505e-06 -6.490241861160027e-05 
-4.92929515113576e-05 -1.094241427430605e-05 -3.234719680144718e-05 -2.30694401266745e-05 1.390017186408028e-05 2.028550842799789e-05 
-6.118337741535906e-05 -3.460263598672122e-05 -4.118387848590567e-05 7.488205081399958e-05 1.286298646107827e-05 -1.368751174292981e-05 
-6.001072130625187e-05 -1.73128301918308e-05 -2.042390154430251e-05 1.195531404994263e-05 2.612766148036928e-05 -3.931106121825598e-05 
1.334492681866022e-05 -1.450747336046531e-05 -3.391870306787531e-05 3.146841720228372e-05 2.079859460621578e-05 -5.55219724352766e-05 
-8.543133513004395e-06 -2.325155569936848e-05 -3.632951655063093e-05 -1.168285488867294e-05 1.044169519162042e-05 3.341581131984076e-05 
4.492980797028759e-05 -3.963165931306072e-05 -3.161548132677159e-05 2.776825042089938e-06 2.678208449863007e-05 -4.674960786460879e-05 
-9.986881504344742e-06 1.196801538581736e-06 -9.83484047997493e-06 2.849706875481914e-05 -2.921917996946155e-05 -6.54041676603463e-05 
-5.966506926738337e-05 3.227716810705572e-05 -2.082848153222522e-05 4.05443487353926e-06 -1.616218829736742e-05 -2.99999414393575e-05 
-3.985048485714995e-05 1.112512920685191e-05 -3.220127167700699e-05 2.832903054904573e-05 -3.246658754724006e-06 1.558320792347444e-05 
-4.818511967636037e-05 -2.2498064008085e-05 -2.538897471400783e-05 -2.074081424751523e-05 1.779341311594611e-05 2.302517743992341e-05 
8.107370136581353e-05 3.466200775681249e-06 -1.66417252782664e-05 -2.101103681144226e-05 -5.916699445208736e-05 -6.796988940232465e-06 
4.259419832177433e-06 7.73599283652191e-06 -2.53752022323877e-05 4.297085916080002e-05 -3.301036819523917e-05 -2.675976754163448e-05 
1.015987682633068e-05 -3.074298288958662e-06 -7.814095428521564e-06 4.545370942489564e-06 -2.253037148368756e-05 -2.755349072278071e-05 
-4.321560366511107e-05 4.2575664479599e-06 -1.779811659368718e-05 1.981133937612424e-06 3.376559392911467e-06 2.161623144502121e-05 
-1.12064374518339e-05 2.600147789986969e-06 -2.210156394498034e-05 -5.618048185064785e-05 2.51056827857823e-05 -2.597261906381267e-05 
1.568467615902788e-07 -1.63250136926823e-06 -2.992760424374932e-05 -4.2551688593425e-05 -1.044195283708154e-05 2.575359028826381e-06 
-2.820250984521064e-05 1.939482099881018e-05 -1.006387509718524e-06 -6.22177429040522e-06 -7.882264310508798e-06 -9.237879140369246e-06 
-4.69784158105166e-05 2.17324985395104e-05 -1.105278987752295e-05 8.791047181074978e-06 -3.4450914113836e-06 -3.128586372433478e-05 
5.885358029769365e-07 2.341151680905305e-05 -2.091077814754689e-05 2.360633235556941e-05 -1.957367731368872e-05 -1.473023724392509e-06 
-5.969188280891145e-06 3.302359556244856e-05 -1.680356963784931e-05 -2.917179889913062e-05 -2.587120451695648e-05 -1.506365096216749e-06 
5.262701467682308e-05 -3.386308727929821e-05 -1.676740644319291e-05 -2.657972349808388e-05 -1.436364788681515e-05 -1.757074709745165e-05 
-2.215217651689963e-05 2.972029398742603e-05 -4.060752435437662e-06 -1.371092086529376e-05 -1.925541213588416e-05 9.816738066902058e-06 
-3.444740921790521e-05 -2.651877666319706e-05 -1.664146682703304e-05 1.16047986739826e-05 2.124597298332969e-05 -1.554239519029351e-06 
1.568342818761842e-05 5.487422553369535e-05 -1.552052773583488e-05 7.228857830074717e-06 -3.812961403815694e-05 -1.058328667324361e-05 
8.244699242650818e-05 1.383210551112817e-05 -1.202276256629192e-05 -1.943884738278286e-05 -4.886223977259008e-05 3.036800943435535e-05 
4.060939534950689e-05 1.484687443642307e-05 -5.435854627651545e-06 -1.542828524340725e-05 -3.531717233103956e-05 7.711387422501365e-06 
2.647479728108075e-06 1.263629437239112e-05 -2.445155132559467e-06 -8.817061827249792e-06 -1.595889283237383e-05 3.52830558842274e-06 
-2.972838323829183e-05 8.729390024737075e-06 4.177153326527553e-06 4.89306517553558e-06 -1.343328422832909e-05 -1.867001792126831e-05 
-1.708552300686764e-05 4.076500310730636e-05 -4.364672386152882e-06 -6.548494162446612e-07 -2.188948587140236e-05 -1.626668176211749e-05 
4.060600566115546e-05 1.683624837972625e-05 -9.315363858171327e-06 -2.655051467365871e-05 -4.604303372451681e-05 -1.648688485086397e-05 
-1.262775917872231e-05 -1.379898350665017e-06 7.89364512689254e-06 -1.22369662610085e-05 -1.472865466168821e-05 8.481688094843373e-06 
-9.486971486051139e-06 2.815239175707099e-06 -1.01358689147056e-06 -7.041940146547041e-07 -6.611569077275677e-06 4.575240902764109e-06 
-1.152266596209455e-05 -5.824546942251019e-06 -1.40244323908634e-05 2.095927190362281e-05 -4.249582168999824e-06 2.323540776952988e-06 
-1.444001555964246e-05 -1.417553608076844e-05 -1.606931241779474e-05 1.36998949565297e-05 1.689081702908374e-05 1.305499893450378e-06 
-3.005102341206813e-05 1.205556285187225e-05 -3.269166322217541e-06 -1.345509214412858e-05 1.183160654656774e-05 -1.342831083818574e-05 
-2.214054129407125e-05 7.5829789043897e-05 -3.162049719262258e-06 -8.48537007521175e-06 -9.293892679928311e-06 -8.191086825927844e-06 
-4.691924956495361e-06 7.058634693994761e-06 1.869635661750086e-07 -2.841889484829065e-06 -3.68942970888588e-06 2.66300859212869e-06 
-7.096950312642261e-06 1.132497610111445e-05 -2.094667328060469e-06 3.373790914533988e-06 -5.628255308044593e-06 3.093013830653002e-06 
-5.074961742050439e-06 2.294837979962716e-05 -4.502260223336633e-06 -6.905674346412789e-06 -9.986817270826636e-06 6.813023838180854e-06 
9.525660926078562e-06 2.880830031772277e-05 -2.977935282686442e-05 -1.171981219988567e-05 4.684927198616e-06 2.746507023440115e-05 
-2.555644607294735e-06 3.980040056776492e-05 2.047851107401267e-07 -1.090293203895409e-05 -6.24811819071773e-06 -1.634644194210853e-05 
-6.491773281957425e-06 -6.624797846049925e-07 -2.208416816497237e-06 -7.242595272107621e-06 -6.068419495164778e-06 1.636568587080374e-05 
-1.406895510317975e-05 1.884131726416594e-05 -1.233986135845897e-06 -4.782751668304241e-06 -1.09411262484043e-05 2.520103047106539e-05 
-2.310874308632552e-06 2.445295547620838e-05 -1.609657302687443e-06 5.360843352840039e-06 -9.42631882844593e-06 7.436326832364373e-06 
9.187622197323267e-06 2.73553716398763e-05 -1.729257902493288e-06 -3.807709136317579e-06 -1.316433131985193e-05 -2.422393251266389e-05 
2.622146875143931e-05 -1.137879132647238e-05 -2.654858749595296e-06 -2.043586865772177e-05 8.243886190255261e-06 -1.010693685593978e-05 
4.99607172404355e-06 -9.218173588136397e-06 -2.787153673656895e-06 -4.890524738119773e-06 -1.220528548008699e-05 1.16168151161171e-05 
-7.509720345372707e-06 -2.947670934292582e-07 -1.785909447130611e-06 -2.793682099218312e-06 -6.751410840890134e-06 1.113578401625951e-05 
-9.814178409956961e-07 1.161272324324014e-05 -7.050235858476573e-07 -6.160883405607241e-06 -6.920236646964968e-06 3.267304105954485e-06 
-1.315682507101773e-06 3.917017984973866e-05 5.67944490936315e-07 -4.24063825237636e-06 -1.140647598086732e-05 -4.022183146578767e-06 
4.96325212405543e-05 -3.399698678217686e-07 8.576394742481993e-06 -1.905873215955509e-05 -4.033630995266076e-05 -6.11739292685293e-07 
1.148508520458692e-05 -2.747446496597188e-05 3.154882115698563e-05 -2.733740703905106e-05 -2.888434619016516e-05 -2.861838076778651e-05 
-9.285909750969286e-07 2.215221334413028e-05 2.031412026764775e-07 2.805636253914874e-07 -9.089442312758474e-06 3.288474337141081e-07 
-1.224963721066606e-05 -4.14268948398756e-06 -1.202418160828047e-05 3.625451694361011e-05 -1.205383329289258e-05 -1.23983684938815e-05 
2.235298521581363e-05 2.870736128418717e-05 -9.784564608101276e-06 -2.554851557784268e-05 -4.806651328388789e-05 -1.273125086488454e-05 
5.97454018612765e-06 1.796549558956064e-05 -1.363560717130199e-05 -2.732343136874286e-05 -5.432933582928595e-05 2.14118763788736e-05 
-1.847805260417053e-05 1.031632890894253e-05 5.294102746325438e-06 -1.919648568223468e-05 -1.915831284682131e-05 8.494371426257103e-06 
-3.008848953299472e-05 -7.896682863026028e-06 3.947265485191654e-06 -5.602226697237102e-06 -1.348998057310213e-06 -6.011176473130669e-06 
-2.068876927078003e-05 -1.183774884264775e-05 -1.782753293630778e-05 3.706389981963603e-05 -2.302913455852378e-06 -3.276512103139704e-05 
-1.152257330129801e-05 -3.984731252807827e-05 -3.536045484042729e-06 -2.879892808719172e-05 6.440316342927567e-05 -5.229804361492162e-05 
3.831848460458095e-05 5.362835605516334e-05 -4.888720340741592e-06 -2.926756139071418e-05 -5.226174549614072e-05 -8.111888168121703e-06 
-2.17515821175674e-05 1.248475927513447e-05 1.097561407830098e-05 -3.148451610506898e-05 -1.297423115252829e-05 -9.653059904303512e-06 
5.329413031362204e-06 -1.535683388760752e-05 -2.321113434834006e-06 6.406575932845999e-06 -5.662697668632653e-07 -6.70975650355747e-06 
-8.527943174662781e-06 -3.107224391817735e-05 -2.175074280034456e-05 6.932634304801027e-05 -1.420436263054343e-05 -3.152404122682481e-05 
2.962952739973133e-05 -1.694931742518378e-05 -5.08177792532385e-06 -3.781854826319517e-05 -3.156216676751593e-05 -4.598896104971302e-06 
-1.316245329432657e-05 -6.86916438471288e-06 8.721429322799996e-06 -3.885076182328732e-05 1.146958105249344e-06 -1.36457561451576e-05 
-3.846291769378485e-05 -4.514340579329176e-06 7.667681548235484e-05 -5.712289187977097e-05 -5.306607576825728e-05 -6.547456007322894e-05 
1.207135906553645e-05 -3.895243414513513e-05 1.261739244921862e-05 -1.529048650429927e-06 -2.458519641000707e-05 -4.798426239452648e-05 
-9.565051097239178e-06 -4.182647489001016e-05 -3.402421965887446e-06 2.57821335629959e-05 -2.344362379873365e-05 -2.549476664640223e-06 
-4.156890815787892e-05 -8.265226522805059e-06 -7.349514604300882e-06 -4.631124466512853e-05 -6.223426757949064e-05 5.116181518301981e-05 
-6.267448052551261e-05 -2.730756161964199e-05 -3.567670996579277e-05 -2.758016811069795e-05 3.961061110130029e-05 4.798285365024525e-05 
-3.789040096326163e-06 1.995207991586891e-05 -3.453884492841204e-05 3.928777393807646e-05 -1.000164541944986e-05 -6.169374687758285e-06 
1.429415398980442e-05 -1.090947527262291e-05 -1.261788878665593e-05 2.384025734266739e-05 -9.148189845315208e-06 -4.909382130752286e-06 
-3.778529093683918e-06 -2.762713540718649e-05 2.723631829634861e-05 -9.847477331779426e-06 -3.493027026320241e-05 -1.956685183979239e-05 
-3.692256546058186e-05 -1.987265479364326e-05 -6.83632275819623e-07 -1.272593719322825e-05 2.532772226503187e-05 -5.852685572699602e-06 
1.639458134718324e-05 -1.132292973820453e-06 -1.358469367219159e-05 -2.213466206359038e-05 -2.407462831761007e-05 6.056181919083572e-06 
-1.791286782285389e-05 7.697417774205406e-07 -2.855298556200207e-05 2.202848983438984e-05 -6.142066176001515e-06 2.203685236454912e-05 
-2.546685861762841e-05 -2.685004984133262e-05 -1.46407479327951e-05 2.802622882179637e-05 -1.359696374315764e-05 6.179256209923192e-07 
-9.652789513950461e-07 -3.595184250673747e-05 2.586155430164633e-05 -7.263109511522483e-08 -3.433465082406735e-05 -3.815673362718428e-05 
-2.640541542791127e-05 -3.067127068541045e-05 -1.964265398781429e-05 -1.560227320564529e-05 3.980571083628784e-05 -3.170231591990783e-05 
2.153244462555078e-05 -4.559925694668634e-05 -8.211281034981111e-06 -1.542020457280236e-05 2.348022863472907e-05 -1.007495240601059e-05 
-2.609170436173548e-05 3.328735070612541e-06 -2.955093417897969e-05 2.054475458403798e-05 -7.768060329195076e-06 1.941836670339863e-05 
2.101326467427449e-05 9.738210394711704e-06 -2.567163250209168e-05 1.535619709501595e-05 -3.204175918549164e-06 -1.411520947744984e-05 
2.812880685019909e-05 -1.488086532840649e-05 8.60734027514244e-06 -4.787514169456435e-06 -2.018630678750714e-05 -1.472652020131018e-05 
-1.168098324455001e-05 -3.703834697122556e-05 -1.802765942393467e-05 -7.18231573696599e-06 6.547188689935158e-05 -6.248050364924745e-05 
3.099368691657601e-05 -4.402971992532746e-05 -2.182375305686927e-05 -1.61231588327618e-05 1.183467843356205e-05 -1.371397248392009e-05 
4.270966328028959e-05 -5.056138819946313e-05 -4.70183099992509e-05 4.225774944703235e-05 -9.638834165923495e-06 -6.930068727041294e-07 
3.0886542412071e-05 -5.079709730997383e-05 -3.592034960481981e-05 5.19378825697476e-05 -1.611839270274983e-05 -3.401552004717755e-05 
-4.457478348299014e-06 -3.698308574683764e-05 -2.643871700727718e-05 4.8502777825016e-05 -1.898556807020529e-05 -5.95081600770834e-06 
2.079343586231429e-06 -3.052491966522538e-05 -1.457883415934119e-05 -5.056650893188866e-08 2.464481992112896e-05 -1.07711673566602e-05 
1.095880262665676e-05 -1.751345323350551e-05 -1.450300564191369e-05 -4.478290317342247e-06 4.253143125731636e-05 -3.215930027096846e-05 
2.03453335094598e-05 -2.873034247768916e-05 1.057400046058851e-05 -1.069128521245411e-05 -1.737393717615116e-05 -3.226873042673109e-05 
2.072339730667739e-05 -5.66656961176367e-06 -2.241494143704355e-05 2.12092498007583e-05 -1.08295831964946e-05 -1.753378032746826e-05 
-4.908171321609952e-05 6.10243934890534e-06 -3.812304703825649e-05 4.105534399229796e-05 4.366685897739135e-06 -2.679400862370185e-05 
5.939028410626154e-06 -5.94328495167565e-05 -2.543173835391066e-05 -3.008405138722138e-05 8.562071361150339e-06 3.704026495573201e-05 
1.52730346325785e-06 -1.840885205299287e-05 -1.480474609371158e-05 1.256577604982603e-06 7.998575858345509e-06 2.743352818690515e-06 
-4.216410155873567e-06 -3.746721672601764e-05 -2.120175241282658e-05 4.514659920631966e-05 -1.284117390142111e-05 4.90425403239021e-06 
-5.274018981287563e-06 -4.562600278807751e-05 -2.371029293924496e-05 4.741127401686484e-05 1.176593247456425e-05 -2.019872332965754e-05 
1.495335046021283e-05 -5.183470212294694e-05 -3.825546909678403e-05 4.177472494171889e-05 -5.567441016636438e-06 -4.136750838549639e-05 
2.953079584787644e-05 -4.078075873211437e-05 -1.476018331542452e-05 -2.211764467692227e-05 -1.258687399453738e-05 -1.701268783071218e-05 
-1.955634828504576e-05 6.091590160337558e-07 -1.871735019047797e-05 -2.204044383050258e-05 6.626247240743408e-06 4.193732501248187e-05 
-2.704309767392717e-05 -3.643196695718088e-05 3.264982511917679e-05 -1.560422581306215e-05 -2.275019982973806e-05 -3.264150199090273e-05 
1.00363902132208e-05 -1.524298225254096e-05 -1.940632211791793e-05 2.568598026630146e-05 -4.714459827869687e-06 1.379744081685288e-06 
6.707345330439592e-06 1.269720494242068e-05 -2.372646125900711e-05 1.760932487661273e-05 -7.151427686815653e-06 1.052417217715781e-05 
-7.489629144992062e-06 -2.912055637020858e-06 -1.688640293192365e-05 -1.970613337145109e-05 2.992786463780531e-05 -8.226374727122398e-06 
-3.668075170922777e-05 -3.584876301562928e-05 -2.199810894677904e-05 -2.231117281434107e-05 5.747925302161756e-05 -6.571019307865715e-06 
-3.375143060592459e-05 -2.65418634865425e-05 2.297120389266534e-05 -1.612625383324983e-05 -2.810998457339516e-05 -2.206030109153282e-05 
-9.569830303599248e-06 -3.692209992934207e-05 -1.894108713309805e-05 2.618412547868075e-05 1.039563905576309e-05 -4.68039657642534e-06 
-1.688509152680603e-05 9.824743112147466e-07 -7.741950413750009e-07 -5.256281883274852e-06 -2.510987314537241e-05 7.697143926580045e-06 
3.071391726427557e-05 -6.539247618571797e-06 -1.90342057077717e-05 -3.407214583693825e-05 -2.802156756071711e-05 4.335383318338249e-05 
8.901786194511823e-05 1.249942845573367e-05 -1.357554656202833e-05 -1.659804388736929e-05 -5.273160866460477e-05 -4.444502092814534e-05 
-1.233726346221264e-05 -1.322592070089334e-05 3.046808917369551e-07 3.873559581969602e-05 -3.314351138032042e-05 -2.790068418124767e-05 
-5.737345370839149e-06 -1.258736248462099e-05 -9.790244490237178e-06 1.757607217347255e-05 1.886256109612266e-06 -9.760948903974412e-06 
-3.869009639825577e-05 1.790714544004385e-05 2.111854156388073e-05 -3.13896605436327e-05 -3.091928975418364e-05 -9.372034500806222e-06 
5.41911033083023e-05 2.775185509311024e-05 1.086385179375596e-05 -4.810362059855195e-05 -5.630917564182534e-05 -4.957342780350153e-05 
-5.362230574420971e-06 -1.463332806840985e-05 -8.891404089097875e-06 -5.497490221739522e-05 -5.754849205576388e-05 3.049365490410871e-05 
-2.562884836945309e-05 -2.355483963801573e-05 4.938922938351923e-07 2.829468477190358e-05 -3.61124737196067e-05 -2.871276085651952e-05 
3.290183341145584e-05 -4.81478573363443e-05 2.05375491926852e-05 -8.996097564935895e-06 -2.846901666537439e-05 -5.035141454504473e-05 
-4.992241568893806e-05 -1.866746258708932e-05 7.531320934266031e-05 -8.306766636432632e-05 -6.273142512019837e-05 -5.184319039385031e-05 
-2.107440907871885e-05 7.624987258413571e-06 -1.299677994497181e-07 -4.468566505714629e-05 -5.339463016698689e-05 1.460657648980189e-05 
3.796748045865145e-05 2.451045986015873e-05 -2.364071733673161e-07 -1.290434635186375e-05 -3.775325380484356e-05 -2.282645865776402e-05 
-2.194731453474712e-05 2.818315987562677e-05 -1.171343104008228e-05 3.192547837390524e-05 -2.205221204736831e-05 -2.529529795251438e-05 
-3.67835638877309e-06 7.266405500883091e-06 4.842807866162311e-06 -1.053992400929237e-06 -1.000544732234041e-05 -4.898392819597532e-06 
-1.75364716612249e-05 -8.996589452375421e-06 2.21383969738844e-05 -2.851959161669369e-05 -2.207327342076481e-05 -7.16225397553458e-06 
-4.39124332557335e-06 1.408145202800677e-05 2.973680242743047e-06 -1.672587653190038e-05 -3.501798483942065e-05 2.621047660760392e-05 
5.480185081406098e-05 4.672871333088147e-06 -2.547398600948379e-06 -6.779934164983475e-06 -2.140726968271833e-05 -1.263926757976364e-05 
1.491235151531747e-05 1.311823959280515e-05 1.501270709054514e-05 -2.437908903421545e-05 -3.069898774005514e-05 -2.817283451206788e-06 
-6.712221456434725e-06 3.997588532302113e-06 8.289258282837236e-06 -1.079025188843756e-05 -1.916232445014878e-05 6.990401878298689e-06 
-1.069689804293499e-05 1.109086201796639e-05 6.420838817867192e-06 -1.992025031560372e-05 -2.325810461273265e-05 2.288974672868377e-06 
3.578700216058038e-07 1.170441305842932e-05 -1.602927637266705e-06 -1.175976824837755e-05 -2.598368812914417e-05 1.171860418596623e-05 
5.789746284811317e-06 -1.855703738327959e-06 9.659166063667429e-07 -5.221737095244145e-06 -9.764937031769461e-06 3.150691255056051e-06 
-7.118618203955139e-06 1.032782481910202e-05 -1.853742504813666e-06 -5.200391372139168e-06 -7.9871673548452e-06 1.088247281012403e-05 
-8.970362128909491e-06 1.142990027289444e-05 -1.484065304869224e-06 -2.378662950261384e-06 -8.680812380516102e-06 1.823539348797661e-05 
-2.716673410159662e-06 2.878290263315765e-06 -5.108761752673196e-07 -1.770679583657523e-06 -1.221630087380885e-06 6.108844312446511e-06 
-1.830266174484565e-05 2.872659476177662e-05 6.709410530239737e-08 -1.088590419004282e-05 -4.297561522781731e-06 -9.604140055367936e-06 
-1.07536775408867e-05 3.676896810213356e-05 -4.529979972245783e-07 -3.373326092086932e-06 -9.952988044035161e-06 2.764908664964337e-06 
-2.595936804771081e-06 4.112556785318834e-06 2.975793757927015e-07 -2.091275109180304e-06 -1.922714896489376e-06 6.187280722162088e-07 
-5.582240766113597e-06 -3.219275635858296e-07 -2.114532771716318e-07 -2.380199403996966e-06 -3.877957724467677e-06 3.610638135262664e-06 
-6.668987920230155e-06 -4.469104591839334e-06 -3.737478328970865e-06 -2.940385980331603e-06 -9.739803120644371e-06 2.108299804716925e-05 
3.687600342553194e-05 -1.324796967522508e-05 -2.286104859588907e-05 -1.0246340605957e-05 2.689905877989317e-05 3.658841616298673e-06 
-4.812102028729943e-06 2.700538953481477e-05 -5.883838323453782e-06 -8.159342923656306e-06 -7.344485022026638e-06 1.042584583632087e-05 
-2.553939862136512e-05 4.699755657513738e-07 -2.295313706032266e-06 -2.289086998507856e-05 -1.27277336901418e-05 2.640649641659331e-05 
-1.295730988343031e-05 -1.030997056077521e-05 -5.046952136617651e-06 -7.771672799262644e-06 -1.18433438806994e-05 3.461403528577063e-05 
-1.067229249493438e-05 -1.059009303134436e-05 -7.744590582650545e-06 2.062359922141319e-05 -5.270717384063463e-06 1.282485261977834e-05 
-4.153043203488861e-05 3.162520126873792e-06 -7.691607576899026e-06 -3.407549279091868e-06 -2.036289315941623e-05 3.35834775491995e-05 
-1.35703555078049e-05 -1.809029776338065e-05 -1.301748421545424e-05 -3.863586074986095e-05 8.00846572303705e-06 5.144881823141814e-05 
-1.557494053040887e-05 -9.464369070512622e-06 -6.891179938415184e-06 -6.954639440698442e-06 -1.201955175495031e-05 3.67899282059082e-05 
-2.880917822103779e-05 -6.621860532163612e-06 -1.540085573741996e-05 -1.281877586643687e-05 -3.470683116425026e-05 8.468925432459222e-05 
9.566910983757225e-06 -2.050460339892356e-05 -2.039557313005779e-06 1.48622872910899e-05 -1.488703767421223e-05 -1.144419372485727e-06 
-9.545411263050461e-06 1.625182729027357e-05 -7.760325367283582e-06 -1.071558436795388e-05 -1.367248010637847e-05 3.066082401511507e-05 
-1.361052803210339e-05 6.671231933088108e-06 -3.418591694445887e-08 -1.839885219674926e-05 -6.518208025328183e-07 1.283131533257114e-05 
-2.350110946660438e-06 -1.542933876938112e-06 -9.953401224070369e-07 -2.47397065124141e-05 -6.442834535139194e-06 1.704135656427353e-05 
-1.188901436568708e-05 -1.455358083594258e-05 -4.222408737631945e-06 -4.427044062016952e-06 6.221998043512171e-06 6.171108274659363e-06 
-1.73233161243532e-05 -5.116035739485186e-05 3.960072911783771e-06 6.775561702544626e-05 -3.919657552348175e-05 -3.466551469576573e-05 
-2.776598924105031e-05 3.03364025461543e-05 -1.736405556905721e-05 -1.451489707509774e-05 -2.837702572211015e-05 4.648098196233609e-06 
1.139798954530882e-05 3.165059465686947e-05 -6.414642917332717e-06 -2.040834561259306e-05 -3.446571990384316e-05 -1.210118083436724e-05 
2.686789107167842e-05 2.129780525508895e-06 4.818943484071045e-07 -1.58790940883934e-05 -2.341173676515853e-05 -6.524701950172247e-06 
-1.579109805673962e-05 -1.018459923150398e-05 3.235298110949232e-06 -1.231448802366235e-05 -3.376257017363514e-05 2.943862925488416e-05 
-1.01505615654858e-05 -6.00936755747427e-05 3.574280343132613e-05 3.268154760598833e-05 -4.879592543291118e-05 -5.823379734398634e-05 
8.232804330609026e-06 -5.070568479204886e-05 2.400221434202107e-07 -2.460117959455483e-05 2.071804401374563e-06 1.43222669257301e-05 
-5.512990626314377e-05 2.909363247804706e-05 1.712965671687982e-05 -4.332272721547995e-05 -6.169038100732813e-05 1.16536310576357e-05 
-2.376919447648486e-05 -1.743754766401882e-06 4.97483102909562e-05 -3.812603048637208e-05 -4.554108116339437e-05 -3.296768167092166e-05 
-4.235434896417872e-06 -1.891874486459851e-05 -2.483129086520458e-06 2.94730878574445e-07 4.21206511538138e-06 -5.758859159263652e-06 
-5.63947773202491e-05 -5.672618707500792e-05 6.200909740491365e-05 -3.814415601180673e-05 -2.991414978794182e-05 -2.348497228598579e-05 
-3.67015572577583e-05 -2.36803681630481e-05 4.495096869815127e-06 -2.03032800571333e-05 -7.657209977954622e-06 1.52568028199624e-05 
-7.274266278468345e-05 9.592507457219251e-06 1.930996693049241e-06 -3.585911298485863e-05 -9.805718524056212e-06 2.608564698898054e-05 
3.170831142533577e-05 -1.065976364928328e-05 1.060592276012624e-05 -1.406929463809294e-05 -2.988046344033495e-05 -9.708992527786393e-06 
-1.060007788907662e-05 -2.061058337152962e-05 -1.16479018507971e-05 1.355601531514413e-05 -1.636201986372257e-05 1.622667450356382e-05 
3.221109543012301e-06 -4.615334473168734e-05 1.870128611350883e-05 2.643322596612971e-05 -2.831015441212511e-05 -5.11204813847321e-05 
2.801912307725227e-05 -2.44539396753082e-05 1.799694798215787e-06 -2.576220785743425e-05 -6.454280013119709e-05 -3.238756523151926e-05 
-6.822412957712171e-05 -1.498192801416088e-05 -2.771224874622382e-05 -3.081408972906212e-05 -1.156284293867325e-06 5.715122372371842e-05 
-2.348374056800256e-05 -6.551228065428159e-06 3.256140149008853e-05 -2.299042522672219e-05 -3.114291152156666e-05 -3.247586570806514e-05 
1.066412602254009e-05 -1.664037960069955e-05 -4.824794974366739e-06 1.271286226046013e-05 -9.263670629834875e-06 -3.198375450884912e-05 
