solver_type L2R_L2LOSS_SVC_DUAL
nr_class 6
label 1 2 3 4 5 6
nr_feature 26792
bias -1
w
-0.006363344726818114 -0.00119392467256687 -0.002072539085348243 -0.003393919436226149 -0.01198951329701739 0.006502804018340106 
-0.005032500506201599 -0.003742391714199205 0.007462902201404402 -0.01186768233174272 -0.008894924329124832 0.002507448850459464 
0.008889380967132583 0.003561966270773764 -0.002841314098473213 -0.01335182160683987 -0.0120785565470819 -0.02589665552998732 
-0.008845197733912846 0.01076725966282158 -0.001531002802253954 -0.0069589932488112 -0.008792634541225976 0.003763201781371767 
-0.01137165939807894 -0.01192524725302235 0.0003102643919289074 -0.007789083106545405 -0.009264965680899018 0.006287350950901142 
-0.01819589983509022 -0.002426533650986852 0.009284156178040357 0.008282032358918596 -0.007494502132729784 -0.00641997084692885 
-0.007054483508032562 -0.005571669599834211 0.003907295875566916 0.00115101271143177 -0.002357418659245543 0.002414484367405131 
-0.01452170965642267 0.01095150792305182 0.0006480414774887371 -0.01096218953932195 0.00283174265531687 0.004330869917511335 
-0.005837639581678489 0.0004895664761912281 0.002785873479142236 -0.00110691714870242 -0.0001835387900246653 -8.942432225401116e-05 
-0.01096508150802684 0.0005215182426187232 -0.006276078584301992 0.00945932193570371 0.001722050286317114 -0.009539420692815831 
-0.01128892577356378 -0.007995268881114509 0.01041492810949778 6.090843004713531e-05 -0.01643490922472176 0.009499957873586387 
-0.008479146487945403 -0.00188095326930203 0.01079604725934914 -0.01405602425203416 -0.01700681113449056 0.005893537465685069 
0.01245581555745203 0.00582448422088225 0.002864945845174856 -0.01701645969150079 -0.0211669607817258 -0.0268837376228332 
-0.0107375225598954 0.004365504816566251 -0.010718313733302 -0.007568258898154225 -0.003962097062015959 0.01324126902441177 
0.005044069029291482 -0.002638095844852242 -0.005613994851211313 -0.006722733703775604 -0.01051934021898637 -0.002173265387686547 
-0.03130450595293879 0.001994165301525845 -0.004200391715571588 0.01153153823189487 -0.01307463507553711 0.01898305070258439 
-0.02252934857379893 0.002365437292384579 0.01910603201126262 -0.009699469314335669 -0.01624196799270311 0.003001821840865398 
-0.04493032257568411 0.02238957764539504 -0.005600465367775943 -0.009433372143850953 0.002693742671649475 0.004735675818132203 
-0.01663000219157195 0.01552783376013844 -0.009160416122419577 0.0006098521865945606 0.002355305847737676 -0.004841540641841996 
0.006873619077130574 -0.009127898107189048 -0.009720189348508726 0.008073008286457493 -0.01573001187016282 0.006765047756093584 
-0.01355217636864879 -0.007205751402669725 0.01588591770315674 0.004264788556879444 -0.01507762409189796 0.002240909677586594 
-0.01857612864126477 0.002770652064383791 0.007379692123253416 -0.0193428483657796 -0.01247734249245356 0.008303682988072065 
-0.003332753895072486 0.02659979876769124 -0.02966921483788547 0.0221369703500974 -0.03114001849096262 -0.02818053122473759 
-0.008500978660786595 -0.009920753907493012 -0.007778676081626411 0.002825151424383824 -0.01516274556628998 0.01617192718194631 
-0.01684242932040388 -0.008690785837794713 -0.01146786984927737 0.004326365960885095 -0.005285423578101566 0.01267566839132611 
-0.02089823352627177 -0.005545475883634597 -0.004336714217351873 0.01263863396337375 -0.004846281583301375 0.01744397901758354 
-0.03308422988266663 -0.00288637852725061 0.02189135361186289 -0.007496770144862669 -0.01740583604738193 0.01523045964778124 
-0.04353065437543765 0.0185814112301217 -0.02274305210194149 -0.001716310743780809 0.001221234999597721 0.01430213303260889 
0.003171262139229906 -0.0001408847758602039 -0.01401174525903102 0.0007961390326347589 -0.002471902878506242 -0.001057439754965806 
0.002668386888338943 -0.01374102187542263 -0.01173916707464137 0.003270264537904389 0.01296764309033126 -0.002754004846724434 
-0.009434804650362755 -0.00611220494544551 0.01369094532331602 -0.003717551547703767 -0.003050888527722908 -0.007493403544704508 
-0.01236167378994057 -0.006941607481522932 -0.006671067167051081 0.01212493615319247 -0.01275106437298875 0.01130601061451987 
-0.01494465389403143 0.04582853516552361 -0.01535269280119999 -0.003404449316493784 -0.04073927851925389 -0.01435058713701922 
0.005851332192590004 -0.02133037726917706 -0.01292779314537113 -0.006467631927858482 -0.01622306587648924 0.0119750711353088 
-0.008095314953858027 -0.003993168793159339 -0.008994503827894598 0.007285017410595167 -0.003536332024851963 0.005304042683772547 
-0.003752712865888781 0.003690281014516943 0.00321219663986027 0.01464808778896526 -0.008686561294772731 -0.006497753025215667 
-0.03505398333885698 0.006450340662040375 -0.01071040226758786 0.001605603988692647 -0.0006512533162956109 0.01855778453936986 
-0.02886409950731391 0.01292595602346648 -0.005947167649058725 -0.007815663180372329 0.01045080375551254 -0.003384226821340999 
0.008112947951021821 -0.01899617835894473 -0.00891518145873817 -0.01062511166615087 -0.01914065686723201 0.02141471874367156 
-0.013304043351807 0.01071406728751301 -0.00904923924937707 -0.01303598669479245 0.01869945103160843 -0.009052353425476374 
0.0003244675266296761 -0.002121978941943251 0.001283791324493064 -0.002135446743297691 0.006798667016810487 -0.01293248237802637 
-0.01068741137807361 -0.00409144036455565 -0.006014131883159217 -0.002125580483702518 -0.0005275062580542003 0.01093687322485711 
-0.01625591714664763 -0.02942388166739722 -0.006017970534282276 0.001850926140786629 -0.01320101776534244 0.008557338313014978 
-0.02974004209468152 -0.002407574954199838 -0.01777185830821551 -0.0196004537065542 -0.01285006068210848 0.04257075496169579 
0.01723653980610359 -0.002741913230668349 0.001133547172454813 0.002039747434732796 -0.002180277274379157 -0.01856895822394837 
-0.01437307862284013 0.0400900033416186 0.002479695767755155 0.007417622507329736 -0.01230698062439076 -0.02183814197426084 
-0.01223777131925109 0.001981012743988003 -0.01066368100930557 -0.002513321344142846 -0.01464363473408333 0.02406451243589822 
0.02256183703915134 -0.01161688115834543 -0.02379020213253251 -0.01470285994063032 0.01017310586507933 -0.01294761500317958 
-0.03429791602293291 -0.00082018122354421 -0.01786096399973418 -0.00355043539792647 0.02283474354509446 0.01771751406401638 
0.01468838410049737 0.03612754159184376 0.00133221118512797 -0.01243570039542945 0.005322400518132467 -0.02391066856220464 
0.007505118348722075 -0.006945461565963294 -0.006101199641828599 0.003824332242101816 0.007044703341786988 -0.01254912903584542 
-0.02411558872058605 -0.01483137836756982 -0.01141616683042448 -0.008485927575846144 -0.0127804105283092 0.03459719664172947 
-0.008551839105350192 -0.01657185122965948 -0.01010982252199056 0.02011131670374318 -0.03338990756372812 -0.0003995924582587702 
-0.008202222816344133 0.007336057849085925 -0.01080808419161254 -0.006947808938410857 -0.001744895610046793 0.003326441919462221 
0.007062512650917486 0.004578537418012899 0.003873141301077494 0.0003859310315355036 0.002314510661935735 -0.02071587158185478 
0.01699055316061048 0.006335105235027332 -0.03198662566609868 0.01101802561018409 0.01642026390852776 -0.006870730170017225 
-0.03151584147422526 0.000176016032630175 -0.02538328993767476 -0.003729106673705012 0.008375432726367038 0.02515848238745535 
0.02696151171469387 -0.01488296040698334 -0.02213704486506095 -0.006003041258526087 0.008320882191258256 -0.0184278011295589 
-0.01637703412627141 -0.0008691694061496413 -0.01218668938521014 0.003051131404289276 -0.002336399622159122 0.0136725396298568 
-0.005481449407839164 0.02048041786852873 -0.005097031123701436 0.01318128957075748 -0.008558200971979865 -0.01336980561411749 
-0.008909955583855541 -0.0144164514756091 -0.008376188379018559 0.00684108228537879 -0.006188303248683122 0.008191621177198946 
-0.000223288861180401 -0.02849683273394781 -0.01649983358420697 -0.009370487060235091 -0.02916711238788964 0.03102606310139721 
-0.007891421496458804 0.03110900005542526 -0.01084762446656867 0.02644035713069285 -0.02879152328283427 -0.04762136232359223 
-0.005075437497069726 0.003150177799020553 -0.00943075446905775 0.002147936647921437 -0.00618706678526717 0.004710413281516738 
-0.02722742138845671 0.0001490804448897815 0.01341336713948198 -0.0007691776583429374 -0.01104244683733186 0.009623810198741214 
-0.02994401139121828 0.001679236427289521 -0.01333294302020659 0.007503390774056644 0.02682415141573589 -0.001734940692888006 
0.02813497625928882 -0.01077481112696855 -0.00912791550151305 -0.005388518783200016 -0.01748319379986691 -0.002463193327313042 
-0.001942508120582883 0.02002342757441036 -0.02017692888270782 0.005474722346776772 0.00381030043396519 -0.01261240277349848 
-0.04717401818908288 0.00815035843103956 -0.01247805141421829 0.0001303697990463303 -0.007988216095821196 0.02972723613037649 
0.002459920632003133 0.0005531389462413807 -0.008711743099124624 0.008500953762716314 -0.005210612885524153 -0.00842625829516664 
0.008935756409740925 -0.009071404848802546 -0.008532622590156566 0.007725455331034311 -0.01147587179874792 -0.00417727245386495 
-0.01044165089638039 0.001253022621603586 -0.01043481975341457 0.005062571203625482 -0.01255333071404299 0.007555452785196177 
0.005410375839257261 0.0162930761752394 -0.01277947865376454 0.01050575243351586 -0.03217633852922217 -0.04251205987352061 
-0.008812602337697163 -0.01526006790134377 0.0181511201811471 -0.03567716553518543 -0.005934776566957243 0.006712370340404309 
-0.02178333110749473 -0.01198502881197358 0.007564762253869956 0.00141725043343921 -0.01688792202100568 0.01923802931433197 
-0.01489108645116003 -0.0008186367801497472 -0.0108470848895734 0.00446418274862786 0.01797978888876094 0.0007866195743016578 
0.00145986317181902 -0.0016358338556304 -0.01468933146404053 -0.00378072461342604 -0.001913575095137727 0.001315338613317318 
-0.02658328944990992 0.01264539045507975 -0.01352143796835199 0.003930436555399878 -0.01044084181061533 0.01021276839389125 
-0.03165329043751961 0.004911108346258963 0.0003832609492666633 0.002101964164787049 -0.01298907836547753 0.02055928514934632 
-0.01525470639389962 -0.004756458136704355 -0.004286856171506162 0.02099531914929293 -0.007033939924752223 -0.005025710150596372 
0.001864094663186344 -0.02385724237828091 -0.001599261351733906 -0.00130716737925327 0.0234257264015294 -0.01438284039645614 
-0.0009209193106554265 0.00275747270879795 -0.004234713483458168 -0.0133792079770438 -0.008951046591297775 0.006097474285471019 
0.01696071726902696 0.02460703192322677 -0.0009232868452553504 -0.02995541718460499 -0.01585659637259943 -0.04823089350044793 
-0.002576247177878307 -0.007418771615573184 0.02608875206339027 -0.03419948090129946 -0.0139250718840593 -0.00220953202086184 
0.0003269988103172909 -0.008488554516787863 -0.0003166571341086556 -0.001177425647374853 -0.01938332384468587 0.01479481877545813 
-0.01773083564026363 0.005504969207952381 -0.01613197409205523 0.00862771914998323 0.01092676481744884 0.00159606687573705 
-0.01092901519207224 0.008986095019776473 -0.0101568630455484 -0.001205255816731911 0.000160910249462473 -8.378829568910614e-05 
-0.04322955016412379 0.01210361691977247 -0.006713385141635055 0.005172778197533594 -0.007553775785894847 0.01600562884233959 
-0.01538914783692736 0.002315450904092726 0.01023890200971234 -0.007351304622732848 -0.008363478392455612 0.003652942727507097 
-0.01374903172979542 -0.01250438789649351 -0.009271589889488284 0.006486812643656675 0.002991082183558892 -0.007469766530537103 
0.007986186561750574 -0.0204480956262067 0.0001083562405487932 -0.01997520851329383 -0.01050653931037142 0.001407972489086488 
-0.009624518062905998 -0.003748547286559053 0.0002668266765632719 -0.01220632020743688 -0.01132896907546943 0.01465777444371735 
-0.008443338682358461 0.03291757271380983 0.001121730964871054 -0.02088361327906001 -0.01405141952822749 -0.03533297669947806 
-0.002064868362565778 -0.006957995106542645 0.003539020854771225 -0.002471643900709681 -0.003221194355462476 -0.0006117450521734464 
0.005490487919325697 -0.002386947347248084 0.002551525935323851 0.001448871623672792 -0.007466966094254322 -0.007487071487036793 
-0.02320474085023264 0.003187127513841276 -0.001822471543617297 0.009302460113676574 0.0004217845423292331 -0.002138198390246429 
-0.003534772460520532 0.001416284669708705 -0.006463526097722529 0.001162790682341027 -0.001738913363008946 -0.001416864704082867 
-0.009787103802487849 0.005858509893093358 -0.005727624373761602 -0.00125478253853084 -0.0006878123918338962 0.004832033230678059 
-0.00651421392575344 -0.005660438887707201 0.001994248211489761 -0.001251858172645676 -0.0007940556458367235 0.002725927861326299 
-0.03261099889103307 0.01670003503845868 -0.002497798514392992 -0.008404529912557978 -0.003986350236502162 0.002836876358598075 
-0.004718264957117927 -0.005093036050634361 0.001411405906627819 -0.0001637475607986275 -0.01553676832125837 0.007832850743854551 
-0.02245586509033077 -0.001262028278355659 0.01077098126831355 -0.01046613122108468 -0.01195732169053697 0.0128412634732848 
0.0242763863807891 -0.004256647677310529 0.005954240980674453 -0.00976498195702733 -0.0177179629950358 -0.02981231561596106 
-0.01017738083250531 0.003628591072065975 -0.002146456829019908 -0.01351133192807114 -0.01363177851745503 0.0126270737928871 
-0.01353550831064058 -0.01616024923320892 -0.005552899247487695 -0.01047462104058603 -0.01354953732605891 0.0215205236816027 
-0.02156622061534794 -0.00150761704846847 0.01166759694881117 0.006632496497061395 -0.01347159845855988 -0.005470807270997092 
-0.01166066039902972 -0.01506537744724453 0.01237043283650274 -0.005948762480946954 0.0005901096739597089 -0.0001249483372702811 
-0.02356182735713708 0.006017655427299749 0.003536619676331801 -0.0006954958849789979 0.0143250224929101 0.004679907383129077 
-0.01783835823419889 0.009623700893277257 -0.007592029441864247 0.003952999020833857 -0.001730104952627242 0.003910102077274046 
-0.02675657291443835 0.02236796699476148 -0.01595550014165805 -0.001940693220589522 -0.0008725676259798215 -0.007198327497357083 
-0.003012442327475566 0.006472916729115266 0.00678068947966728 -0.01604229671356297 -0.03413440813649123 0.007218705471011881 
-0.02562720132807351 -0.01735706957987221 0.0258487836739559 -0.01875564506222105 -0.02271327123912333 0.01576104491723274 
0.02032237932950585 -0.01581461162972956 -0.005914692275530336 -0.01000699376599097 -0.0266188823483469 -0.004321064405859932 
-0.009208943548990763 -0.01172011095941404 -0.00826921125892738 0.0008601591725378174 -0.01489202725226279 0.02100296183959217 
-0.0203696055652719 -0.01211841847144949 -0.01713899006405387 -6.023347785401959e-05 -0.01372543956438234 0.02559315548935552 
-0.03824912863303358 0.02108414011266401 -0.01009164185690572 0.007887528726767417 -0.01575699164424461 0.0006998451689522828 
-0.02845512393934032 -0.02031084078315114 0.02225371648263555 -0.009870242815980085 -0.002111387143257809 0.01063513425760235 
-0.04232865509544635 -0.002376412129580969 0.01412274411818581 -0.0002493752228492482 0.01791322750139715 0.01088506979756182 
-0.02797948185854963 0.02883192368056739 -0.01461342269483048 -0.001337234578992546 0.009170834407097761 -0.00284291945152503 
0.004976452765728075 0.006790877969324724 -0.01838342430582289 0.0142468513983807 0.001675901526386679 -0.02611923443071953 
-0.00356897577320442 -0.003851023793642266 0.01360576963379102 -0.008322222366522837 -0.02041478361631521 0.001101106448844904 
-0.05279598817346941 -0.01299151090257479 0.004980286387688316 -0.006484585434760016 -0.0203443483813141 0.03957772301093531 
-0.001324048147629987 -0.0157331672380307 -0.01026277028684646 -0.006757831624669647 -0.00719202551392635 0.006957668907135736 
-0.01218312247815413 0.00702035196502077 -0.01410271016514089 -0.0127012285820182 -0.01135872658572756 -0.0003799205338428297 
-0.002838399239160015 0.0003872793754349762 -0.01758717482323196 -0.007662999758217546 -0.02105683477404127 0.00588191936363128 
-0.01081118271603207 -0.008276311696763577 -0.01856111943878397 0.00929200990174177 -0.005655266988464187 0.003707954796841412 
-0.03463390658700797 -0.01108142232083612 0.03447890548265827 -0.005244600034403292 -0.02474072401700272 0.01540574087828401 
-0.03569328231545224 0.0114691226087578 -0.005553557090198107 0.01274751558296859 -0.01116791956913252 0.02286487082924824 
-0.01394461528898793 0.01879387026995804 -0.01792601211049402 -0.01408566576007063 0.03161954648342803 -0.01722109019709416 
0.04538303532345318 -0.008027578837594839 -0.01722471810594652 -0.01041594347779199 -0.0129447263078877 -0.02265809644775816 
0.006959867258900898 0.002557605877870669 0.005412698291619679 -0.008621741862388149 0.001657112025758454 -0.0201860430381231 
-0.03511519734987918 -0.01908118192565733 0.007515281930092685 0.0008424320964237378 0.006981488744285407 0.0009997237806775063 
-0.00406194278250667 -0.01433595811772918 0.001424849812946734 0.008905277738406388 -0.00838611010432461 -0.007156480365739144 
0.003656588901364991 0.02150962939999244 -0.01690853386022509 -0.03509818912045839 -0.009717171331425937 0.00261914397221713 
-0.004043629880143059 -0.009778339915349295 -0.01342803522561644 -0.004997305372976222 -0.006248158197321863 0.01024973272323382 
-0.01210033393634336 -0.002682832686951907 -0.009866495428033291 -0.003823455602766045 0.0008717017178936436 -0.0002247290814185021 
-0.01658784577380812 -0.009873642341627189 -0.00851105618683254 0.0177166507400266 -0.01441721892946578 0.01857217103473779 
-0.007330574615297923 -1.752431714308864e-05 -0.01909420583145949 -0.006669249969135443 -0.01089484895610026 0.02086428316669664 
-0.03054701249396953 -0.01505515250235758 -0.03078540995879293 -0.008222278368745067 0.04400176134876538 0.02087070497650963 
0.04998851691937124 0.01698245175555122 -0.03151034721318053 -0.006600706992393061 -3.318331020801159e-05 -0.04342557133872902 
0.004515047252989015 0.0007613516450443885 -0.007368402435561179 -0.01273581235996292 0.01296013541444496 -0.009803751303305521 
-0.01843427186274814 -0.001090578861885155 -0.004682936787237286 0.001142629241995734 0.003420792055094219 0.001787759096795846 
-0.01134967366245382 0.0122001500430259 -0.02063535284959299 -0.007617349554557232 0.0123982886194604 -0.02235722400229705 
-0.009981117514921816 0.01527974519146658 -0.009263306370097008 -0.0121400673498209 -0.002250872054967095 -0.004863968202970001 
0.01906827973441952 -0.01113981909548857 -0.01000573813353638 -0.005109052290611775 0.004376822774292998 -0.01078901248127373 
-0.01356657405469749 0.02179838434563743 0.009196280046821917 0.004945793771360873 -0.03014155457119882 -0.009509894382802036 
-0.02193443285896584 -0.01014630489276847 -0.01433657856640427 -0.001259026499120788 -0.005169840051305451 0.03472554837360391 
0.009800523296309364 -0.02622712176988376 -0.02578815469438232 0.01165990919192673 0.01094867624777955 0.006332685859762483 
-0.006374320852450837 -0.0112830652125869 -0.01513398905725852 -0.01508144034597862 -0.007516450872963779 0.02991873556276949 
0.03544948952532714 0.01480650951064839 -0.0075524622214226 -0.01203054351331167 -0.0167369782456332 -0.01851389309968871 
-0.003715531545950793 -0.01638776763699486 -0.01409877552656104 0.006368616828143239 0.008115546609685732 0.0005414463777628872 
-0.007355190463549526 0.02472567156190288 -0.01489984082102295 -0.01414558619610863 0.0002105436330022672 -0.005479544981965513 
0.01175739081710364 -0.00186303670244701 -0.01984003384731184 -7.86637772484526e-06 0.0140858468994483 -0.02739249521947024 
-0.003865317349654345 -0.00227216977011913 -0.005866831135844148 -0.009131020227399768 -0.003472377737947502 -0.006298355613380269 
-0.01371389022166165 0.01222975990452341 0.005454836967935695 -0.01583026085003876 0.005495791793766928 -0.007962119002850432 
0.02197490361716588 0.002525535924886221 -0.02090322295525979 -0.003813128322397057 0.0118422134001027 -0.01410223043140275 
-0.02864227743431225 -0.00670474939678111 -0.01832266887855672 -0.01177798822922644 0.000402656561725078 0.0412796651723063 
0.04618960225756746 -0.03027910389872318 -0.0309235833965043 -0.004277522955799013 -0.01274835720712256 0.01280477288666869 
-0.01632632358589272 -0.006308995045198437 -0.01569854824304163 -0.001039053815703821 0.0005141606954631695 0.02388598462711052 
-0.0005008938104224816 0.02704031689853234 -0.002008439736675641 -0.004792101854833649 -0.02431576393293379 -0.01642478654684215 
-0.01972399798089455 0.01743388521075749 -0.02377371012263288 -0.01007463284953769 -0.009198880123407574 0.01106021464766597 
0.01238546522590034 -0.006692951226789264 -0.01773800797864021 -0.01597911253049299 -0.01226886436520381 0.006874461845313568 
0.004277734087476496 -0.001347777556309433 -0.01153288672108286 0.005227737095576407 -0.01180648269629405 -0.01076735819206704 
-0.005309790362450809 -0.03261764670031314 0.006031320357709939 -0.01368693189865741 -0.01792893010195558 0.01815929904455 
-0.009817241486695842 0.002918565108849235 0.01877134655125917 -0.002779558369519093 -0.01292977160002338 -0.00309699236425064 
0.03617101424783279 0.0051594407539058 -0.01468648050748454 -0.01076643381603858 0.01162344270419164 -0.04774701755813045 
-0.02112482080364234 -0.002094099855454959 -0.02987427693830761 -0.008132748592295467 0.05211370830608915 -0.006319065936279948 
-0.03650562888932952 0.01028753703394952 -0.03418035500015119 0.01246784766325384 0.01655425102227988 0.007253507962594771 
-0.02740678230465167 -0.01802502627198749 0.003893506603818098 0.006571171611480742 -0.02889036084456019 0.03772846775195984 
-0.0118726700782049 -0.004723677062923827 -0.0100637145069135 0.004014843329789376 0.000150288936726043 0.001810355036396033 
0.009848109030358392 -0.005084540910210079 -0.01714458410544974 -0.005731872404438817 -0.01935215561855521 -0.001472223440881523 
-0.01881328639225464 0.008336638971062137 -0.01772796228776069 0.0008165909044117981 -0.01817441733418669 0.01171211107257091 
-0.002868169034917049 -0.01030152902910201 -0.01649271789403846 0.009922967161817267 -0.0239889368369607 0.005726084332283396 
-0.0602908702122078 -0.0166900486569332 0.03458293630619108 -0.02534629980032906 -0.01785417393353417 0.03044194644753229 
-0.009859453752699136 -0.001448552624305126 -0.001797361996606109 -0.001185187471491108 -0.01479129887633712 0.005986318792744025 
0.0807754996534548 0.001414140737177137 -0.01734300801838315 -0.01094273144697458 -0.01764880647776305 -0.04125952918840307 
-0.02330712733159117 0.0195134250160961 -0.01747953305025529 -0.01243862064703687 0.04137316510411198 -0.01669190727530996 
-0.04944338812564894 0.006757476899382667 -0.01216550913807959 0.02112139399121558 -0.006774047638944224 0.02246658358803381 
-0.03684649707067847 -0.01802095668841185 0.02856423506177865 -0.006140117785231129 -0.02237232061791467 0.02918594403011756 
-0.01881167939633484 0.001688312662587064 -0.004148029950036014 -0.005241344125815438 -0.004130779384448786 -0.005465603662770604 
-0.001652257932413196 -0.01999500098432829 -0.01727288813337546 0.0007691428395332469 -0.006022788268033651 0.01256650424837095 
-0.01561361514948854 0.009928743356734453 -0.006739101769720251 -0.008531909875295882 -0.01256117116233933 0.01036257263878787 
0.0235873089326843 -0.01474214541939141 -0.01534213185166887 -0.008730390729470327 -0.02864352034699597 -0.0005638105864398033 
-0.03253717177625149 -0.01151338370512564 0.02379032864128808 -0.02144689433722135 -0.0167966367681454 0.01343763949974045 
0.0017343625587459 0.002262832256705956 0.003112706480203301 -0.006593631484055226 -0.02120099529561757 -0.0009635361211478912 
-0.0245153980214954 0.01710555043915256 -0.03348485386245253 0.006212612028052021 0.01701727126264202 -0.002372746402686754 
-0.04422597735822725 0.02731645271581343 -0.01020544410091377 -0.01156069892047717 0.00685325261311698 0.01120098227006951 
-0.03081140592838623 0.01327629553486417 -0.002096484383050776 0.002039486109670344 0.007916126911210686 0.00733879539679227 
-0.02868833568778938 -0.02536805219197524 0.04809068077057899 -0.0303326572363248 -0.003699852169041336 0.00535681183028625 
-0.02723260087474732 -0.00769317707863233 0.00378203815828463 0.00381892859047253 -0.01559432633880881 0.0084341884583925 
-0.006326016405922448 -0.02520543602461446 0.007432987604729866 -0.02328714539916253 -0.003848018644260843 0.00415537629209835 
-0.01050486375721905 -0.004467571985680971 -0.004588876068789425 -0.007441694006835068 -0.01761871449443739 0.02205543936114636 
0.02047064124124332 0.004502512921653923 0.0004697756483295768 -0.01525003954017616 -0.01713929013932879 -0.0188365511640383 
-0.007150643644475378 0.001691685637544472 0.006130070038285183 -0.007200105259133996 -0.008119721362995883 -0.0006711014020370087 
-0.02433379519425897 0.00504270292329989 0.02017463295754572 -0.001562117859268882 -0.01683564664420326 0.0120544996647379 
-0.0332658923569591 0.003056527795046158 -0.02146942080543672 0.00444566909613003 -0.003570451256289923 0.01117746972276404 
-0.0136038925852722 0.002242890682541338 -0.001572502703767135 0.005105119975973326 0.0001558864673167677 -0.002217177416633343 
-0.02038206732910283 0.02505154279249226 0.001979910717561315 -0.008506981741399765 0.01016634087884418 -0.007906584476123709 
-0.01400901228050408 -0.01027384161573616 0.01372905497663104 -0.01261680347025682 0.0005964537383659675 -0.00240398945780401 
-0.02886285222084816 0.01127097177196356 -0.002956064366067272 -0.009423971971865959 -0.01562876166811619 0.01510278745511206 
0.003875495832389693 0.0006766074128677759 -0.0009758139563966803 -0.000113798981568848 -0.004747809041378447 -0.01093802214951685 
-0.01408481802306555 -8.667104374887513e-05 0.009210099749733041 -0.00101970424395803 -0.006618556082170636 0.003129496677763607 
-0.004844888145782053 0.01011280721415633 0.007225948631468997 -0.005017983177174375 -0.01300649369284933 -0.008738247081946694 
-0.005333674838553437 -0.0001768728340018614 -0.01095901970784752 0.002985227447452926 -0.007789024522078974 0.005248310041764702 
-0.008581035511687493 -0.009647171083615921 -0.0006124649386483675 -0.008613172242823012 -0.01698780329105178 0.01410980880892072 
-0.02590876959156246 -0.0179525449488421 0.003794714887777194 0.001661531280994921 -0.002366686686252381 0.01550054009355743 
-0.01509971002222202 -0.004337749756158366 0.01101399693074467 -0.01540808367349906 -0.002520501298085206 0.003554483412669808 
-0.01698747883319775 0.01404953436985962 0.00222569689201577 -0.0133346798274616 -0.004617677368933777 0.002933443060643808 
-0.01059775765304016 0.008935076044491853 -0.0188585361888889 0.01602173448664537 0.00032357839762498 -0.005180707181500701 
-0.004473481967117536 0.004580034837592562 -0.0196779218918082 -0.006482494746795064 0.02050068062629075 -0.02215395532336464 
-0.003684773390800073 0.007608094891706199 0.00463680669132879 -0.009585874376079731 -0.03003211393447288 -0.0007349941422730882 
-0.03535562999816664 0.01283203065658058 0.01587467739832417 -0.01711071173252266 -0.01129687458642967 0.01217191411242684 
-0.02427589610563772 -0.001604718730876841 0.003158694561544854 0.001481310209375444 -0.009663253089816649 0.01415703582459998 
0.002084326053532123 -0.0008453470269795091 -0.02486990339169401 0.007812680284745334 -0.02116317975345025 0.004346862935341671 
-0.00824587598373666 0.03474527112439676 -0.01697801841479399 -0.007386245713817165 -0.009364573620128909 -0.02231423595483113 
-0.01873731614651222 0.0263935806731713 -0.007711825877815302 -0.02224676759970448 -0.002467232408840208 -0.008831736852267808 
-0.01851092153891785 -0.02009705172351385 0.0094972581521287 -0.01526009720681925 -0.006479390657713445 0.01914086805905827 
-0.01563511973411985 -0.01578159930616927 0.002990065531529792 0.001511402744499971 -0.02371426396986962 0.03381147874183083 
0.005091315296476582 -0.006858516668487463 -0.004718196425764536 0.00757004580762026 -0.009029819756234873 -0.006725990671448659 
0.01627577032949882 0.01132130285711815 -0.0169368263975158 0.002991153845699868 0.02365394112655407 -0.04497636164043659 
0.01765114520930805 0.01175312106758864 -0.003377999299685006 -0.01769388295347563 -0.02212678000221784 -0.01183006705348403 
-0.01403181437657405 -0.01313462742605393 0.01054670778551402 -0.009131393856848569 -0.02892107973649035 0.01762783307886627 
-0.001697556078153061 0.001472825611200701 -0.01528350675528518 0.004712040481009535 -0.008294345435625218 -0.0002513174159848413 
-0.006739543081966287 0.02081360333297051 -0.02101150507517713 -0.01425724383466314 -0.02205259543698938 0.009340245418403467 
0.01878660912557755 0.02441435322446221 -0.03580294233558669 -0.03685061162149736 0.008157308477319609 -0.015854852966809 
-0.0216979866339329 0.009097173618349459 -0.005409473885910698 -0.001042648259605522 0.01283512972666648 -0.01688047743225312 
-0.02395312554499787 -0.04575090944178145 0.01501352570506218 0.006960833801936932 -0.02674933173863682 0.03824299054304541 
-0.008731711141217284 -0.01395452338327857 0.01198385294294411 0.005725989073977076 -0.01758240226553505 0.01787863008072087 
-0.02422742038272661 0.0012974014094165 -0.004752829996055761 -0.01129321805068195 -0.002645732866325388 0.01212690773193386 
-0.008732598711553484 0.02221499095262513 -0.03426326684978247 -0.01089579682163971 0.06121990518402754 -0.04779799065896256 
-0.0132928511386122 -0.008271444644651214 0.0169225802739135 -0.01548995364319873 -0.004294024985965717 0.006788122087887904 
-0.01596821369618463 -0.04379138306808208 0.007760900193477187 -0.01337766033074728 -0.02787775927658253 0.03029019089460537 
0.02149507624733608 -0.0136703274104858 -0.0314277431710021 0.01109209287308937 -0.004480478594312744 -0.01825323137497283 
-0.02330166117046418 0.03633292113955967 -0.01448554193466806 -0.03083780789900574 0.003380226753214775 -0.002298110370998184 
-0.02012590467078036 0.01596878243558154 -0.0196859788355445 -0.01982611273221265 0.04104307689667508 -0.01887145042942562 
-0.01995844831017106 0.004182465028760874 -0.008641371595925968 0.008331555740735696 0.0068633030197945 -0.006473862737707244 
-0.005308822738084797 -0.02660657711241199 0.03684150410298661 -0.01136457742587066 -0.02494710817891877 0.007430354658388639 
0.02378984487271781 -0.01774859413596993 -0.01114467519526482 0.02590221218697588 -0.03101182531649504 0.002930708831482256 
0.01343252192724815 0.01737165616194476 -0.02388450962030199 -0.006276447013951077 -0.002770288686650969 -0.007991864267115187 
-0.00326507022773848 0.01270936624566948 -0.04245153493154859 -0.0004457964372780999 0.02477246098618716 0.003376135235514611 
-0.001079147680648384 0.009960197807084207 0.01421115504908938 -0.01520496810721588 -0.02178786380132171 0.00446909740099266 
-0.0048494829620002 -0.04450904966700205 0.00167478358936772 0.007976673305976404 -0.003312344161234226 -0.004223424570610179 
0.0150764432134154 -0.0242430329486121 -0.02427703586368465 -0.009009572870785085 0.05047426416826724 -0.05148694882580723 
-0.00423159971622548 0.01385386754759139 -0.03325811380715872 0.01678772072254141 0.002570578436672895 -0.02943818923268132 
-0.01136691685859481 0.003764215095679016 -0.0002799893927612427 -0.006908573003543049 0.02329284301864947 -0.004800013340638838 
-0.01651878675552747 0.02073049287698428 0.004237335241448524 -0.01160821583697552 -0.01165133705325333 -0.008564278236669883 
-0.008620059719722475 -0.02050578290587418 -0.003296960687933379 0.01256418934846738 -0.02706611484591225 0.02771930698766849 
0.01365927636673096 -0.03160685743251781 -0.01357522993982775 0.03040749850482533 -0.02854612484075171 0.00824987117927972 
-0.01548780587369934 -0.01179266578759024 -0.03273479206063071 0.01418658069822178 -0.01290300025706769 0.03252357517584394 
-0.003887461166739055 0.01923030465922389 -0.002132731530444244 -0.02522811426363648 -0.01608494648963076 0.02192970560541966 
-0.03285939430210415 0.01393552702650777 -0.01309562326477586 -0.002456065300106736 0.03809675044686919 -0.01510604801948489 
-0.002853958748197384 0.01797506409462616 -0.01300893410590016 -0.001417884783193786 0.006750302795486981 -0.03474305399600519 
0.03136341079075456 -0.03096972168354733 -0.02961833927086875 -0.003120205888288389 0.01938700379288601 -0.03978385825082718 
-0.002377132518540121 -0.04217547310113903 0.007558817269505443 -0.01028071549860772 -0.00674090922096754 0.01112352931655533 
0.00143777824933407 -0.004289443711979857 0.01277023705620385 -0.01688824628560285 -0.02103130901062402 0.009177198940810894 
-0.007135371243301412 0.04140933844585905 -0.005670272768082405 -0.01844872834313136 -0.01983114839668606 0.01659844225848423 
-0.00634460762773736 -0.00760749462941017 -0.0312663102405061 0.02090213950568833 -0.008050890103359732 0.0148552226947329 
0.02329779696554389 -0.02956073166698398 0.002680657698871775 -0.000880214856380744 -0.03639387418705112 0.01225257901241557 
-0.01334756254474152 -0.03156475551080946 -0.00375559085433793 0.02849984532808203 -0.02914130919877142 0.03258841861049468 
-0.03042997426778894 0.01939247293878851 0.00363979798462541 -0.008020877826087186 0.003814270461878821 -0.008562542945470751 
-0.0160165544175875 0.02991492469914046 -0.02593605797153495 -0.03049466582913146 0.0326665572562119 -0.02006432901784264 
-0.005067653957099851 0.02436340850683009 -0.01595451476354488 -0.02105560113329656 -0.009841581764646277 -0.002026428072732935 
0.02760756880203247 -0.01574713516933237 -0.02607235369120163 0.01262188707836545 -0.01033914162711049 -0.01441139829057768 
-0.02128308941786639 -0.0299290091569779 0.03235797864692698 -0.03721572663450637 -0.02349323970800138 0.02450488896512722 
-0.007569929283362191 -0.0001251162210857863 -0.002165852540638326 -0.01107847495021641 -0.004217170719424395 0.001917122607391181 
-0.01696403606129622 0.02012913673450995 -0.03687589708862615 -0.01358181449358516 0.03608790535364088 -0.01264632310019123 
-0.01208167148704981 0.008814698326597627 -0.02288605840256372 -0.004743897097854395 0.0005261802807603825 0.01073416277657897 
0.01162705780399273 -0.01896667333738535 -0.003178262692324368 0.0201641141259902 -0.01736535459392416 0.0003123718285191984 
0.006187020744834053 -0.04036515299266632 0.03056580672281078 0.001379726314604776 -0.02138440361869341 0.009818187450804398 
-0.01596165228193766 0.00748617530576991 -0.00739107758110554 -0.001664656812537757 0.0015187685829301 0.001425086662941316 
0.02558945635176144 0.02275291040838127 -0.02328214173552684 -0.02762925523961234 -0.004781015865864948 -0.01947603448578326 
-0.01663933379260682 -0.001645772667754931 -0.02308982624161723 -0.008541679851596146 -0.01861251594907247 0.03000189819412992 
-0.01714355180693647 -0.009846244654111675 -0.01490926259123304 0.02386084338151696 -0.003366830011344453 0.004899112832128768 
-0.005946392857700128 -0.009520670151303224 0.02159933426564957 -0.01408350963894778 -0.01194256836784683 -0.00619834653952013 
0.006511854335266324 0.02512443664912525 -0.009722544848114007 -0.02012712058598466 -0.01852885832508758 -0.01098120658638561 
0.03333844894051543 0.02527828398067676 -0.02144912942574391 -0.01679159842631498 0.0142048111357685 -0.04626046551880708 
-0.03817877399142228 -0.0007839790720112016 -0.02189864300932111 0.005791970820989091 -0.006463700884166501 0.02667897482890204 
-0.0005834626961918689 -0.02970042401515265 -0.01373387432459753 0.02456465566536467 -0.00432205971853832 0.01274748528270287 
-0.02416299416090414 -0.03767692232807827 0.04095285479590204 -0.02134270203381803 -0.01502020084676287 0.01526248081027338 
-0.02694216819493299 0.02152660219819144 0.007093546672205111 -0.01188957404270208 0.00819061618854683 -0.01876949224498005 
0.002408097808760256 0.002314672819682818 -0.01837296751661994 -0.005974025217647183 -0.01184426260236927 -0.004141055806788477 
-0.004040488909528531 0.0002977826787419965 -0.02100983387403528 0.01165739474616484 -0.02319367654491538 0.001987504029188067 
-0.02963416887190094 0.0007183943151881617 -0.01026033951311773 -0.0006560188860328228 -0.01026607730870992 0.02209440612295033 
-0.0315483497678686 0.00101404325594952 0.01177245277632299 -0.01279931945161954 -0.01128435414000775 0.027429930588907 
0.005314071421414809 0.006403991198234756 0.004776886830861687 -0.004993142232430329 -0.01285934499827328 -0.01195896539590388 
-0.02769856148896169 0.02833264385927898 -0.01634147675657812 0.004905117835439852 0.02194170790793484 -0.02438754555679669 
-0.01697002529456593 0.008579474397855757 -0.009280132547055007 0.01083295208937587 0.002949432983321671 -0.009864605459907595 
-0.01104460205418125 -0.02537878438880322 -0.006170711386295743 0.01561195079712908 -0.02669659677539885 0.03047642422121227 
-0.01143727746453209 -0.01138022371020416 0.01458950319500301 -0.03300277795268074 0.003434623802099978 -0.0006035765117269747 
-0.02201482575615041 0.01601996275845477 -0.004373054798404753 -0.0105239524490776 -0.006880490962023549 -0.00813082635255153 
0.01037317467514291 -0.01653670727090577 -0.0002155870227941654 -0.02022037208244586 -0.02312638888942968 0.006661588935615215 
-0.01558267423307003 0.01239867265583192 0.002876113371296579 -0.02195176177684237 -0.01515125424640954 0.0156010384697837 
-0.006164124044446805 -0.007959480473202841 -0.00567619932498732 0.0005840901618830538 -0.01100488864493307 0.01552111488547406 
-0.007827774711836823 0.003063461283047377 0.009705770173601481 -0.006956140151160695 -0.007949823197265218 0.002293409039004175 
-0.01301060741455434 0.004559602087749786 0.00306450519260175 -0.0007349773982022133 -0.004799253832983023 0.002203528093130498 
-0.0228923201432458 0.03242636475822532 -0.0219534701233516 -0.006765098170153057 -0.004467824836122145 -0.01916674438934948 
-0.00339345140627938 0.003724181503897714 0.0002253250800957543 -0.008308699619969113 0.00157904843193627 -0.009622587010883834 
-0.01038032612340782 0.008639583647961338 -0.004159015668448316 0.01748578195060921 -0.01284416419438621 -0.006557175126542888 
-0.009826486562892804 -0.00641999463534546 0.01416906495807408 -0.01622786081119473 -0.004702360124564432 0.002968951609123471 
-0.03747301450462519 0.01898884832652863 -0.004515277587749313 -0.01864939378255078 -0.003039316010396999 0.01897173789024052 
0.0118587822004124 0.01466389370804974 -0.004565825102698494 -0.00823231370093888 -0.007423498231154537 -0.01595269284885913 
0.01330930932989853 0.003404122875057601 0.0003165580112789496 0.001197574630824305 0.001032232489695644 -0.01958561023280713 
-0.00193610433667946 -0.0009451148343302766 -0.009399655375592003 0.002878951701003759 0.007641634741507474 -0.007702245320024565 
-0.002478754640705115 0.004379873531609023 -0.02503089918000675 0.02470703319866196 -0.01219874169709419 -0.001923075065476477 
-0.0006875514215132041 -0.006091716885752958 -0.001651913695046901 -0.01521967205042432 -0.0181471173286241 0.01351114749686089 
-0.0157558751385103 -0.01276403977851759 -0.01463055179754505 0.003860726740768841 -0.01684848353766162 0.01897117296202889 
-0.01113751520590329 0.005797971538636482 -0.007986186639925457 -0.001095872095243106 0.002247173563033437 0.001130187927650595 
0.007558137435816466 -7.444069330679311e-05 0.004255389320034711 -0.01125985837334364 0.002624836719474861 -0.01948010337385208 
-0.007915841521860598 0.005637794211154051 -0.01616207231350947 0.01653230415747985 -0.001952424877968649 -0.006868381021424833 
-0.02729847504698317 0.02594917153296593 -0.03224875358038832 -0.009618223016882971 0.01820481136048867 -0.01309338356579708 
0.01965236692572791 0.006108324085744117 -0.01045912576356983 -0.001450788645234947 -0.01310204202517036 -0.01947941836940043 
-0.001452154113893372 0.01872648792099578 -0.005918344020872233 0.007906702989450452 -0.005342936853841167 -0.009448197217381885 
-0.01619831920019168 -0.007485816261276905 0.00452868562571656 -0.004081930424911296 0.005872525392093696 0.01464669841521606 
-0.008653963848021622 -0.005665645288952656 -0.02119105944750197 0.01446580747431737 -0.007217158446083653 0.005095043484430538 
0.01508852454217637 0.01649889777819175 -0.01853174352118403 -0.02635929890459334 -0.01934512551900338 -0.01116706695043977 
0.001296313398542367 0.0401845990508603 -0.01459196951783495 -0.0200081142401572 -0.02727783367185744 -0.01308251097439504 
-0.01045944812785583 0.01571704649262524 -0.01253586631767307 -2.5975835314378e-05 -0.009219559647871576 0.0002389245489826638 
-0.01573493864139769 -0.02756142935477395 0.02814516875648014 -0.01609631880716672 -0.009602545516380009 0.01203575003051847 
0.01101947296575855 -0.008911748871923477 -0.006009716977418941 -0.008885945793635825 -0.01415779347575629 0.002323594288631797 
-0.01593229682494118 -0.008784770041382377 -0.02080146936403537 -0.000691246336672839 -0.01933264654703154 0.01424225278302216 
-0.01005041425975402 0.03121426323631183 0.007499151011029346 -0.008023022614837418 -0.01549851917636639 -0.0171706111902929 
-0.001569021044373701 -0.01077068413874262 0.01006838386292994 0.004989053910774476 -0.01050410159877464 -0.001096524516835722 
-0.02809116247148355 0.009193399584188603 0.001935570096446309 0.008401405819967416 0.002428516225778245 0.002383202271031233 
-0.02328095903848255 0.007256849180040053 -0.02046362795385526 -0.01867534160159626 -0.006000212433378585 0.02785599633173036 
-0.02493119211896365 0.008988702272515284 -0.02712208333553771 -0.0244507927021298 0.01782883318560715 0.01624924106928632 
0.01766258823491287 0.01035318181477485 -0.006413799000706857 -0.01185345115190298 -0.02188843111261364 -0.02044299512919658 
-0.002533362227216142 -0.01549433617403079 -0.002205600743899122 -0.005147565461008601 0.007588036505817183 -0.01004379757624409 
0.01701370056753893 -0.01559900712360255 -0.01054998497238565 -0.001983481780983576 -0.0009291577155942985 -0.008664778575406869 
0.002653103168068465 -0.007504748567781315 0.0005554418002027974 -0.01197332151107713 -0.01341629883015906 0.006039918325252324 
-0.01355846402968825 0.004911952849584789 -0.04366705444424195 -0.01038699911778857 -4.81745746291227e-05 0.005302425334903919 
-0.01936226741059169 -0.003266208809906871 -0.001950554325172508 -0.01782751657308862 -0.0237403125181238 0.04015611538966847 
0.005925359239635043 -0.01482934273755633 0.01593134747114409 -0.03098193890360157 -0.02341609673585781 0.008593111348905943 
0.004518604218265229 -0.008261568387034679 -0.01696197511694422 0.02521013987739466 -0.01538590016227932 -0.009755247496743074 
-0.02748250152954876 0.0102983037708495 -0.03333958109046316 0.03909950580252532 0.005373543273533368 -0.01451344709557709 
-0.01674281785677289 6.856785570606447e-05 -0.009454781554438669 -0.001329068025722822 0.04515309038513276 -0.02461091695840799 
-0.00227018750381697 1.236740722297202e-05 -0.003133764094491726 -0.01693942410455422 0.00246241032517009 -0.008086868572876268 
0.001489201146294773 -0.03810141666521984 0.03836967691689256 -0.03488207873594558 -0.01182002722379362 0.001996413188144907 
0.004684069181960546 0.003016644175682489 -0.01002785921202718 -0.009983871135116179 0.0003068476180644857 -0.02246417948898065 
-0.02784745668178126 -0.001344144994696632 -0.04874397420141424 0.05067706302594005 -0.002354065867654113 0.01140385685636409 
0.01149960098051234 0.02301315845497606 -0.02761387228177174 -0.01374569486055712 -0.01799943871823512 0.01330427836163931 
-0.02429809440258178 -0.03361181984803282 0.005688730460331107 -0.007870544864045226 -0.02238110239313974 0.05483998948074457 
-0.02104145518448107 -0.05179159235506957 0.008661372086892419 -0.003259534395030279 -0.01801676133549594 0.02210292060057075 
-0.00300255457278331 0.04712165434029211 -0.03411886679575588 0.008784894750750056 -0.01315653340837038 -0.02031662843328831 
-0.01507507633738238 0.0224662055140886 -0.02924529805195655 0.005986462713589922 0.001279994319416959 -0.02855650102650245 
-0.004809746584932358 -0.02737452720896089 0.01234091221547782 -0.008233456359063496 0.009715221590471225 -0.002783487847406024 
0.03316343853280424 -0.004787102783925043 -0.01122295459911263 -0.006018985748208086 -0.009398428596297541 -0.02545872470722792 
0.000189625420890434 -0.009913133530862662 0.03615510248456258 -0.02854630025997855 -0.01220921998681189 -0.01007408765462133 
-0.005122200494043776 0.00345000415930993 -0.005371901752099626 -0.00785852696146633 -0.01197472840366336 -0.003725348986146975 
-0.02229010407889558 0.02876036057015543 -0.03161410632550935 0.01204878109127976 0.004787317737440125 -0.00148211107305482 
0.01223479652670495 -0.004382578914611327 -0.007734410551637727 -0.01095242660051563 -0.001808363673220538 0.01147709351943015 
-0.01974499918343387 -0.01429664609572778 -0.004882792732003319 -0.003604217218943784 0.02225297388911548 -0.004511914960632604 
-0.01686526932150146 0.02493535552271111 -0.02031000602864241 0.007823033061030276 0.001231912808483585 -0.04736767464594582 
0.0123247810564807 0.02287894440922383 -0.0349436236200509 0.01799168176033104 -0.02194130857236041 -0.01012748740375098 
-0.03355094336207213 -0.0454333070672816 0.02290629076203321 -0.02516165281374202 -0.02423791646115756 0.04627582858277094 
-0.02228277401490387 -0.02535873859290096 0.0005069392402466777 -0.007746570824491253 -0.01718189149505194 0.05153294729975681 
0.02983195797371089 -0.001941103369861083 -0.007518930214901297 0.0002441855004404345 -0.001144849518608878 -0.005280136484538425 
-0.02313422799396635 0.02160809681644303 -0.03472504830937589 0.01280254047148396 0.008878228623170208 -0.002296324694698063 
-0.005551101719788272 0.005070426670329665 -0.004890699729572029 -0.003764461274579224 -0.002254130727246655 -0.005793851832623731 
-0.001777405610272853 -0.008348218380590366 0.03195479396002972 -0.02788884605041779 -0.02674477058455479 0.0007941670428568346 
0.03159041088434993 -0.008949846973840917 -0.007140487452936408 -0.009484536932560537 -0.009646365146388943 -0.02720243299657364 
-0.0287011808288814 0.003359471403065929 -0.02676127773650729 0.00528092904700464 0.04027168026698606 -0.0130660696830165 
-0.01116905201829678 0.009786230972871259 -0.01640062682121414 0.02668108442163472 0.0003158260980512456 -0.02415468525324238 
0.01638866364705674 -0.01432649160679351 -0.020689804296475 0.02248030490845921 -0.01266612379014425 -0.01909087187284068 
-0.008666259439439109 -0.01222664138233152 0.0286251227972169 -0.02859297636803064 -0.01365637083704785 0.01134354750363352 
-0.03432291828688776 0.007207966869183555 -0.01503018313454246 -0.02553696878079773 -0.01896693237291365 0.05422529259406569 
-0.03434695516819283 0.03637427621544585 -0.01679059610681097 -0.01128440245914806 -0.01571219641287591 0.01859993208410967 
-0.0192540149367817 0.01258828917602117 -0.02781735704973412 0.01134635129340962 -0.01337783647112946 0.01189610123548048 
-0.000409903861628922 -0.003346826199034592 -0.008100634760928328 0.0005639390834132891 0.002720611977633371 -0.01615650166053475 
0.01571050222359935 -0.0384218843522356 0.04663451493982418 -0.04274558159467208 -0.008694922589649264 -0.01236144734082318 
0.01315124379905124 -0.01899141066673288 0.00631561568897498 -0.007217384087230227 -0.002897352080221743 -0.0152121855296201 
-0.01664107674935307 0.02629018424311475 -0.03090738104641639 -0.02817195455807876 -0.004004044112118158 0.02277339110955185 
-0.02512549314834199 0.01066609923030072 -0.0174428917827182 -0.01267831006930522 -0.0129975992359955 0.02731087604042598 
-0.01967834811238656 0.0107181262108455 -0.01863928045329119 0.01599842468634808 0.01568916809906782 -0.008980360110778181 
-0.0007303577193910789 -0.004799574327821712 -0.002261269383751946 0.01053849382876293 -0.01728970110291451 0.001461006419214024 
0.002324134534560175 0.03557405616316017 0.002482843763003377 -0.007922783285631266 -0.02223276056623212 -0.02598023792035025 
-0.003366007519036154 -0.0002290912624030658 -0.02523109414098462 -0.01006129446661333 0.0422648133230776 -0.02762025609957305 
-0.001317204968986398 -0.01286297912879651 0.002622016308612408 -0.006622403851940813 -0.01495029363149343 0.004709429542850399 
0.005904376008610253 -0.03019998757474845 0.003418763535041869 0.0001331384483282015 -0.002378050404698089 -0.002793277601362964 
-0.0128879285239345 -0.02036616263069601 0.01602754687234428 -0.01710108717799031 -0.000437307338854131 -0.005418912571286706 
0.008279147317982505 -0.0004781818333932394 0.002043216750000906 -0.02152378334206038 -0.004268960778611089 -0.01056648686679765 
0.01434045767003438 0.002928893816754591 -0.01569646803125241 -0.01643955002838672 -0.0255611848235336 -0.0008355220306985088 
-0.01706957775768401 -0.01464804314268645 -0.02084781993057942 0.0175039346239772 -0.009986728329005188 0.0103928708095777 
-0.02322912421573679 -0.00798757935173732 -0.00818693931331181 0.01157020899209624 0.02145189464594698 -0.0001998924076974009 
0.01211494661393083 0.01186783043211884 0.001889226845938575 0.003425515524248841 -0.006908526981701448 -0.01852574965811176 
0.01912581305808963 -0.005369614999960022 0.004911376627124926 -0.005486246406003369 -0.01801343796221999 -0.009411021837657862 
-0.06392676966724105 -0.000667651810959157 -0.007164574756195655 -0.01092313749584364 -0.005162294389449113 0.04293433882628969 
-0.00360778328638133 -0.0002481415048186769 -0.001120005590714882 0.009004277314572635 -0.005939446440314771 -0.01351626233968273 
-0.009709329309007487 -0.01376622336443625 -0.00761790604787914 0.002688084007186839 0.001146449785412842 0.005817799288461027 
-0.01821934774216061 0.01308489061253368 -0.007709775216877572 -0.004861652114244767 -0.008822817987630439 0.003677070752472461 
-0.0009907281111588525 0.04848246569923743 -0.02005528656702652 -0.02432887032057508 -0.03350432632433482 -0.01543616529829686 
0.007024914249413167 0.0009234364925966032 0.0066496384892646 -0.02756879766789018 -0.01054520492660824 -0.0105258529916563 
-0.01113699273851612 0.007804218076163296 -0.02341411706247751 0.03156063314195644 -0.01006515784791545 -0.008027876323598238 
-0.0002180291829934458 -0.004486505905632833 0.003550075231919129 -0.003529892618907757 -0.00568646449688663 0.003161232786419688 
0.003289047331014728 0.007199567829294299 -0.003274678728367909 0.005288154485464088 0.0007540333434235836 -0.01012605876625776 
0.006904659882407855 0.01857695301592479 -0.00478249797688472 -0.002901266479966212 -0.01452404113259598 -0.01162895740721382 
-0.007168204797281916 0.02989068065572836 -0.03220608856210075 -0.007705250046696681 0.0121064506225487 -0.02001646742095686 
-0.00135573368769891 0.002566525819406593 -0.0144964421927195 0.01868169058346366 -0.001321331159922279 -0.0145260730965062 
-0.008605729682659852 -0.01096148245999869 -0.007936280985269179 -0.00411503069330253 -0.007563272653865361 0.004267530051071918 
-0.01772700889425138 -0.00632324751041367 -0.003740135324816952 0.001781537786583103 0.0009946750524661586 0.008325610934128687 
-0.0294962824449773 0.02402003527565798 -0.01665195593559206 -0.01416828640831414 -0.01505646355223036 0.02072546654838917 
0.02269287573859156 0.003581391567583686 -0.008201427147485885 -0.01414807118224711 -0.01548708655677327 -0.02654592489421479 
-0.0005798525245919284 0.002319354872714246 0.007738844853343654 0.009743911648761426 -0.008807538704254877 -0.01166515096313745 
-0.0170349281106241 -0.01265678049357866 -0.01201890530890522 0.01558008542797369 0.001995837298769515 0.003218173003279209 
-0.005795481110575725 0.000224557968289717 -0.0119607534408245 0.008553615108960026 -0.01487871916333182 0.01065602198696293 
-0.0003072734181611938 -0.003610992199163841 -0.01164166797507101 -0.0165601838917173 -0.01798545772558467 0.02088939510354412 
0.001136364251891691 0.001461975420767458 -0.01874064611431256 -0.01144635822105606 -0.01365998169341707 0.02259196890573384 
-0.006451741261680301 -0.009626263857714808 -0.01387508989333943 0.01209257700434313 0.002559043932226251 -0.002091383855181004 
-0.01378554771041018 0.0030763477451973 -0.01999675732362175 0.001601597895790979 0.03155925083206192 -0.02281584330190987 
-0.005353974387496214 0.003277287775488399 -0.0053707198834473 0.001268854106999782 -0.0009635759521091035 -0.002129978072625312 
-0.03700600033445044 0.04052184510377898 -0.02705211393881059 -0.01574226288771868 0.01240377773211169 -0.006329692387425733 
0.02786565779570254 -0.004101730531930505 -0.0120118144128314 -0.00906860176476699 -0.01462452909568698 -0.01061013328679295 
0.009035730655121981 0.0107483613080413 -0.01707221918607869 0.02488291346992371 -0.01381338529611142 -0.02144090014594757 
-0.02513112138392943 -0.0001359162286342537 -0.0004595725798945202 0.02237185064394252 -0.01020946775129426 -0.003462171237697095 
-0.001014603743433854 0.006924808600757762 -0.01182542864752043 -0.004415179583841287 -0.02067406617100861 0.007635871542849129 
0.02872604592704619 -0.002531534312920372 -0.02016984689485019 -0.04163807608442856 -0.01874678419688121 0.008175342330540345 
-0.003588669575170691 0.04421192662139847 -0.01537340352777997 -0.03021535450702019 -0.01758875794277302 -0.01032552231505204 
-0.01724102964863526 0.01847846315421937 -0.02377127526083647 0.006601623137899998 -0.01310131904689835 0.002450043426862399 
-0.02794768561738059 -0.0005806051481962431 0.0001252264031510058 0.004581430292050709 0.01225609823492834 -0.01265899387703743 
0.0207072089926881 -0.0005324740707152146 -0.003735313462690049 -0.004757448943949708 -0.006164883635691894 -0.01047271900425894 
-0.02984683407533851 -0.0135648350265554 -0.02221035810863098 -0.0001151971937101581 -0.01659758750885568 0.03854985904577054 
-0.007838990402679611 0.02088752327250101 -0.0009336047071833201 -0.01773154912192018 -0.01900350822668645 0.001172339310154289 
0.008483816408551838 0.00685641366658805 -0.00367900798184559 0.00704746391077554 -0.0140193662650817 -0.0171874298880464 
-0.01397628304181457 -0.0143502753044401 -0.01493560492735588 0.04088411245389736 0.01317422866806371 -0.01620954941722228 
0.01415910753968246 -0.001805348762680913 -0.02019403232466272 -0.006185708954377751 -0.0126201066103664 -0.005290556315946522 
0.01624932854997034 0.003894747953245777 -0.0104874932358003 -0.01716815261686963 -0.005137136216059848 -0.006129508919728538 
0.007608610056228464 -0.0207014168289772 -0.00557203072980692 -0.01994441778756034 0.009825668017949866 -0.001508468521448098 
-0.01274319538234673 0.01018600587391334 -0.01612451657594628 -0.001447179934408291 -0.0058027643250013 0.003103579104206937 
-0.04007823693566397 0.01038032329913176 0.01180416124896659 4.978488150153752e-05 -0.01701835378867247 0.005359645006279974 
-0.04032614999005403 0.0016019772785094 -0.01076338036455522 0.01424936096850118 -0.01888478969123419 0.02741209324723402 
-0.007765800942834708 -0.004135271118309651 -0.03778574773971972 -0.01958241442807381 0.02492118364078166 0.005991374639460759 
-0.02641063920890429 -0.00235085317990807 -0.002553220380705897 -0.01838337983680731 0.01480395783904002 0.02229157644844174 
-0.003410592199930794 -0.009335331191210374 0.01238042433063296 -0.008184579636853848 -0.009916412953794123 0.01038230315679578 
-0.01480013492797651 -0.006506747209690709 -0.01753006405999886 0.02467275729943484 -0.02279047964810634 -0.01238427717478751 
-0.0236608323372064 -0.02064698085975189 -0.03745828783279564 0.05367070226232083 -0.02535626119264449 0.008172833730286926 
0.04008838361164978 -0.01056719765698081 -0.001037112595589105 -0.01353484037089086 -0.02218338149589087 -0.02022923576986589 
0.007970865828464081 -0.01513186789437965 0.002395938285808787 -0.03184612314848108 -0.01687247971339645 0.01152803103927159 
-0.01038896457053834 0.01271988493223294 0.006973106880540771 -0.03497917215394464 0.00673764581088908 -0.00294638921831718 
0.00792806637556679 -0.0007530432490414012 -0.003465163968814637 -0.009633534986783257 0.0006765170917760167 -0.009416367110857565 
-0.0257443882657722 0.01813622503568103 -0.01812790697628687 0.01256737925689506 -0.01028196651509714 -0.00503111117442731 
-0.001645860672646973 0.008023830633612221 -0.005649789044344941 -0.009649597981528689 0.01562124791964599 -0.006344252511663555 
0.01071393787644494 -0.01556811361249754 -0.001364120016697728 -0.007563339771086744 -0.00953828325197229 0.01284347461862777 
-0.01543928625427868 -0.0212652468630025 -0.00199375045003803 -0.003380273795819392 -0.02115463591327178 0.03018384951457296 
0.01350868605495945 -0.02773606087075165 -0.01847375116853991 0.02122620336450543 -0.01164333352911658 -0.004666333274913352 
-0.01521426018124805 -0.02292982246365229 -0.007072299986242412 0.005838851492227248 -0.01443636721843573 0.003527514946721184 
0.002795478751283894 0.005084803296779975 0.009114478812301275 -0.002791661408049078 -0.01845988224666266 -0.00841125042771473 
0.002170814737222123 0.006996820574874454 -0.009330403566501118 -0.01466324818581876 0.01479683749325188 -0.01805056448401484 
-0.03568436800828595 -0.02039548465664496 0.02539332269455408 -0.04088735405627276 0.02269103738718075 0.004634088920520226 
-0.001918938679941264 -0.001238751971681935 -0.03247647868517539 0.005374685863800354 0.01210371338466632 -0.01333360129944639 
-0.0334441368448529 0.04215662367992932 0.009917623840302823 -0.004175671055954129 -0.02518550211699897 -0.006170026936119602 
0.02243796217723639 0.0211267360639003 -0.02090134523846899 -0.01056706458887682 -0.02233619267254977 -0.004534037719898754 
0.008624807027577609 -0.003870352177144061 -0.001172441932244694 -0.01626943141470924 -0.0113582701009281 -6.420784233822966e-05 
-0.02012238966339096 -0.01569995280769551 -0.02714013901586824 0.02910311666026202 -0.01887334872788561 0.009984524770077292 
0.0122116655278814 -0.02439229922647751 -0.03513998169636099 0.03042976623041668 -0.02253511064033251 -0.00042169953510923 
-0.03909012805172102 -0.009104998415601055 0.0136671060500222 -0.0156937029641036 -0.008952777500544346 0.03042340423874879 
0.02551123040372845 -0.01044536676841324 -0.00980964101506869 -0.008336199234851399 -0.009061958721972267 0.007557055812139981 
-0.00292330476055853 0.02378457333559955 -0.01439231509241721 -0.004973101172254642 -0.01899159257692645 0.01102894998306297 
-0.03039167852944922 0.04499781316150485 0.004801128021491713 -0.001534028430637025 -0.03300956166963388 -0.008648460962938333 
-0.0005066376502093716 -0.009473063608850191 -0.009398744161531875 0.003801382500579978 0.01132524425690192 -0.01613472392000309 
-0.04100626399330754 -0.0173586731763805 0.03170263228882055 -0.04911744769773081 0.02243461105592722 0.006177149376346074 
0.03761859101999476 -0.01220617669855006 -0.000304330448982319 -0.01899922167691827 0.0158601584030779 -0.04387887999304942 
0.03439134073809491 -0.006948474281194689 0.003290264582550759 -0.01875256720496803 -0.02023875622985265 -0.02368246453889154 
-0.01575710050987739 -0.02509036209619126 -0.04410462644558919 0.05678481385561052 -0.02130108817161425 0.007493622537360027 
-0.02002839963243716 -0.006765694864267624 -0.02929118304655714 0.03650225565768572 -0.01517033083326985 -0.009593644033483737 
-0.003989004632776114 0.0004229609261652617 0.007074512121908675 -0.01358317006670269 -0.004801360856561705 0.005439216477812934 
-0.02981942913200477 0.01931991818817122 -0.005042799107852063 -0.02355843637530343 -0.01720662125195953 0.03881845024897689 
-0.006691106243165103 0.005095548269607616 -0.004010305706310716 -0.01693385922519082 0.02944408948697992 -0.008011973718060788 
-0.006820022837599707 -0.001717981855330078 -0.03223084004311823 0.02826597602470964 -0.00708396089410958 0.004686177548768877 
0.008915131762519861 0.003189204196660394 -0.001125607844411425 -0.02061511068447459 0.006976644062642634 -0.02075841247438187 
-0.01328280169127823 0.007055949975363175 0.01451047673965419 -0.03975245899601434 -0.002526862561043335 -0.003047933217258267 
0.003921813527946029 -0.01945461634296299 0.01863934390773317 -0.01959312917919794 -0.01584159118558333 0.004680075155130347 
0.02953441933988716 -0.005488244290367637 -0.02003476082942078 -0.02150258113955329 -0.0121792152120645 -0.001126685222025017 
0.005163052256016159 0.02750005116337584 -0.01730617903882676 -0.01618285499238119 -0.02080116173666337 -0.001788356420200639 
-0.02632196377403116 -0.02655435886329557 -0.008975348585870922 0.0489850527398321 0.006509219541313214 -0.0113315697200516 
0.0302895089382011 -0.008183942379046211 -0.006681266061692108 0.01294384388051301 -0.01744517906278087 -0.02382969007288665 
-0.01524739378194101 0.008158608538737032 0.002388689690079229 -0.0130254400568047 -0.005541801797369544 -0.01047398621092629 
-0.004600907712695779 0.003250241734796957 -0.03078573268224862 -0.01740422836184503 0.03896383886231367 -0.001042135403859103 
-0.01335261092399846 0.01796389282377188 0.01482724147282426 -0.02314142481015637 -0.006136144765380606 -0.008788256639489558 
0.00515570455264437 -0.005895359548478331 -0.0002821510019984772 -0.006358679302454547 -0.005947363956640367 -0.00789981336172252 
-0.02116392344259654 0.004140827142178465 -0.01205829079711487 -0.002930492939895406 -0.02038643241444145 0.01967170622990652 
-0.01902057565396112 0.002629811982629258 -0.004089358433443546 -0.01759816060517286 -0.004112032122623401 0.02047471980062149 
0.02690118243652659 -0.005466835987673149 -0.01650988858526459 -0.02972526873060751 -0.02934060155435385 0.01735568377619412 
0.0005109888626296249 0.0004792529587841765 -0.01353612349085971 0.0004225911259541119 -0.0126130203526329 -0.005382673405116844 
-0.02149988440870453 -0.008530068103032508 -0.001429211096564884 0.03103359710188833 -0.009100977439923909 -0.0112197118432258 
-0.009485810722947635 0.0129346765592432 -0.01826141264093827 0.03327227980321665 -0.01333783463858345 -0.008638204338567721 
0.02833322090738059 -0.01082178397357233 -0.01635579450151985 -0.01157660838678733 -0.008967787013522983 -0.01299219464552466 
-0.03712141794873852 0.0143740247418603 -0.01459138861385133 -0.01138806108386179 -0.03881540110376357 0.04996357005675915 
0.01271019828300936 0.002067720668016136 0.01123128475544967 -0.005932942696098999 -0.01230628262737837 -0.01509321572817269 
-0.004395965138197738 -0.002146062200128751 -0.005197957448201812 -0.005160272429978262 -0.004514083180215911 -0.0129145326257968 
-0.00125256957061516 -0.003750693252754028 -0.02345979089823935 0.01306976354065426 -0.004840975539921787 -0.003059253053656695 
-0.003584316035085763 0.04090246105277332 -0.0200794749038853 -0.0192805474810444 -0.01113392126422371 -0.01425175642501085 
0.02200199530829188 -0.01060177090002402 -0.006068356302540222 -0.01254024341359104 -0.02885743528707714 0.002875566300285451 
-0.01451150988433749 0.006985099257859053 -0.01197394012945819 0.008450498275165525 -0.006805746288399181 -0.001571514410790892 
-0.02746822670725316 -0.01495101291769023 0.001593118306006135 0.009534624448749848 -0.002736635267441811 0.01337943861323283 
0.006144107274851878 -0.001781870817176244 -0.008076697014390309 0.01272081091618645 -0.005825090982887046 -0.008121053458892262 
-0.0008717530987644017 0.02713262541214934 -0.009245718674258628 -0.01065532986021219 -0.01894457585561868 -0.009614246857413205 
-0.007122727466986425 0.04514315372049426 -0.02965542515393716 -0.01434415063405181 0.01127274121547258 -0.01473583208910083 
-0.01436319375414267 -0.005193429099426446 -0.01059491442708823 0.01447796090082338 0.006599110424192283 0.00120599908737375 
-0.02417466090789756 -0.001164890559524839 -0.006834091830349529 -0.00265218614458723 0.03147624152654661 -0.01392870549760716 
-0.003268861943080983 -0.00967181351927558 -0.01058385640793282 0.01175072153797216 -0.005032221848371575 -0.000222420528416526 
-0.03203744054242925 0.004348155318559687 -0.01978768303010672 -0.01457024457708256 -0.01890981291656417 0.04587484947336257 
-0.003840189792420508 0.03014881458470032 -0.02072601005097298 -0.02121115936273678 -0.01880854611007874 -0.01087049731502418 
-0.0113114534552708 -0.003817775197150551 0.0135655256075735 -0.007931896846341994 0.005895221379068054 -0.002707069415212748 
-0.04701954902737414 -0.02016094414106692 -0.005428606081938294 0.01007607491847141 0.007798276288200138 0.02402506255512345 
-0.01285237573531432 4.748644904556259e-05 -0.009660764058604568 -0.001122628140830797 -0.0007407017646994126 0.002950912043236154 
0.03496120176760824 -0.004062625954513643 -0.00151975976607697 -0.02840547086607073 -0.01915488537784363 -0.00393233609994065 
-0.01342165521617911 0.004102484074588588 -0.01613670718550535 -0.00430483310133034 -0.01287226471756616 0.02460651615199265 
-0.01039691064976808 0.005431522033732897 -0.005564759377061556 0.007994784860407408 -0.008456484399830218 -0.001936284670046672 
0.01730956854072755 -0.01313303618269172 -0.02306691231193248 0.01990736547250874 -0.002495234514492588 -0.01882615687983735 
0.01580070063967453 0.0004442037966000961 -0.005771393132319151 -5.936307497053605e-05 -0.01115407390336579 -0.0007687301654069635 
0.01263253807005305 0.003547271508660444 -0.02115311900434061 -0.01500096566689771 0.005816230707320826 -0.008149543653017769 
0.01345866576272026 -0.002134781511835966 -0.01354738622797376 -0.02061583693819991 -0.01520267196445754 -0.002093840927373046 
4.560731691008677e-05 0.01155697519340811 -0.006284318619362685 0.005633204746586674 -0.01165263271165331 -0.007406346338224879 
-0.04041573345238209 -0.01862932424455916 0.001189216795719791 0.03323291567980689 -0.004188025830626375 0.009290953695962233 
-0.003903059213521636 -0.00481562021700244 -0.01339261837352474 0.005365146560278999 -0.01117497807976783 -0.001771589781695953 
0.03213311774598886 -0.00782579288571183 -0.01657719769253169 -0.03941158195525099 -0.004880018989351678 0.0005832537690724353 
-0.009127276690001646 0.05062293586375172 0.001284533186455917 -0.03375853840012471 -0.02627137358008864 -0.01319679990334266 
-0.00715351581939473 -0.002751894832960794 -0.01773817741439597 0.0178408834065941 -0.02240846382147032 0.01336238663174238 
0.02691125114000331 -0.006396856359580092 -0.02337066175534861 0.01559602445655447 -0.02087794895633445 -0.02856060128410648 
0.006804797609821645 0.01205818535471099 -0.02119351776022554 0.01742762927327717 -0.01596589956999871 0.004849768333134797 
-0.0004092574933264472 -0.000421581424492155 -0.01529729972864184 -0.02237594189414636 -0.004052930736833271 0.0115598185778138 
0.04456655037653579 0.01597510078682468 -0.01961934228302361 -0.03200778282720199 -0.02594119621718198 -0.01271003904927869 
-0.01062950210548123 0.007940207881383179 -0.02195168673067945 0.01769819384816131 -0.00912493955345179 0.00671817617142283 
-0.01952932295824061 -0.02412804488523776 0.006224009689109587 0.0267516251522601 -0.01400411134840185 0.002983398509113104 
-0.0008480455618031558 -0.02382747192918016 -0.02100798007223014 0.02960767848905762 -0.02015447782597339 -0.0059088764427044 
0.03081651545024358 -0.004724731101291566 0.004790555468254471 -0.03236741346091431 -0.01087110039193686 -0.02009452584617738 
-0.002343832898475267 0.008351933121659142 -0.02041367044508696 -0.03387303197673352 0.04182967540675915 -0.02144280557770454 
-0.001910881493830349 0.0138235883230964 -0.02775603602311265 0.01041675473826453 -0.007891055573474524 -0.003259459166178154 
0.001949057061656053 -0.01047917327412368 -0.01981659338801657 0.02449306714352877 -0.01648901948898844 -0.005182767840989719 
-0.02385875063005159 -0.006484118407024113 -0.007403938489670312 0.03562615470032483 -0.01091672519473902 0.01011303544267198 
-0.05576246564191936 0.02557414416795365 -0.01276649612447432 -0.0401158424185641 -0.002508383652307565 0.04906672129162128 
-0.03708588832559096 0.00483378402377178 -0.007147861725238996 -0.02430298684888543 0.005065094517792308 0.03522365824846921 
-0.005935314338828527 0.007757633461069361 -0.03126199081203232 0.02030285691592337 -0.009055983256835622 0.0001475036523100563 
-0.01865181569406479 -0.0188985741891713 -0.01429949438375495 0.02908839696015535 -0.003956823876672641 -0.0003767572698421806 
0.004715347280520425 -0.02156207194219662 0.0005684989976138502 0.003396941835173514 -0.01404145741206398 -0.008562812700245698 
0.0209608288751544 -0.02789131583589999 -0.002240980191320428 -0.01273508775246479 0.0043959471610596 -0.01808259304464773 
0.01946090703581768 -0.012875613247918 0.004562386884254446 -0.04003591506319483 -0.008475400509143034 -0.009286077633945901 
-0.01185312967255608 0.04130359738418549 -0.03357994550697782 0.001943766788078436 -0.01568921127721358 -0.003674926517805141 
-0.008761304966508758 0.01391203639964041 -0.01482553039091422 0.01292603562485031 -0.02246291813376236 -0.01145502704877447 
0.001158969018975238 0.006472797958197678 0.01676487503385285 0.004407902969673168 -0.02202532881841457 -0.003047390745231284 
-0.01316816861343303 -0.00674313635532854 -0.002537206267369715 -0.01469520604721954 0.02119612951559458 0.01513752228920741 
0.01236357473506107 -0.01928242877571922 -0.0155376393056511 -0.01990623157258022 -0.008376641492661331 0.02048211518540077 
-0.03983578715093189 0.02076571080940297 0.01005461791904114 -0.01280265224591558 0.01178825846163063 0.001498295002180694 
-0.02982981117703043 -0.0114492279722899 -0.02926249718252968 0.0432434540328509 -0.001922174813676536 0.007492091536223502 
-0.008960827683841471 -0.01226965993943414 0.01521979370660044 0.002580539205003432 -0.004287665020125135 -0.003308877269571615 
0.02244615544230798 0.001356855112347408 -0.00642002798386347 -0.00697939118677806 -0.009870877843199724 -0.01576638186927016 
0.01010800431786843 -0.009165394145583577 0.0001121668787934918 -0.01735006890258246 0.01357925858807161 -0.01230354903595834 
-0.04890150281398375 0.05180311589749287 -0.006153723086694856 -0.02805601595783483 -0.005777314202993595 -0.007248027448884311 
-0.01092905836632953 0.02436491769599573 -0.02822883500835541 0.008927563346187146 -0.02426242176989296 -0.00115078532236845 
0.008264826570446969 -0.03843920724182718 0.01331043365399173 -0.0009317619622522051 -0.02209703725255414 0.008320107508196201 
0.03520032663343013 -0.02530901240590478 -0.01066957734110953 -0.006575758721923443 -0.02114999395459257 -0.001991881406007813 
0.01190418127130619 -0.02123981228933846 -0.002073408362338828 -0.01369070816065573 0.001325069106709891 -0.002814627872439449 
-0.01483482838170074 -0.0005962349787387896 0.002842729179836338 0.01931418841665153 -0.009351487424399963 -0.001782815458567886 
-0.01962972982281141 -0.0189314846205589 -0.01235717358491553 0.03768250999701506 -0.006897371261082743 0.0002470252264254655 
-0.02226076831113153 0.02172716684897635 0.01521066748847706 -0.008730922749560742 -0.00502899703739155 -0.01160007856844894 
0.0002450111951539571 -0.005782226011158136 -0.006235662917440228 -0.0240792859534927 0.02081700098906662 0.004117662795969821 
-0.000941113313680311 -0.00436000374528279 -0.01464832441561579 -0.009175012467345617 -0.02080033484847923 0.02380045013960067 
0.01174037218940104 -0.01436893608364138 0.003380871778101291 -0.006342190935320696 -0.02175255325414195 0.009498037729460994 
-0.006542408057676073 -0.00068794635083061 -0.02809500600601433 0.01781632899065872 -0.02204744795208594 0.003269172006143056 
-0.04321939930588883 0.043893760046686 -0.006533268053646864 -0.03220141429571051 -0.01533022975644039 -0.005390068088180654 
0.033464575607329 -0.02038689102537348 -0.006795575619387126 -0.02304163276313372 0.006398517949936904 -0.02332164605870565 
0.03286164258708085 -0.0345705328312503 -0.003114628466080887 -0.02671733217403412 0.009472619787022948 -0.01812355800503433 
-0.01804083731505508 -0.01183326151428282 -0.004572573855118214 0.01406512615244985 -0.006309424282583697 -0.001250620562871371 
-0.0294309798141452 -0.01667689560128172 -0.006689929945929583 0.0220464982929789 -0.006998771348187656 0.003140149568065423 
0.006033095118344399 -0.004200584730291974 -0.02948268098292858 0.02131721482980019 -0.009197781588157275 -0.002019518000838075 
-0.009418461399759645 0.01240399143310904 -0.0007158593152810238 -0.01469618264710542 -0.03888501201131892 0.03139605553150382 
-0.02415323501142391 0.009096066726378312 -0.004315950103860608 -0.01487271850893382 0.0326362905339852 0.003327325359439203 
-0.01570372573591253 0.007331978692675664 0.005668586402859914 0.01644146587057033 -0.01360593963851801 0.01106055958418156 
-0.002956386912821051 0.009276202220185036 -0.02644085935769816 0.01142762656213774 -0.02330472414365991 -0.00922993142377105 
-0.007351194815757032 0.01383904658606128 -0.01989742662916942 -0.009662111586061291 -0.0210398427083732 0.008007518023821733 
0.01810871792878724 -0.005939521524083247 -0.007386762905008741 -0.02029630877931345 0.02301447626087879 -0.03028486569070163 
0.04166067050002766 -0.01450324328660579 -0.004593144095720809 -0.03850837401616237 -0.03428179635163944 0.00651328395369436 
-0.009421006813145697 -0.00859063112414242 -0.02193361019358092 0.04175923449320757 -0.01664902826321621 -0.01084437883814633 
-0.00913493861938351 -0.02184975555054314 -0.008806971907284446 0.03678141608152171 -0.01213761645760218 -0.00899018367354909 
-0.00452246040757543 0.005275255419218787 -0.006923178733506079 0.01776187472665914 -0.01219182917567456 0.001111769150493702 
0.03159003003708307 0.002952138629781991 -0.0211021786335475 -0.0330806073312717 -0.008693737048766435 -0.008316404132198691 
-0.0366231972569719 0.007441113401454476 -0.003661384610770202 -0.03151906013122207 0.02756431218374366 0.001541038530982011 
-0.02595654102867718 0.001505880170277616 0.0010498620029262 0.01872817215083735 -0.007027188486869288 0.009543823183595533 
-0.0007059797859550149 0.006380279790702855 -0.02566529342026023 0.02628864306434703 -0.02156891526819749 -0.01960141852991699 
0.001521229631287459 0.003833682270339301 -0.03012966240546638 0.01552719785258331 -0.01217404135812699 0.001673040685621132 
-0.009466189608255961 0.0318086207749726 -0.01306365143283661 -0.03480916712928491 0.0004016621692606834 -0.001252929810434934 
0.05423769977511485 -0.02149364232937427 -0.01622396713932083 -0.03648216087468013 -0.01076408150115887 -0.001513793444517163 
-0.008265679185569395 0.005723207111515807 -0.01153201909015729 0.002209944811162696 -0.006436053506235918 -0.001375656639367213 
-0.02646623481394141 -0.02007533722465253 -0.006312032492302054 0.01936914573249494 0.006404407578800809 0.006874256136531425 
0.02029750633341486 0.01126476315549871 -0.005157841883340509 0.003351483272271444 -0.01552483218956444 -0.01582920234747739 
-0.0002537431219581921 0.003112228073510948 -0.01397859642730942 -0.02073309123215385 -0.02438993258600462 0.009659186723482042 
-0.00219601511285111 -0.008303810703834671 -0.01036600019493046 -0.009125796637207688 -0.02490000954085493 0.01537739846730624 
-0.02035797295792029 0.001446902273071327 0.006335424780832981 -0.02073708993921428 0.008479421922790198 0.01935643973686137 
0.01917099721414717 -0.006389144761842394 -0.02268227905789757 0.02349514400669031 -0.02492584367489806 -0.02520328429710431 
-0.0001124847093003925 0.003929597079215487 -0.02153303717929209 0.02080351477258981 -0.01736589053332884 0.002462014879525995 
-0.007507040642534591 0.0630033021465897 -0.008391740126851443 -0.03225413400015983 -0.02059391386210836 -0.01712394140656297 
0.00397612619521479 0.0006722490701105429 -0.005016552891256828 -0.01783388202509964 -0.02033726223266547 0.009625539632361896 
-0.01917223171008923 -0.000374578286918092 -0.001195760070628769 -0.003321811935734142 -0.006416500678170821 0.007762529899145543 
-0.03062823616076337 -0.02662770595376865 -0.01344303809151007 0.0009820724636496806 0.02535329501484844 -0.004776430919766268 
0.00327533205469361 -0.00722899824686112 -0.003461036235666548 0.002078749240881734 0.01754035443861022 -0.01298515536246563 
-0.009569787310633087 0.01940242580798758 -0.02109163271579727 -0.006721590158423988 -0.005792726320250012 -0.01019860364949333 
0.01430313736999286 0.02251453575625914 -0.01824923151719542 -0.01178278917601725 -0.002940042624154004 -0.01338778424848188 
0.003911907895858973 0.0008278959816206419 -0.006844413578391654 6.753567453049594e-05 -0.0002291591729748664 0.0005557326404296868 
0.0351572641266513 -0.01691210852509489 -0.02432076537749258 0.03453139986227789 -0.0002205258676246839 -0.04130489542292879 
-0.01723670019820056 0.01153064528263927 -0.01682709861441211 0.01859402526032837 -0.005501373976755922 -0.005781507595481068 
-0.0001967695235678316 0.01363468246051299 -0.01644758827390464 -0.02644040534886357 -0.01987333422792701 0.03420586170935856 
-0.01422226432588377 0.0300474297888286 -0.02087540786676213 -0.01189642892703054 -0.0179940788416285 -0.009666724937198775 
0.006523742819500577 7.708221667964763e-05 -0.006090317927344838 -0.004122032653099805 -0.005852931884555889 0.00343359767638218 
-0.001482918884808516 -0.01097728859227278 -0.006380883978879136 -0.01075627966017236 -0.002436542782833606 0.005331386624386085 
-0.02016871383731878 -0.01180681490844893 -0.006022514145780731 0.01291780571280978 -0.004559948173004535 0.009157564498718197 
0.0103357345872438 -0.005091341692205013 -0.004756565101301305 -0.01229394183373246 -0.007992397618241628 0.002462033443162233 
0.01756115898597816 0.006207340046596754 0.0009180981187026634 -0.0295264721835876 -0.02737025403412178 0.01378474117139287 
-0.01082045933734509 0.02516496995342123 -0.002994006640576212 -0.01366864667928688 -0.01102611372064367 -0.001611950862670838 
-0.01702144822808984 0.02088296503733328 -0.01036286857841147 0.005645788355690555 -0.01329449057824752 -0.02854560438377119 
0.007917459378295766 -0.0008721184055439743 -0.006212116801936327 0.008425281163470065 -0.009187807407139812 -0.006117723697963516 
0.01868942599599027 -0.01351948249689018 -0.01402052800127873 -0.01016377135695631 0.007985356602048218 -0.009186790049111842 
0.02408373796757324 0.01080771849994063 -0.009656051090880739 -0.01805648195737706 -0.03685296827450559 -0.01070285685373744 
0.03668263676573124 -0.002798133468117588 0.003731030680184759 -0.02569051331297998 -0.01894491132696538 0.001365681054367529 
-0.007860454501006071 -0.008222954121018367 0.01636888197120452 -0.01902667174264089 0.001833556453941094 -0.009346501949207347 
0.002533136055892984 -0.008548105469756111 -0.02535503573103575 0.01966465378950573 -0.01267699240747086 0.002668880814798592 
0.01170039842875557 0.01703114258379069 0.004029517262129075 -0.03943611546206929 -0.03760827187466457 -0.003869947497424524 
-0.01199330268164686 0.02655922032375558 -0.006621954575107362 -0.008227449691403495 -0.02534895630679625 0.0001382094548373158 
0.01307382062282037 -0.000966637456500661 -0.006812539238427858 -0.0157777981018066 -0.01140776610429253 -0.007303573872659487 
-0.01313917266335564 -0.003004790779786942 -0.01587932348054997 0.02079686791837615 -0.0109503111181997 -0.01240137104787036 
-0.01028667936239381 -0.0007090987816478684 -0.005265168799552638 0.03465305339955818 -0.01529224318054069 -0.0102009660321576 
-0.02527740479745983 -0.008660309835025538 -0.005144247484155502 -0.01156330982232386 0.008540093297725173 0.02203471514571039 
0.02372014582566587 0.02742384203746609 -0.01277047733398124 -0.01675164204586089 -0.02249033175862203 -0.008355300369467612 
-0.001222734811811801 0.001251359478739542 -0.01417680607029187 -0.006380187323111891 -0.003624115911103578 0.0102127524844515 
0.006497621185567828 -0.01460749155550556 0.009304177568741939 -0.001259854034832229 0.0003847527777296985 -0.0102743602316241 
-0.0129353792907123 -0.01015711835270174 -0.009598053051976372 0.02024874434595916 -0.015353179706627 -0.003992606725327585 
0.007100318856855505 -0.01344184582648305 0.001159221828617596 -0.01880594103593438 -0.02920723756547416 0.01110111799859809 
-0.002081066320118194 0.01789858504765868 -0.02513093758871528 -0.01884393298193823 0.006320227744465209 -0.01793720347833494 
0.03335418618057271 -0.001765121914048421 -0.008207893365962442 -0.002521838752970557 -0.01644435842751631 -0.01983107488265724 
0.007435466029166829 -0.02157914769015545 -0.03825503986950347 0.04259569645276706 -0.0106366684393959 -0.01551985847774704 
-0.0009855624702882287 -0.009037996710128688 0.01470807511510477 -0.0001678465139775185 -0.02067656243605648 -0.003940297036281108 
-0.05187859609935471 0.01839270936003402 -0.01874499332551042 -0.02359406592319608 -0.004798391300225314 0.05283042819927375 
-0.01994167959286012 0.01860194310891844 -0.02954011987415984 -0.02654616519744063 0.004285153026814258 0.0238057079384752 
-0.01099098795363664 0.03849703734650245 -0.04530397533037449 0.02785765162000534 -0.01871341597929173 -0.002801304870044634 
0.003713359622561585 -0.01112246007123715 0.010278405001106 0.007461021623191368 -0.01106533661201749 -0.009557464861703373 
0.01023879276780465 -0.02274923950461479 0.01836613513516115 -0.01805663933720244 -0.01271169309445989 0.001389578773153427 
-0.0325539932788682 0.0004143960928883052 -0.01123202912070448 -0.00779380818596258 0.0431389574880786 -0.004038870526822795 
0.01808112151291608 -0.006698645605683729 -0.00892798121990793 -0.03336839101196822 0.0009707308464340455 -0.002118131382603973 
0.01712556335509881 -0.004905481629613798 -0.03283363378807251 0.0137701195332179 -0.01380572183106079 -0.0008905545388501027 
0.01586573338395289 -0.03338627402311485 -0.03497825210898337 0.05179435598988601 -0.01241313860645501 -0.02486667343048286 
-0.01152522077364274 -0.0267641413144554 0.02506463166705201 0.008401130587915764 -0.009889786988805912 -0.01403049681598888 
-0.03034512392206044 0.02221563139149729 -0.0069488176090405 -0.0226073587004418 -0.01223128241345309 0.02913131708931925 
-0.01506426561140876 0.00708806387546057 0.006639084740100352 -0.02694466504597771 -0.018414246623791 0.02250757106223206 
-0.004948257429552716 0.003570333766844431 -0.04214295423767337 0.01160509523357231 -0.01482451193042009 0.02102930258300572 
-0.02164664708196914 0.03320670223625627 -0.001874020983990212 -0.004773764218560207 -0.02028543451683117 -0.005301210121646084 
0.01038842150533911 -0.01638412162589282 0.04600313519623364 -0.01307018736509293 -0.02076834632370052 -0.009975975029073395 
-0.0335563439137888 5.058616537470165e-05 -0.004053999634405055 -0.01139345656255242 0.02932483009501332 0.004561496324137833 
-0.01087639336494863 -0.0006150448639390522 0.005772327563335383 -0.02341984929466179 0.01132521743534994 0.002750141585257523 
-0.01370929893628171 0.0008497925591215935 -0.0321161331704983 0.01488157821121255 -0.004714101859980908 0.01598984470506829 
-0.003548585035356046 -0.00257826269468952 -0.05442253320545924 0.08454379203829633 -0.01781901615826206 -0.03644490524529982 
0.01663652455659481 -0.03261778782411256 -0.009872191146822473 0.01148567698213383 -0.01403163896539869 -0.01455606297862365 
0.03483284905711544 -0.00809835185537917 -0.008601456748026114 -0.03316286908062479 -0.0001763393396298645 -0.00453709479853053 
-0.04465531587200316 -0.0143741869226026 0.001728358733942672 -0.01430684458662744 0.02696706781205252 0.009349417528491477 
0.01716011424454756 -0.009963887715745063 0.02040108993928114 -0.01375627897886091 -0.01598470920158794 -0.005046872344047488 
-0.009965267555248229 0.03764920360069349 -0.02312612544744515 0.005073384145234384 -0.01862441244016865 -0.009703502734563642 
-0.01980980475858972 0.02210926785678338 -0.0384199211948486 0.0174914911174389 -0.00915264859226241 0.004906003811732103 
0.00153363975178796 0.01092107052729001 -0.005109656493544697 -0.02573489056604241 -0.01611636839683171 0.02186262347624155 
0.02284826331393816 -0.009429918649625552 -0.01006332059276532 -0.03238632866703006 -0.009886463044154191 0.01114382985942422 
0.009743193092694375 -0.02708747597328936 -0.006777411010182026 0.024532789668854 -0.01340507419036317 -0.01543201780024712 
-0.003102781068711963 -0.02559036674489033 -0.02922977813125144 0.07511504910871084 -0.01329310293099127 -0.03188398368162419 
-0.03256650862103939 0.00270263196637821 -0.02539581910480585 0.01113192311405761 0.02734433023906827 0.005483628360464125 
0.00876309963195167 -0.01259849849039935 0.009586917537210858 -0.02429568185744641 -0.0041308846191405 0.00534398360834593 
-0.0138582244203475 -0.008378012517710033 -0.01511050107098693 -0.01768973679424414 0.02097295229113432 -0.003870021461527913 
-0.01437904358705875 -0.01362458313837458 0.00264283956420624 0.01835036715135295 -0.01149113098494147 0.007841287484986003 
-0.0154883832917815 0.00309863649932209 -0.01501333379493781 0.02455129824026225 -0.01100882695785774 0.003706328050428876 
-0.008199225397246523 0.01951478036342947 -0.03462408691919223 0.02700341948714676 -0.01712450134730677 0.008420894546139569 
0.002475915219291487 0.02828311386212153 -0.02053836284757032 -0.02173680628321972 -0.005892593077706032 -0.001650545786875796 
-0.03357850310723202 0.0162158648279935 -0.02685951003087148 -0.02258278190499949 0.01873964353382336 0.02615681523586208 
-0.01040733716466783 0.002471419319728064 0.01986555849946993 -0.01308490223414619 -0.01233852449957164 -0.01147782734674889 
0.008133697824094132 -0.03067383768343772 -0.02216924485000444 0.0362881488531652 -0.01176936293936365 -0.01368571383803562 
0.003018850881235849 -0.01126532567552964 -0.0268530560763805 0.02610758819326984 -0.01183757219357903 0.002421673676693445 
0.03223088451086363 -0.01070878925905383 -0.01557094502255218 -0.02766273165700238 0.003789643802723627 -0.02129149814347497 
0.03476771944138787 -0.003259270451814123 -0.002443264607084811 -0.03256362361037923 -0.05042599225913395 0.009665886854691278 
-0.01154223579877613 -0.003651349876632297 -0.01898991379522532 0.02194305547913736 -0.01453593998381171 -0.004210504322085543 
-0.02715198937776054 -0.01203163345487294 -0.001239055139208777 -0.00462217353026542 0.04940102074019002 -0.01714922404019111 
0.006582718793780652 0.003177844833073921 -0.01154317545308177 -0.01175325108437296 -0.01049411691437875 0.01076941008618943 
0.05976680045957328 0.01330303675202772 -0.002943390713459191 -0.02879791590394648 -0.04298754064067498 -0.02226831462203119 
-0.02899590619328835 0.01503526297058935 -0.009990569527741513 -0.02379017042644933 -0.01597059299465348 0.03480366574444843 
-0.01405167624604264 -0.007686180109662983 0.005302864957752794 0.0216428330047727 -0.01893794876634452 -0.004369492008794744 
0.01289702419684007 -0.02863836430962288 -0.02910900745018318 0.0390454688427115 -0.006128874960606437 -0.02132509112057786 
-0.003367478608516009 -0.003000931684862024 -0.01556821428907928 0.006399434337190804 -0.007733294485363407 0.003114284902352901 
-0.005359298609670737 0.04161440388842415 -0.02215156040866268 -0.02218040919785626 -0.009036476578067965 -0.002278911902059668 
0.04126225702220711 -0.0006895150712281596 -0.004091587143968697 -0.03413220720649764 -0.02846058884984866 -0.01448476437254753 
-0.01130250597083343 -0.002398956250183487 -0.01875420054757454 0.01963773711133882 -0.01718988905369041 0.0004009249334944481 
0.01178238135539119 -0.02269828361695259 -0.008516011007827982 -0.000149132783889535 0.004069831255007686 -0.01103862924392663 
-0.002998666995785337 -0.003224677967866233 -0.002258312846153227 -0.01785756368424127 -0.008485866858832194 0.02511002674707614 
-0.01926037352742962 0.02945870493843719 -0.01277637732513963 -0.01675579147299882 -0.02916303267243824 0.007049097953057441 
0.03794308260748408 -0.009932259195820968 0.0005186310395011285 -0.0152243029742234 -0.01349298659934376 -0.02529937572852271 
-0.005531515148831902 0.002370160951022946 -3.403153795625635e-05 0.01783176303521491 -0.01436446587210452 -0.007046789427491171 
-0.01908703562351389 -0.004198645646783371 0.001087291523511279 0.01350123440412504 -0.02101345784728093 -0.004891401749210213 
-0.01078180226759843 0.002437478447426483 -0.009990706043727482 0.002382084219288367 -0.01183892060775207 0.004951560699333887 
0.003675297828736777 0.03426625789776775 -0.01161608270326693 -0.03035740038763542 -0.01928143119602308 0.001879010076231355 
0.01704404834314795 -0.012722633817346 0.0005366397808945377 -0.0150059435105876 -0.007723686502448497 -0.002170226949829765 
-0.01131060885579037 -0.006733523207820119 -0.008189019010291038 0.01731988517415362 -0.0009434506326483745 -0.004164738281524671 
-0.004454092874041094 -0.01274690527949135 -0.01355856729484153 0.001939697505526801 -0.007423206711457323 0.006317075586893571 
0.0002413415600857603 0.001569452183284507 -0.003817508963217634 0.0005168766205929814 -0.004066978098128054 -0.0008802447361044241 
-0.01197289575450133 0.02848209484278259 -0.02083308221154857 -0.005969250538510563 -0.02190134142760856 -0.00656598778427808 
-0.007097124892209959 0.003597937918862907 -0.00240690778944362 -0.001477845039122266 0.01029930447278013 -0.01296060520379917 
0.004617577314031758 0.003983263979548158 -0.0008531496845277667 0.0004927011246530838 -0.005786866694730845 -0.007612837295924075 
-0.01220345488305259 0.01453045748918087 -0.007334277548655723 0.004121841987472059 -0.01464725066477925 -0.01951677421365156 
-0.009715797069024217 0.006019017716293505 -0.00718651157190522 -0.001455047487904078 -0.01141409657084444 0.002389488141490562 
0.004208624374026997 0.02137620700162312 -0.01576362500228173 -0.02198310478695613 -0.01024776506051889 0.009594644807106249 
-0.003731700992250188 0.01952274646988667 -0.02030096218427688 -0.009012237756197874 -0.02069493046927865 -0.01433295658706826 
-0.002507999950048877 0.004989569682661049 0.003462261067916906 -0.006657327016553991 -0.007962745088873426 -0.009544958517909987 
-0.002486859786523394 -0.01360062628250399 -0.01080891738219835 -0.009050728419828066 0.007428524478797245 -0.01587779804991091 
-0.008888188164873224 -0.0123091935501312 -0.008657132463143646 0.008267072274368155 -0.0005467861616942008 0.0008891563835332272 
-0.01402175499970994 -0.02221587036702715 0.0009050963229912862 -0.002973419168298224 -0.007013272949722303 0.02171246890097812 
0.008007572623677977 0.02674648855357465 -0.001936867172338332 -0.03046629591479439 -0.01613344586810041 -0.006064907792185255 
-0.008188333817256694 0.01904583592013822 -0.002951304242574596 -0.01678001963680254 -0.007026539447349854 0.0002517358114256863 
-0.003181437811081736 -0.01397450728200788 -0.003967455908242735 0.002154016137517665 -0.01397060549581882 -0.0005012385273314764 
-0.008837323247935826 -0.01836522392069092 0.004865422864810263 0.02268971234834329 -0.02088880602377596 0.01832528198592539 
-0.005888915616776379 -0.002720958120283694 0.0003960159407394997 -0.006034832669131161 0.01284463861667829 -0.006488353087510393 
-0.001990756234970065 -0.001055632409139451 -0.008978792074397279 -0.01167650632982139 -0.01774634134962077 0.004065111738762187 
0.02108939590984164 0.00532119834161477 -0.003609033939146037 -0.02260258782224729 -0.01814366499301834 -0.01018050691526681 
0.004651191776817978 -0.02928776851884532 9.112008952494553e-05 -0.01195313957328085 0.03004770942985212 -0.03011365024702142 
-0.0005953593070999271 -0.02619293596267366 -0.00112631624723656 0.02313443969296766 -0.02437855349436811 -0.002789531134351955 
-0.02645702415550036 0.01059212854773073 0.004114608827041441 -0.01913164653889152 -0.02783519861956699 0.02113576326536206 
-0.01113532928632216 0.03815773027116341 -0.007747293033316577 -0.02187755664334265 -0.02323407380141509 0.001703755878827694 
0.0218165757763075 0.01381618863612467 -0.001763755209412905 -0.02662322061421288 -0.0157867938666992 -0.014343199495999 
0.001894632608489921 -0.03261914913413407 -0.007491644786041764 0.02642778262975622 -0.02037418658128118 -0.002401294562869306 
0.005826111914586332 -0.01155353186306815 0.01873864968211087 0.01966278750224833 -0.03329519139122884 -0.002989350631405542 
0.006513211154340023 -0.02066500229368002 -0.01739370635851854 -0.01080441643901264 -0.005308611049179651 0.03550098154216075 
-0.01940901056026275 0.03199014936420538 -0.01510921690901515 -0.02387501732321397 -0.01787860184512117 0.01621611901892347 
0.01614767130537708 0.03036967689781566 0.0003099608380024037 -0.02889706605832395 -0.01643906870708198 -0.02080412876462225 
0.008526795687806793 -0.02275700960916828 0.007998429874571255 -0.007999629578602578 0.0196513266693188 -0.02326629745662132 
-0.008104491836973796 -0.01484085170994988 0.0149821322837998 0.006989203990198034 -0.02722070411058341 0.01674579136118243 
-0.0233870633831225 -0.0164395744400008 -0.01016344164258439 -0.01708990163400608 0.02805557937554629 0.01468760348264642 
-0.03368207192989522 0.03858231870579806 -0.01610490171776834 -0.0124365339305062 -0.02401250528365002 0.01050741103627053 
0.01851671349773304 -0.002596564303999617 -0.005534718091127129 -0.00755582957768215 -0.02341636960215302 -0.006400419846780376 
0.01920741051940222 -0.03599669758644257 -0.01748758946974306 0.0431741378860812 -0.02046256048786979 -0.01695987076843178 
0.03270724049334269 -0.02924796878383834 0.01733563107918671 -0.002667372065074394 -0.03136925771456029 -0.006283495195383239 
0.01325488882059785 0.004204451821326264 -0.02765764757585794 -0.020602188662008 -0.01890056415834319 0.02790203544108621 
-0.03714810936863335 0.002646540817644683 -0.01594505624923993 -0.01713758726859771 0.01579835440067367 0.0177598301437052 
-0.008720933463187745 0.01300110722915149 -0.002820802231544321 -0.01158668686556934 -0.01481890606409435 0.002476987206209331 
0.006844411973251172 0.007855037740600361 0.01476095434317951 -0.006130318925169136 -0.0004447188367083069 -0.01602524900257249 
-0.008979630737982221 -0.003389881024300647 -0.0008775869561647359 0.01376040363080406 -0.01337183321456871 0.01274437004348476 
-0.0335189927915519 0.02257657163417262 -0.004372214120700101 -0.02666500520809575 0.01523766509038733 -0.001631371605245963 
-0.009189465149416504 -0.01163707527482127 -0.02232567683771145 -0.01853167327955053 0.03697286056946744 -0.002090417998168638 
0.04259069647193818 0.007417390982364236 -0.008585467387802895 -0.02439886336667882 -0.02137375960373364 -0.0165057623704191 
0.02936183487480993 -0.03756054725452497 -0.02390736610246405 0.04273780521124307 -0.01859632636126049 -0.02478159439230274 
0.01153427077787167 -0.02237144050135951 -0.006069211536011918 0.006421887887724522 -0.01658817951260267 -0.001953109992402722 
-0.0164242492930393 -0.01560624558837943 -0.01067911644263363 -0.01752655453757246 -0.008617950615743233 0.03062397393017488 
-0.03942379744001839 0.003387754166701579 -0.007820686233203903 -0.01850159702824916 -0.01205453619363349 0.04781590323072721 
0.01446145458374281 0.01614807147393563 -0.03276751803247038 0.02711041809134035 -0.01647201042430205 -0.004658841717108089 
0.01321401768069106 0.01298929377221125 0.004506367264211145 0.01333485182250813 -0.01152651072122225 -0.03806769943349694 
-0.008505540064138868 0.006954913204129754 0.003397563005716686 0.02640210917865037 -0.007945477438483204 -0.007787556652483419 
-0.0236660848152319 0.00410957070744655 -0.02008076446372323 -0.02075951109130816 0.04027449952669306 0.001517152832460727 
-0.03980158507705937 0.006836227184883134 0.003401145590877401 -0.02040813609123294 0.0116951110927342 0.01902047132021674 
0.003599901236970446 -0.008487897627176678 -0.006887343271527835 -0.0001865827003804333 -0.01543305074252879 -0.0007754300196674248 
0.06413814665967944 -0.04827539489617987 -0.0456956052054243 0.06418399203005992 -0.02815405901311347 -0.03842025362036871 
0.01107310086978156 -0.02358532786017757 -0.007115569701744378 0.009281710522357357 -0.01589230763870749 -0.005035315811449209 
-0.02949293330744486 0.01727260652045524 -0.006873673925525728 -0.03299367045563562 0.01824196834797482 0.02241468082212894 
-0.03397659751627127 0.008841659019645129 -0.0116123987330257 -0.02363974805375931 0.02265518450200544 -0.002876576427580667 
-0.001746634556133968 0.02097324251814315 -0.009063131297053776 0.01831169376259245 -0.007932247448179462 -0.01087481466391049 
-0.0004558790693776656 -0.004347983957883978 -0.007424368470345102 0.04456821168001168 -0.008556269065194889 -0.020609813116429 
0.005257561000500129 0.01764519478328498 -0.01261136078986993 0.01045664337071323 -0.004688912662715063 -0.009540860437514643 
-0.01845834663528323 0.02553638914058899 -0.01772756190119334 -0.02073753328425555 -0.01318554760183278 0.01740390228201009 
-0.03683669159271682 0.01018410187388822 -0.02026187407630953 -0.02958458234211877 0.00441351635564369 0.05041653790657029 
0.02077942461106888 -0.01171281650480221 -0.01991878454351454 0.01160847460387892 -0.01319331200011403 -0.009431539497491948 
0.04184268025986735 -0.0534579059450514 -0.05159433744025631 0.06863119269636594 -0.02539808437542707 -0.02243236977566821 
0.01184232479084204 -0.01465966370127056 0.006371012158378061 0.000746549094479083 -0.01245677101975445 -0.009735200442101143 
-0.0267978087431238 -0.005154377744226452 -0.01090199624054309 -0.02128241006717133 0.02433746511454753 0.01470786393973156 
-0.02985675161356826 0.006403405622449854 -0.008109599369506434 -0.02888778384060251 0.03998207869354804 -0.007894947552500206 
-0.01249763856483802 0.006922745443034656 0.004212888275237348 -0.00219666150819401 -0.0211418966323527 0.01291880100729447 
0.01743068755814014 -0.01463243360776562 0.002230461741218125 -0.004723889472575245 0.01864383604333785 -0.02998149896229295 
0.006663023930002497 -0.003196897886766348 -0.008776174191832773 -0.002985767274943606 -0.004886446777002972 0.002014263614599478 
-0.01285604502556985 0.0152564639226351 -0.02172630318676654 -0.02015042250395006 0.01307892394024352 0.0001563182013028533 
-0.02137260781677553 -0.01121752217998307 -0.02116228685109985 -0.01540270160549823 0.005785012203096749 0.0353979716061287 
0.01971783252479169 -0.01369455454749643 -0.003973525255226285 0.01646820428889859 -0.01337517129295625 -0.01580983986714866 
0.01068974008316999 -0.0385461218541536 -0.01999274891528913 0.03894350317590912 -0.02051419906117993 -0.01269213502114244 
0.00863330586067926 0.009567139477241506 -0.007867875439664303 -0.01281302911663441 -0.02162793517267897 0.003223311875554331 
-0.001197539457478019 -0.00106535204801882 -0.01876736687799768 -0.0115788126512968 -0.001481522529883375 0.009594748547230757 
-0.01956327819301597 -0.008319708944324046 -0.009828569343631072 -0.008304391549416234 -0.01822142030879839 0.02956970594236501 
-0.01371618639667451 -0.01215351683565709 0.006173226012010226 0.01879058751991752 -0.01752307364612173 0.009796177713126625 
0.01525181955858212 -0.02919210865009065 -0.01608384185052698 -0.007529559160369435 0.03253344124052449 -0.0205035154825436 
0.03424525299849065 0.01555682514922857 -0.00930462865200179 -0.02894124086764118 -0.01207925899882448 -0.01632078950021479 
0.008311357914899507 0.02872471705298108 -0.0115488767452177 -0.02319460375709638 -0.03346654151603139 9.099492272377227e-05 
-0.003078594124879305 0.001897371149619335 -0.01243982174918097 -0.0208308989250692 -0.01079310509679993 0.01877610270681748 
0.01878165438698005 -0.02892539694495883 0.01870831956869841 -0.005732640540317044 -0.02657934067595693 -0.001691551690334073 
-0.001816568724057416 -0.04351010989934823 -0.008917359956229352 0.04337118156942212 -0.03160864563259093 0.005186737850770536 
0.01130283011801572 0.00684625863128482 -0.004838097343004795 -0.007682143855470924 -0.02286585396874532 -0.004934123326242351 
-0.01655440524315707 0.05612096965176972 -0.02404134318439027 -0.0221018880752998 -0.003432079405397372 -0.009238089542906938 
-0.0246484843789896 0.01085207363447243 -0.001242498559669869 -0.01326748824368332 -0.02622029349147748 0.02350829511332319 
-0.007071175164919172 -0.006202101370962654 -0.01136098277174078 0.02405793873743704 -0.01542372070210042 -0.008513297132063164 
0.005520426707615909 -0.02424445614504411 -0.01576763288069246 -0.01441543539656198 0.02762539223745762 -0.00922098198236824 
0.0145554688901369 -0.006636062858843717 -0.001072569927644254 -0.02799721746590318 -0.01612201121113601 0.01415836820019382 
-0.01864104180608197 0.01947532806587632 -0.01030031728862589 -0.0112667648826821 -0.02035863037128546 0.001422425662430793 
0.01059015997749233 -0.0007660462909206845 0.01159150805985524 -0.01904089769961365 -0.0251644016762036 0.009707604285375567 
